tree
version=v4
num_class=1
num_tree_per_iteration=1
label_index=0
max_feature_idx=10
objective=quantile
feature_names=hour day_of_week month is_weekend hour_sin hour_cos temp_c cloud_cover_pct shortwave_radiation_w_m2 vacation_mode_flag alarm_armed_flag
feature_infos=[0:23] [0:6] [1:12] [0:1] [-1:1] [-1:1] [-6.4000000000000004:13.4] [0:100] [0:282] none none
tree_sizes=2683 2690 2791 2796 2771 2797 2801 2799 2805 2809 2846 2822 2781 2841 2780 2850 2828 2824 2864 2837 2824 2828 2854 2851 2862 2881 2868 2874 2889 2920 2865 2862 2879 2859 2894 2891 2874 2891 2890 2910 2895 2864 2905 2867 2889 2884 2911 2856 2885 2906 2921 2902 2898 2903 2907 2903 2871 2897 2932 2872 2897 2908 2934 2956 2907 2913 2934 2911 2893 2940 2910 2921 2893 2924 2938 2927 2902 2921 2923 2921 2917 2914 2884 2932 2916 2913 2922 2901 2913 2921 2910 2882 2898 2921 2910 2912 2897 2909 2902 2902 2895 2922 2918 2915 2919 2945 2921 2905 2922 2898 2940 2922 2876 2930 2931 2921 2907 2908 2953 2940 2919 2931 2935 2916 2899 2924 2907 2920 2924 2943 2927 2923 2923 2904 2921 2935 2935 2931 2920 2943 2937 2927 2930 2898 2900 2931 2903 2906 2950 2897 2910 2927 2905 2891 2900 2916 2914 2916 2907 2901 2936 2951 2916 2930 2918 2908 2951 2920 2927 2889 2903 2904 2909 2925 2897 2960 2907 2875 2887 2899 2925 2901 2920 2920 2911 2909 2908 2914 2902 2902 2914 2900 2910 2908 2890 2903 2929 2930 2958 2901

Tree=0
num_leaves=31
num_cat=0
split_feature=5 0 8 6 2 5 0 2 0 2 1 1 1 1 1 2 8 8 1 8 1 1 0 0 1 1 1 1 1 1
split_gain=65.4497 10.9677 8.4747 4.56455 4.39154 4.24899 5.02065 2.86807 2.24359 2.99226 3.0353 3.25105 2.92225 2.36516 1.93236 1.8802 1.57362 1.08908 0.848695 0.821803 0.812698 0.645069 0.68848 0.608443 0.591307 0.596795 0.509665 0.625 0.418655 0.404116
threshold=-0.78656609248549325 13.500000000000002 133.50000000000003 4.5500000000000007 6.0000000000000009 -0.60355339059327384 14.500000000000002 11.500000000000002 12.500000000000002 11.500000000000002 1.5000000000000002 1.0000000180025095e-35 2.5000000000000004 5.5000000000000009 1.5000000000000002 6.0000000000000009 158.50000000000003 75.500000000000014 2.5000000000000004 4.5000000000000009 1.5000000000000002 3.5000000000000004 11.500000000000002 11.500000000000002 4.5000000000000009 3.5000000000000004 1.5000000000000002 1.0000000180025095e-35 3.5000000000000004 4.5000000000000009
decision_type=2 2 10 10 2 2 2 2 2 2 2 2 2 2 2 2 10 10 2 8 2 2 2 2 2 2 2 2 2 2
left_child=1 2 3 4 14 6 7 15 9 12 11 -11 -6 18 -1 -2 -3 -5 -12 -17 -21 -16 -23 -14 25 -20 27 -9 -4 -25
right_child=5 16 28 17 8 -7 -8 26 -10 10 13 -13 23 -15 21 19 -18 -19 24 20 -22 22 -24 29 -26 -27 -28 -29 -30 -31
leaf_value=0.11563750103414065 0.098736248157247852 0.10000000149011612 0.12000000141561032 0.10000000149011612 0.11500000171363353 0.095000001415610311 0.095000001415610311 0.10000000149011612 0.11000000201165676 0.11000000201165676 0.11500000171363353 0.1239999961704001 0.13000000081956387 0.12000000141561032 0.096972501284778106 0.11099999593198291 0.11000000201165676 0.11849999757111096 0.10500000156462193 0.10500000156462193 0.12000000141561032 0.10000000149011612 0.11549999822676202 0.11899999378621544 0.11000000201165676 0.10000000149011612 0.10000000149011612 0.11000000201165676 0.13000000081956387 0.1219999968558545
leaf_weight=25 34 241 23 91 107 4229 265 20 181 49 51 53 108 42 45 25 20 34 40 21 60 34 30 25 37 38 81 20 20 24
leaf_count=25 34 241 23 91 107 4229 265 20 181 49 51 53 108 42 45 25 20 34 40 21 60 34 30 25 37 38 81 20 20 24
internal_value=0.0983427 0.108202 0.110468 0.109546 0.110804 0.0956099 0.0998479 0.10477 0.112285 0.113815 0.110484 0.117549 0.117727 0.107019 0.102463 0.109643 0.099023 0.1006 0.104337 0.112925 0.11537 0.0995872 0.102813 0.12207 0.101957 0.0994872 0.0991322 0.10375 0.132209 0.117449
internal_weight=6073 1318 1057 1014 889 4755 526 261 755 574 310 102 264 208 134 140 261 125 166 106 81 109 64 157 115 78 121 40 43 49
internal_count=6073 1318 1057 1014 889 4755 526 261 755 574 310 102 264 208 134 140 261 125 166 106 81 109 64 157 115 78 121 40 43 49
is_linear=0
shrinkage=1


Tree=1
num_leaves=31
num_cat=0
split_feature=8 0 0 0 7 7 0 2 2 1 1 1 1 1 1 0 0 0 7 0 2 0 2 7 0 0 1 1 1 0
split_gain=18.4074 15.2144 46.2398 9.31279 9.64552 5.32459 2.98225 2.92163 5.84286 4.30267 2.84251 3.72444 2.89286 2.71093 2.00554 1.75946 1.69775 1.4596 1.35087 1.3285 1.17863 1.11783 0.910671 1.04457 0.816939 0.614087 0.605987 0.54 0.43324 0.391416
threshold=139.50000000000003 14.500000000000002 8.5000000000000018 13.500000000000002 93.500000000000014 5.5000000000000009 13.500000000000002 11.500000000000002 6.0000000000000009 2.5000000000000004 2.5000000000000004 1.0000000180025095e-35 4.5000000000000009 1.5000000000000002 1.5000000000000002 10.500000000000002 7.5000000000000009 10.500000000000002 32.500000000000007 12.500000000000002 11.500000000000002 12.500000000000002 6.0000000000000009 41.500000000000007 10.500000000000002 12.500000000000002 2.5000000000000004 5.5000000000000009 3.5000000000000004 9.5000000000000018
decision_type=10 2 2 2 10 8 2 2 2 2 2 2 2 2 2 2 2 2 10 2 2 2 2 10 2 2 2 2 2 2
left_child=1 2 16 4 5 -4 18 8 14 21 11 -9 28 24 -7 -15 -1 27 -2 29 22 -10 -18 26 -13 -16 -24 -14 -12 -11
right_child=6 -3 3 -5 -6 7 -8 10 9 19 12 13 17 15 25 -17 20 -19 -20 -21 -22 -23 23 -25 -26 -27 -28 -29 -30 -31
leaf_value=-0.0047500000707805159 0.02849999936297536 -0.0047500000707805159 0.019450000203400857 0 0 0.014774375155419649 0.0095000004954636091 0.0054999896474173231 0.016024986250699518 0.014000000227242709 0.0045749996557831411 0.013800000489503221 -0.00020000029653312264 0 0 0.014974994619936084 -0.0046375001560896604 0.011499991316348854 0.014000000227242709 0.014500000197440386 -0.0047500000707805159 0.0034999962188302907 0.00025000000372529043 -0.0047500000707805159 0.018800000191479996 0.0082249979726967751 0.00025000000372529043 0.014699999676272278 0 0.024050001502782123
leaf_weight=1899 22 2322 21 238 192 26 35 89 138 53 68 33 25 31 90 50 31 77 20 47 122 33 35 22 46 23 51 24 58 152
leaf_count=1899 22 2322 21 238 192 26 35 89 138 53 68 33 25 31 90 50 31 77 20 47 122 33 35 22 46 23 51 24 58 152
internal_value=-0.00136918 -0.00168112 0.000321175 0.00702113 0.00871473 0.0105443 0.0229221 0.0100517 0.0125267 0.0154492 0.00727545 0.0110643 0.00353174 0.015625 0.00363309 0.00919753 -0.004375 0.00888889 0.0319048 0.0196032 -0.000593871 0.00932748 0.00255396 0.00472222 0.0222152 0.000752211 0.0072093 0.00214286 -0.0018254 0.0213415
internal_weight=6073 5996 3674 1514 1276 1084 77 1063 562 423 501 249 252 160 139 81 2160 126 42 252 261 171 139 108 79 113 86 49 126 205
internal_count=6073 5996 3674 1514 1276 1084 77 1063 562 423 501 249 252 160 139 81 2160 126 42 252 261 171 139 108 79 113 86 49 126 205
is_linear=0
shrinkage=0.05


Tree=2
num_leaves=31
num_cat=0
split_feature=5 7 0 7 5 0 1 1 6 7 1 5 0 0 6 0 7 0 1 1 0 6 6 1 1 5 0 1 1 1
split_gain=63.0901 13.2641 10.3385 5.8471 5.0025 4.46135 1.90775 3.50218 1.89002 1.70799 1.46876 0.822321 1.01535 0.686201 0.592878 0.551828 0.516449 0.471372 0.356871 0.433084 0.334524 0.295335 1.03426 0.285714 0.281319 0.220941 0.177778 0.149015 0.205782 0.268872
threshold=-0.78656609248549325 12.500000000000002 13.500000000000002 90.500000000000014 -0.60355339059327384 14.500000000000002 1.0000000180025095e-35 1.5000000000000002 -0.14999999999999999 7.5000000000000009 4.5000000000000009 -0.37940952255126015 15.500000000000002 12.500000000000002 9.1500000000000004 12.500000000000002 25.000000000000004 10.500000000000002 2.5000000000000004 5.5000000000000009 11.500000000000002 1.3500000000000003 4.1500000000000012 5.5000000000000009 2.5000000000000004 -0.98296291314453399 12.500000000000002 5.5000000000000009 1.0000000180025095e-35 1.5000000000000002
decision_type=2 8 2 10 2 2 2 2 10 10 2 2 2 2 10 2 10 2 2 2 2 10 10 2 2 2 2 2 2 2
left_child=1 15 3 6 5 9 25 26 10 27 20 12 16 17 21 -1 18 23 -6 -20 -9 -5 -23 -12 -24 -3 -8 28 -2 -30
right_child=4 2 -4 14 11 -7 7 8 -10 -11 13 -13 -14 -15 -16 -17 -18 -19 19 -21 -22 22 24 -25 -26 -27 -28 -29 29 -31
leaf_value=0.028275624554101059 0.0056816221241762725 0.012892497283779678 0 -0.0016000001062639305 -0.0044270003021284927 -0.0045125000672414902 0.018448750601783349 0.012297500181905924 0.014937497570179557 -0.0010400006813369807 0.012297500181905924 -0.0045125000672414902 -0.0045125000672414902 0.008925000929646168 0.0079699988177230254 0.017074996152334144 -0.0045125000672414902 0.018925000333599722 0.00023750000353902625 -0.0045125000672414902 0.0078475008315965697 0.0084500002741253327 0.0066499983272512615 0.022587750471623577 0 0.0087349903044460688 0.0097484977067190878 0.0083000005139037963 0.0089494681981696581 0.013300000215880573
leaf_weight=26 28 32 250 26 93 265 90 182 26 58 28 3706 262 59 22 21 53 113 88 27 174 28 26 28 65 92 30 28 31 116
leaf_count=26 28 32 250 26 93 265 90 182 26 58 28 3706 262 59 22 21 53 113 88 27 174 28 26 28 65 92 30 28 31 116
internal_value=-0.00140211 0.00827769 0.00731314 0.00954456 -0.00408517 0.000513307 0.0112178 0.0121918 0.0106557 0.00515326 0.0100685 -0.00465713 -0.00280115 0.0132018 0.000988023 0.0343617 -0.000593871 0.0148225 0.000528845 0.0023913 0.0080618 -0.000172415 0.000882352 0.0110714 -0.0017033 0.00548387 0.02 0.00731527 0.00785714 0.00860544
internal_weight=6073 1318 1271 1021 4755 526 854 730 610 261 584 4229 523 228 167 47 261 169 208 115 356 145 119 56 91 124 120 203 175 147
internal_count=6073 1318 1271 1021 4755 526 854 730 610 261 584 4229 523 228 167 47 261 169 208 115 356 145 119 56 91 124 120 203 175 147
is_linear=0
shrinkage=0.05


Tree=3
num_leaves=31
num_cat=0
split_feature=5 7 0 7 5 0 2 2 1 2 1 1 1 1 2 7 0 1 0 7 1 5 0 2 2 7 1 0 1 1
split_gain=61.9985 13.3413 10.1607 5.71401 5.56954 3.26873 3.16713 3.44034 3.22291 2.86807 2.58608 3.92763 2.99469 2.24179 1.8802 1.5277 1.43069 1.36566 1.1871 0.974682 0.865822 0.822321 1.01535 1.17863 0.910671 1.04457 0.707071 0.695046 0.664213 0.605987
threshold=-0.78656609248549325 12.500000000000002 13.500000000000002 90.500000000000014 -0.60355339059327384 14.500000000000002 6.0000000000000009 11.500000000000002 2.5000000000000004 11.500000000000002 2.5000000000000004 1.0000000180025095e-35 4.5000000000000009 1.5000000000000002 6.0000000000000009 7.5000000000000009 11.500000000000002 1.5000000000000002 12.500000000000002 95.500000000000014 3.5000000000000004 -0.37940952255126015 15.500000000000002 11.500000000000002 6.0000000000000009 41.500000000000007 3.5000000000000004 11.500000000000002 1.5000000000000002 2.5000000000000004
decision_type=2 8 2 10 2 2 2 2 2 2 2 2 2 2 2 10 2 2 2 8 2 2 2 2 2 10 2 2 2 2
left_child=1 -1 3 6 5 9 17 8 18 14 11 -9 -12 -13 -2 28 -10 -3 -8 -7 -18 22 23 24 -6 29 -19 -28 -16 -26
right_child=4 2 -4 -5 21 19 7 10 16 -11 12 13 -14 -15 15 -17 20 26 -20 -21 -22 -23 -24 -25 25 -27 27 -29 -30 -31
leaf_value=0.025842217654044798 -0.0017329653153562081 0.013159468321878068 0 0.0029718994167569506 -0.0041842751301210427 6.2498231418461894e-07 0.012949638269412408 0.0076219429030622001 0.026682623488681376 -0.00055908086300730602 -0.00039237504157982886 0.016937562651816829 0.011769917730355101 0.012886375472249446 0.012517611787834337 0.0029419981070486546 0.0074551257900167412 -0.003551500079577722 0.0068578417563800904 -0.0042868750638794155 0.013382625145988539 -0.0042868750638794155 -0.0042868750638794155 -0.0042868750638794155 0.0004588500186454507 -0.0042868750638794155 -0.00061487500909529621 0.015331997249307339 0.017362493503140689 0.00046312472377903397
leaf_weight=47 34 20 250 167 31 20 104 73 101 121 100 63 102 65 22 23 24 35 35 245 77 3706 262 122 35 22 28 27 61 51
leaf_count=47 34 20 250 167 31 20 104 73 101 121 100 63 102 65 22 23 24 35 35 245 77 3706 262 122 35 22 28 27 61 51
internal_value=-0.00139388 0.00820182 0.00723446 0.00944662 -0.00405363 0.000798478 0.0111007 0.0122715 0.0159677 0.00477011 0.00914392 0.0131592 0.00514851 0.0184375 0.00964286 0.0129245 0.02 0.00318182 0.0101079 -0.00311321 0.0157921 -0.00465713 -0.00280115 -0.000593871 0.00255396 0.00472222 0.000555554 0.00409091 0.0160843 0.0072093
internal_weight=6073 1318 1271 1021 4755 526 854 744 341 261 403 201 202 128 140 106 202 110 139 265 101 4229 523 261 139 108 90 55 83 86
internal_count=6073 1318 1271 1021 4755 526 854 744 341 261 403 201 202 128 140 106 202 110 139 265 101 4229 523 261 139 108 90 55 83 86
is_linear=0
shrinkage=0.05


Tree=4
num_leaves=31
num_cat=0
split_feature=8 0 0 0 8 2 2 1 1 1 1 0 1 1 0 0 0 0 0 6 2 8 2 2 1 1 2 0 6 0
split_gain=18.4573 14.8957 45.174 9.04379 5.10469 3.11206 4.35078 4.27347 3.18879 3.97142 3.28348 2.98225 2.9 2.70958 1.69775 1.54546 1.51566 1.46168 1.40518 1.32368 1.76177 1.2777 1.17863 0.910671 0.862091 0.826154 0.817859 0.681818 0.666027 0.649573
threshold=139.50000000000003 14.500000000000002 8.5000000000000018 13.500000000000002 77.500000000000014 6.0000000000000009 11.500000000000002 2.5000000000000004 2.5000000000000004 1.0000000180025095e-35 1.5000000000000002 13.500000000000002 4.5000000000000009 1.5000000000000002 7.5000000000000009 10.500000000000002 11.500000000000002 10.500000000000002 12.500000000000002 3.4500000000000006 6.0000000000000009 26.500000000000004 11.500000000000002 6.0000000000000009 3.5000000000000004 3.5000000000000004 11.500000000000002 10.500000000000002 8.8500000000000032 9.5000000000000018
decision_type=10 2 2 2 8 2 2 2 2 2 2 2 2 2 2 2 2 2 2 10 2 10 2 2 2 2 2 2 8 2
left_child=1 2 14 4 19 13 7 18 9 -8 -11 -2 -10 -6 -1 -12 24 -14 -7 20 -4 -22 23 -16 -9 -18 27 -21 -25 -26
right_child=11 -3 3 -5 5 6 8 16 12 10 15 -13 17 -15 22 -17 25 -19 -20 26 21 -23 -24 28 29 -27 -28 -29 -30 -31
leaf_value=-0.0040725313106854451 0.023925106265102716 -0.0040725313106854451 -0.0035880274958011967 0 0.012453995541766655 0.012773219812793014 0.0081992698634973955 0.024256139520188666 -0.00059525625701630511 0.016090684519225986 8.8522060156844001e-05 0.0068791397803714821 0.0034780260095858169 -0.00045580042337318874 -0.0039750613736149907 0.014139551243620202 0.0070823695005159037 0.0087902465745102968 7.6416342242726504e-05 0.020801936818858072 0.0053216072125661842 0.015832739267172845 -0.0040725313106854451 -0.0040725313106854451 0.011766875529929511 0.012713493888689113 -0.0010120963908822843 -0.00014859497083784744 0.00043590751771317786 0.025116529990651726
leaf_weight=1899 42 2322 27 238 27 133 81 37 120 80 29 35 48 110 31 48 26 79 38 33 31 20 122 23 36 73 100 22 85 78
leaf_count=1899 42 2322 27 238 27 133 81 37 120 80 29 35 48 110 31 48 26 79 38 33 31 20 122 23 36 73 100 22 85 78
internal_value=-0.00140211 -0.00171448 0.000266738 0.00688903 0.00855799 0.0100527 0.0111148 0.0148337 0.0078866 0.0120168 0.016656 0.0229221 0.00390688 0.0030292 -0.004375 0.00928571 0.019 0.00917323 0.00874269 0.00186695 0.00717949 0.0126471 -0.000593871 0.00255396 0.0221523 0.0141919 -0.000806453 0.00409091 0.00472222 0.02
internal_weight=6073 5996 3674 1514 1276 1043 906 421 485 238 157 77 247 137 2160 77 250 127 171 233 78 51 261 139 151 99 155 55 108 114
internal_count=6073 5996 3674 1514 1276 1043 906 421 485 238 157 77 247 137 2160 77 250 127 171 233 78 51 261 139 151 99 155 55 108 114
is_linear=0
shrinkage=0.05


Tree=5
num_leaves=31
num_cat=0
split_feature=5 7 4 8 5 4 2 2 4 2 2 1 1 1 7 1 8 1 1 1 5 4 2 2 7 1 4 1 1 4
split_gain=57.2514 11.9176 8.81949 5.88787 4.64139 4.09788 2.86807 2.52427 1.94762 2.19711 1.8802 1.77557 3.50234 1.63879 1.5277 1.35112 1.3306 1.30503 1.57596 1.05625 0.822321 1.01535 1.17863 0.910671 1.04457 0.728256 0.675392 0.664213 0.605987 0.593407
threshold=-0.78656609248549325 21.500000000000004 -0.25881904510252113 77.500000000000014 -0.60355339059327384 0.60355339059327384 11.500000000000002 6.0000000000000009 1.0000000180025095e-35 11.500000000000002 6.0000000000000009 1.5000000000000002 1.0000000180025095e-35 2.5000000000000004 7.5000000000000009 1.5000000000000002 83.500000000000014 4.5000000000000009 3.5000000000000004 2.5000000000000004 -0.37940952255126015 0.78656609248549325 11.500000000000002 6.0000000000000009 41.500000000000007 3.5000000000000004 0.37940952255126054 1.5000000000000002 2.5000000000000004 0.37940952255126054
decision_type=2 8 2 8 2 2 2 2 2 2 2 2 2 2 10 2 10 2 2 2 2 2 2 2 10 2 2 2 2 2
left_child=1 13 -3 29 5 -2 10 15 -9 16 -7 12 -11 -1 27 -5 19 18 -13 -10 21 -6 23 -23 28 -17 -19 -12 -25 -4
right_child=4 2 3 7 20 6 -8 8 9 11 14 17 -14 -15 -16 25 -18 26 -20 -21 -22 22 -24 24 -26 -27 -28 -29 -30 -31
leaf_value=0.0098203722513469753 -0.0038689047451511728 0 -0.00014116522229595531 0.011878795128695833 -0.0038689047451511728 -0.0015765434991144322 -0.0006414720706515054 0.0070075775516086391 0.0065328582896946631 0.007997190859542461 0.01125307020780297 0.006713078973496928 0.020286151485357583 0.024041051265048248 0.0023296043352920843 -0.0033649030497470509 0.016065170359202949 0.016450736767061075 -0.00056549344416549012 0.021554870294984069 -0.0038689047451511728 -0.0037763083049342418 -0.0038689047451511728 0.00041411214182751903 -0.0038689047451511728 0.00660605231730323 0.0089010647143682071 0.015454272990568544 0.00041817338042831839 0.0054161315043114713
leaf_weight=25 265 248 100 20 262 34 121 201 96 49 22 83 46 30 23 35 21 51 35 144 3706 31 122 35 22 54 24 61 51 56
leaf_count=25 265 248 100 20 262 34 121 201 96 49 22 83 46 30 23 35 21 51 35 144 3706 31 122 35 22 54 24 61 51 56
internal_value=-0.00155031 0.00767071 0.00667854 0.00874384 -0.00410621 0.000323193 0.00477011 0.0103667 0.0114 0.0129417 0.00964286 0.00993055 0.0155263 0.0304545 0.0129245 0.00325688 0.0162644 0.00717616 0.0038983 0.0152083 -0.00465713 -0.00280115 -0.000593871 0.00255396 0.00472222 0.000617976 0.0123333 0.0160843 0.0072093 -0.000192309
internal_weight=6073 1318 1263 1015 4755 526 261 859 750 549 140 288 95 55 106 109 261 193 118 240 4229 523 261 139 108 89 75 83 86 156
internal_count=6073 1318 1263 1015 4755 526 261 859 750 549 140 288 95 55 106 109 261 193 118 240 4229 523 261 139 108 89 75 83 86 156
is_linear=0
shrinkage=0.05


Tree=6
num_leaves=31
num_cat=0
split_feature=5 7 0 8 5 0 8 2 2 2 2 0 7 5 0 2 2 7 0 8 0 0 6 6 0 0 0 8 6 2
split_gain=52.6548 12.2396 8.06896 4.98359 4.4659 3.58413 2.59773 2.4915 1.80831 1.62684 1.45244 1.88721 1.28537 0.822321 1.01535 1.17863 0.910671 1.04457 0.544214 0.836185 0.526587 0.396061 0.276495 0.272455 0.250395 0.231042 0.229678 0.212715 0.200694 0.194494
threshold=-0.78656609248549325 12.500000000000002 13.500000000000002 75.500000000000014 -0.60355339059327384 14.500000000000002 152.50000000000003 11.500000000000002 6.0000000000000009 6.0000000000000009 11.500000000000002 11.500000000000002 7.5000000000000009 -0.37940952255126015 15.500000000000002 11.500000000000002 6.0000000000000009 41.500000000000007 10.500000000000002 5.5000000000000009 10.500000000000002 12.500000000000002 3.7500000000000004 10.15 12.500000000000002 12.500000000000002 12.500000000000002 149.50000000000003 4.6500000000000012 6.0000000000000009
decision_type=2 8 2 8 2 2 10 2 2 2 2 2 10 2 2 2 2 10 2 10 2 2 8 8 2 2 2 8 10 2
left_child=1 25 3 18 5 7 8 9 26 -2 11 -10 -11 14 15 16 -6 -18 19 -3 -12 -13 -7 -9 -22 -1 -5 -4 -20 -29
right_child=4 2 27 6 13 22 -8 23 10 12 20 21 -14 -15 -16 -17 17 -19 28 -21 24 -23 -24 -25 -26 -27 -28 29 -30 -31
leaf_value=0.023699464423850486 -0.0014977163241587108 -0.00070129706487284281 -0.00026199643702643605 0.0074499053494958868 -0.0035874928896875297 1.4436549897376384e-07 0.013445424987059251 -0.0048373675742119024 0.018534424596878232 0.014080062395761817 0.0090218321838764892 0.010280016863291299 0.0022131241185274803 -0.0036754595078936146 -0.0036754595078936146 -0.0036754595078936146 0.00039340653473614318 -0.0036754595078936146 -1.3850093179985056e-05 0.011156016772978642 0.011556428742929494 0.0072926550781844159 -0.0036754595078936146 0.0026180131828394261 0.0060707843644210828 0.012530828330962569 0.006903346456504672 0.0026724986010787434 -0.00013410696118115739 0
leaf_weight=26 34 31 43 80 31 24 20 30 169 83 92 86 23 3706 262 122 86 22 36 26 198 87 241 91 107 21 29 25 60 182
leaf_count=26 34 31 43 80 31 24 20 30 169 83 92 86 23 3706 262 122 86 22 36 26 198 87 241 91 107 21 29 25 60 182
internal_value=-0.00166557 0.00717754 0.00625098 0.00822233 -0.00411672 0.000228136 0.00968894 0.00438697 0.00926887 0.00892857 0.0101556 0.0125439 0.0119811 -0.00465713 -0.00280115 -0.000593871 0.00255396 0.00472222 -9.80404e-05 0.00377193 0.00809824 0.00887283 -0.00386793 -0.00086777 0.00909836 0.032234 0.00325688 -0.0018 -0.00239583 -0.00113527
internal_weight=6073 1318 1271 1021 4755 526 868 261 848 140 739 342 106 4229 523 261 139 108 153 57 397 173 265 121 305 47 109 250 96 207
internal_count=6073 1318 1271 1021 4755 526 868 261 848 140 739 342 106 4229 523 261 139 108 153 57 397 173 265 121 305 47 109 250 96 207
is_linear=0
shrinkage=0.05


Tree=7
num_leaves=31
num_cat=0
split_feature=5 7 0 5 7 0 2 2 2 7 1 2 1 1 1 1 7 0 0 5 0 2 2 7 1 0 1 7 0 1
split_gain=52.9108 12.2026 6.25823 4.64139 4.3001 2.80728 2.14142 1.99156 1.96301 1.74922 1.61866 1.39179 1.36566 1.34257 2.99469 2.25727 1.06396 0.945312 0.829668 0.822321 1.01535 1.17863 0.910671 1.04457 0.707071 0.695046 0.605987 0.59638 0.58794 0.567547
threshold=-0.78656609248549325 12.500000000000002 13.500000000000002 -0.60355339059327384 90.500000000000014 14.500000000000002 11.500000000000002 6.0000000000000009 11.500000000000002 15.500000000000002 2.5000000000000004 6.0000000000000009 1.5000000000000002 2.5000000000000004 4.5000000000000009 1.0000000180025095e-35 7.5000000000000009 11.500000000000002 12.500000000000002 -0.37940952255126015 15.500000000000002 11.500000000000002 6.0000000000000009 41.500000000000007 3.5000000000000004 11.500000000000002 2.5000000000000004 95.500000000000014 11.500000000000002 3.5000000000000004
decision_type=2 8 2 2 10 2 2 2 2 10 2 2 2 2 2 2 10 2 2 2 2 2 2 10 2 2 2 8 2 2
left_child=1 -1 4 5 7 6 11 12 9 10 18 -2 -3 15 29 -10 -13 -17 -9 20 21 22 -5 26 -14 -26 -24 -7 -12 -15
right_child=3 2 -4 19 -6 27 -8 8 13 -11 28 16 24 14 -16 17 -18 -19 -20 -21 -22 -23 23 -25 25 -27 -28 -29 -30 -31
leaf_value=0.021128672569845842 -0.0014228305079507751 0.010912360104786247 0 -0.0034081182452031533 0.00047274851726332792 3.3854956832140434e-05 -0.00074029912626090162 0.0055241506009584542 0.0060303672833651812 0.019160757526857707 0.021922513605832236 0.013376059275973724 -0.0035392384074878699 0.0031436649632499911 0.01010903721422228 0.010621603750634643 0.0021024679126011065 0.013694021281850334 0.0018353972848292105 -0.0034916865324989342 -0.0034916865324989342 -0.0034916865324989342 0.00037373620799933602 -0.0034916865324989342 -0.0012641391208118276 0.013901786308400683 0.00037759438467009512 -0.0034916865324989342 0.011362807562765004 -0.0011150402091036897
leaf_weight=47 34 20 250 31 167 20 121 95 73 22 96 83 35 53 102 64 23 64 33 3706 262 122 35 22 28 27 51 245 95 47
leaf_count=47 34 20 250 31 167 20 121 95 73 22 96 83 35 53 102 64 23 64 33 3706 262 122 35 22 28 27 51 245 95 47
internal_value=-0.0016491 0.00721548 0.00629032 -0.00410621 0.00802644 0.000323193 0.00400383 0.00946136 0.0103898 0.0131818 0.0122414 0.00821428 0.00318182 0.00802729 0.00514851 0.0109204 0.0110377 0.0149219 0.00789062 -0.00465713 -0.00280115 -0.000593871 0.00255396 0.00472222 0.000555554 0.00409091 0.0072093 -0.00330189 0.0151571 -0.001
internal_weight=6073 1318 1271 4755 1021 526 261 854 744 341 319 140 110 403 202 201 106 128 128 4229 523 261 139 108 90 55 86 265 191 100
internal_count=6073 1318 1271 4755 1021 526 261 854 744 341 319 140 110 403 202 201 106 128 128 4229 523 261 139 108 90 55 86 265 191 100
is_linear=0
shrinkage=0.05


Tree=8
num_leaves=31
num_cat=0
split_feature=5 0 8 5 6 0 2 8 0 2 1 2 1 1 1 2 1 0 8 8 5 0 2 2 0 6 8 1 0 1
split_gain=49.7677 6.53422 6.59906 4.64139 3.65196 2.80728 2.726 2.3225 2.17391 2.14142 1.93236 1.48025 2.13438 1.78069 1.7711 1.39179 1.21897 1.20065 0.99928 0.95039 0.822321 1.01535 1.17863 0.910671 0.729798 0.666027 0.648858 0.645069 0.68848 0.633535
threshold=-0.78656609248549325 13.500000000000002 152.50000000000003 -0.60355339059327384 4.5500000000000007 14.500000000000002 6.0000000000000009 28.500000000000004 11.500000000000002 11.500000000000002 1.5000000000000002 11.500000000000002 2.5000000000000004 4.5000000000000009 2.5000000000000004 6.0000000000000009 1.0000000180025095e-35 11.500000000000002 60.500000000000007 113.50000000000001 -0.37940952255126015 15.500000000000002 11.500000000000002 6.0000000000000009 12.500000000000002 8.8500000000000032 75.500000000000014 3.5000000000000004 11.500000000000002 3.5000000000000004
decision_type=2 2 10 2 10 2 2 10 2 2 2 2 2 2 2 2 2 2 10 10 2 2 2 2 2 8 10 2 2 2
left_child=1 2 4 5 6 9 10 11 -9 15 -1 14 16 29 24 -2 -13 -18 -3 -7 21 22 23 -5 -8 -25 -6 -12 -29 -14
right_child=3 18 -4 20 26 19 7 8 -10 -11 27 12 13 -15 -16 -17 17 -19 -20 -21 -22 -23 -24 25 -26 -27 -28 28 -30 -31
leaf_value=0.010321742554927307 -0.0013516889825532362 0 0.018564929008169372 -0.0032377123329429959 -0.00015103903898526576 -0.0033171022058739877 0.0050947548217533528 0.020279625931879298 0.0023692302287195736 -0.00070328416994785634 -0.0034129233667773554 0.0065101161662839239 0.0030214047398674148 0.0099789499978087497 0.015992077968028918 0.0099170240935892683 0.01009052356310291 0.013009320217757815 0.0036501551830600762 3.2162208990533377e-05 -0.0033171022058739877 -0.0033171022058739877 -0.0033171022058739877 -0.0033171022058739877 0.0017436274205877502 0.00035504939759936909 0.011854283063604219 -0.001200932164771236 0.011741520137926037 -0.0010592881986485052
leaf_weight=25 34 212 34 31 91 244 99 23 23 121 45 62 50 100 195 106 66 60 49 21 3706 262 122 23 33 85 38 34 30 49
leaf_count=25 34 212 34 31 91 244 99 23 23 121 45 62 50 100 195 106 66 60 49 21 3706 262 122 23 33 85 38 34 30 49
internal_value=-0.0017232 0.00687405 0.00862346 -0.00410621 0.00790322 0.000323193 0.00903803 0.0101974 0.021087 0.00400383 0.00246269 0.0094958 0.0074031 0.00379397 0.0119725 0.00821428 0.0112234 0.0140476 -0.000210729 -0.00330189 -0.00465713 -0.00280115 -0.000593871 0.00255396 0.0075 0.00472222 3.87585e-05 -0.000412845 0.0028125 -0.000959597
internal_weight=6073 1318 1057 4755 1023 526 894 760 46 261 134 714 387 199 327 140 188 126 261 265 4229 523 261 139 132 108 129 109 64 99
internal_count=6073 1318 1057 4755 1023 526 894 760 46 261 134 714 387 199 327 140 188 126 261 265 4229 523 261 139 132 108 129 109 64 99
is_linear=0
shrinkage=0.05


Tree=9
num_leaves=31
num_cat=0
split_feature=5 7 0 5 8 0 8 2 2 1 8 5 0 2 2 7 2 1 0 1 2 1 1 1 0 1 7 1 1 1
split_gain=37.5074 9.02873 5.09693 4.12508 3.325 2.38298 1.82988 1.66596 1.0736 1.30667 0.95039 0.822321 1.01535 1.17863 0.910671 1.04457 0.668059 1.30619 0.978755 0.724002 0.663359 2.6082 1.26888 0.958884 0.637424 0.605987 0.588889 0.526565 0.509665 0.625
threshold=-0.78656609248549325 12.500000000000002 13.500000000000002 -0.60355339059327384 129.50000000000003 14.500000000000002 152.50000000000003 11.500000000000002 6.0000000000000009 1.5000000000000002 113.50000000000001 -0.37940952255126015 15.500000000000002 11.500000000000002 6.0000000000000009 41.500000000000007 6.0000000000000009 1.5000000000000002 12.500000000000002 3.5000000000000004 11.500000000000002 2.5000000000000004 1.5000000000000002 1.0000000180025095e-35 11.500000000000002 2.5000000000000004 80.500000000000014 5.5000000000000009 1.5000000000000002 1.0000000180025095e-35
decision_type=2 8 2 2 8 2 10 2 2 2 10 2 2 2 2 10 2 2 2 2 2 2 2 2 2 2 10 2 2 2
left_child=1 -1 4 5 26 7 16 8 -2 -10 -7 12 13 14 -5 25 17 -6 20 -19 21 -18 23 -22 -21 -16 -3 -24 29 -9
right_child=3 2 -4 11 6 10 -8 28 9 -11 -12 -13 -14 -15 15 -17 18 19 -20 24 22 -23 27 -25 -26 -27 -28 -29 -30 -31
leaf_value=0.019109698646498471 -0.0012841045334255744 0.0084673464830130763 0 -0.0030758267162958458 0.0098506549718005692 -0.0031512470955802883 0.010886869410954937 -0.00096773792940314243 0.0029197932948213756 0.010169712459087675 3.0554098541006605e-05 -0.0031512470955802883 -0.0031512470955802883 -0.0031512470955802883 0.00033729692771940076 -0.0031512470955802883 0.0049549082675335691 -0.0032247771751926788 0.0050184942163116033 -0.001140885556532674 0.0063924857069364086 0.018537588528030922 0.0045422801162012423 0.017538591510287246 0.012619620986084346 0.00051249152353024651 -0.00010031218073360549 0.014259327406290793 -0.000827595211016269 0.0075592989874700743
leaf_weight=47 34 36 250 31 20 244 20 20 28 78 21 3706 262 122 35 22 96 33 178 26 46 145 152 45 27 51 161 36 81 20
leaf_count=47 34 36 250 31 20 244 20 20 28 78 21 3706 262 122 35 22 96 33 178 26 46 145 152 45 27 51 161 36 81 20
internal_value=-0.002069 0.00539454 0.00459874 -0.00413775 0.00616552 3.80216e-05 0.00756068 0.00342912 0.00714286 0.00962264 -0.00330189 -0.00465713 -0.00280115 -0.000593871 0.00255396 0.00472222 0.00718905 0.00349056 0.00775072 0.000813952 0.00884615 0.0107676 0.00718638 0.012033 0.00443396 0.0072093 0.000329948 0.00484042 -0.00086777 0.00375
internal_weight=6073 1318 1271 4755 1021 526 824 261 140 106 265 4229 523 261 139 108 804 106 698 86 520 241 279 91 53 86 197 188 121 40
internal_count=6073 1318 1271 4755 1021 526 824 261 140 106 265 4229 523 261 139 108 804 106 698 86 520 241 279 91 53 86 197 188 121 40
is_linear=0
shrinkage=0.05


Tree=10
num_leaves=31
num_cat=0
split_feature=5 0 8 6 8 8 6 5 0 6 1 1 1 5 6 1 1 0 0 0 8 0 6 6 5 1 8 1 6 0
split_gain=34.0677 9.66609 6.24938 2.38057 2.32203 0.894722 1.29558 0.822321 1.01535 0.73825 0.650265 2.64029 1.36855 0.560286 0.480289 0.312767 0.362578 0.300304 0.633998 0.233357 0.224726 0.235525 0.203809 0.163649 0.278161 0.225106 0.157755 0.157731 0.153722 0.10127
threshold=-0.60355339059327384 13.500000000000002 160.50000000000003 4.5500000000000007 167.00000000000003 27.500000000000004 2.6500000000000008 -0.37940952255126015 15.500000000000002 8.8500000000000032 1.0000000180025095e-35 1.5000000000000002 4.5000000000000009 -0.98296291314453399 7.0500000000000007 2.5000000000000004 5.5000000000000009 12.500000000000002 10.500000000000002 12.500000000000002 131.50000000000003 14.500000000000002 2.5500000000000003 -4.0999999999999988 -0.98296291314453399 2.5000000000000004 77.500000000000014 2.5000000000000004 1.0000000180025095e-35 9.5000000000000018
decision_type=2 2 10 10 10 8 10 2 2 10 2 2 2 2 8 2 2 2 2 2 10 2 10 10 2 2 10 2 10 2
left_child=1 2 3 5 20 22 10 8 14 26 13 19 23 -7 -2 -16 -17 18 -14 -12 21 28 -1 24 25 -13 -5 -26 -3 -15
right_child=7 4 -4 9 -6 6 -8 -9 -10 -11 11 12 17 29 15 16 -18 -19 -20 -21 -22 -23 -24 -25 27 -27 -28 -29 -30 -31
leaf_value=0.001953581683153508 -0.002993684740801274 0 0.014352277003331256 -0.00013847147799932251 0.0025121624915821483 0.0070750822610494649 0.014306649494266478 -0.002993684740801274 -0.002993684740801274 0.020315552592144605 0.011481924631355563 0.014281822339336418 0.0087597036954717433 -0.00017717239139209835 -0.0029292004022966438 7.7837630239255281e-05 -0.002993684740801274 0.0055415005007019725 0.01431887045976532 0.0077130096407059829 0.00023589808345549676 -0.002993684740801274 -0.0023972963968397444 -7.0821269943149016e-05 0.004364634115979411 0.0027294137345540816 0.0030381889711644512 0.0042655937491562516 -0.0015844064915254844 0.0053376119981114372
leaf_weight=46 50 197 30 103 21 28 24 3706 262 37 117 30 111 27 92 93 26 60 118 29 21 251 25 22 117 57 23 231 36 83
leaf_count=46 50 197 30 103 21 28 24 3706 262 37 117 30 111 27 92 93 26 60 118 29 21 251 25 22 117 57 23 231 36 83
internal_value=-0.00218426 0.00348698 0.0057739 0.00524845 -0.00224335 0.00606667 0.00643264 -0.00465713 -0.00280115 -0.000398774 0.00616505 0.00665919 0.00545576 0.00297101 -0.000593871 0.000450236 0.00214286 0.00814879 0.0089738 0.0128082 -0.00292079 -0.0031405 0.000633802 0.00375273 0.00396552 0.00649425 -0.00222222 0.00333333 -0.00199571 0.00136364
internal_weight=6073 1844 1318 1288 526 1125 1054 4229 523 163 1030 892 746 138 261 211 119 289 229 146 505 484 71 457 435 87 126 348 233 110
internal_count=6073 1844 1318 1288 526 1125 1054 4229 523 163 1030 892 746 138 261 211 119 289 229 146 505 484 71 457 435 87 126 348 233 110
is_linear=0
shrinkage=0.05


Tree=11
num_leaves=31
num_cat=0
split_feature=5 0 8 7 7 8 2 1 2 1 1 1 0 1 1 0 5 0 2 2 7 1 1 1 1 0 8 0 0 1
split_gain=30.9658 9.35011 5.57635 4.00429 1.70283 0.976848 0.919957 2.60933 1.24561 3.17488 1.46917 2.1862 1.06605 0.938419 1.06892 0.899221 0.822321 1.01535 1.17863 0.910671 1.04457 0.605987 0.458333 0.377775 0.369748 0.444538 0.268799 0.327992 0.268626 0.312784
threshold=-0.60355339059327384 13.500000000000002 160.50000000000003 93.500000000000014 12.500000000000002 145.50000000000003 6.0000000000000009 1.5000000000000002 11.500000000000002 2.5000000000000004 1.5000000000000002 1.0000000180025095e-35 10.500000000000002 4.5000000000000009 3.5000000000000004 12.500000000000002 -0.37940952255126015 15.500000000000002 11.500000000000002 6.0000000000000009 41.500000000000007 2.5000000000000004 5.5000000000000009 4.5000000000000009 3.5000000000000004 11.500000000000002 1.5000000000000002 10.500000000000002 10.500000000000002 1.5000000000000002
decision_type=2 2 10 10 8 10 2 2 2 2 2 2 2 2 2 2 2 2 2 2 10 2 2 2 2 2 10 2 2 2
left_child=1 2 3 4 -1 -3 7 -6 9 28 11 -10 22 14 -14 -11 17 18 19 -2 21 -21 -12 -17 -9 -26 -5 -28 -8 -30
right_child=16 5 -4 26 6 -7 8 24 10 15 12 -13 13 -15 -16 23 -18 -19 -20 20 -22 -23 -24 -25 25 -27 27 -29 29 -31
leaf_value=0.018751766262816265 -0.0027755753580600813 0 0.013634663153164689 -0.0043597976250352123 0.0089440262586714548 0.0023865543670030412 0.010719699414773402 -0.0032905200442857317 0.0028834446708327884 0.01712748168674659 -0.00097769872441878314 0.010907828399787784 0.0045493377996970539 0.0065998201300178083 -0.0014467174819839544 0.0095308588879519165 -0.0028440005037612104 -0.0028440005037612104 -0.0028440005037612104 0.00046689210144826299 -0.0028440005037612104 0.00048297524891877076 0.011793072961460675 0.0029131859675710168 -0.0012971209661638535 0.011091512359853766 0.0013193833116834973 -0.00013154790409935642 0.0070619917274367108 -0.0005631927540235282
leaf_weight=34 31 494 30 47 26 32 67 44 88 202 108 80 88 77 36 23 3706 262 122 35 22 51 24 24 40 28 35 115 65 37
leaf_count=34 31 494 30 47 26 32 67 44 88 202 108 80 88 77 36 23 3706 262 122 35 22 51 24 24 40 28 35 115 65 37
internal_value=-0.00229952 0.00310737 0.0053566 0.00486025 0.00604491 -0.00252852 0.00569063 0.00188406 0.00626224 0.00827751 0.00458084 0.00839286 0.00265766 0.00495025 0.00225806 0.0118675 -0.00465713 -0.00280115 -0.000593871 0.00255396 0.00472222 0.0072093 -0.000833335 0.0056383 -0.00142857 0.000882352 -0.00170051 -0.000666668 0.00298816 0.00137255
internal_weight=6073 1844 1318 1288 1091 526 1057 138 919 418 501 168 333 201 124 249 4229 523 261 139 108 86 132 47 112 68 197 150 169 102
internal_count=6073 1844 1318 1288 1091 526 1057 138 919 418 501 168 333 201 124 249 4229 523 261 139 108 86 132 47 112 68 197 150 169 102
is_linear=0
shrinkage=0.05


Tree=12
num_leaves=31
num_cat=0
split_feature=0 0 8 0 8 7 0 2 7 2 1 2 1 1 1 0 2 7 7 0 1 1 0 1 1 8 1 1 1 0
split_gain=8.89572 24.7822 4.70121 4.62531 2.54726 2.94609 1.69775 1.17863 1.04572 1.05635 2.35622 0.916214 2.19302 1.73197 1.70835 1.24543 0.910671 1.04457 0.788366 0.699168 0.638763 0.933333 0.633899 0.605987 0.454451 0.445534 0.414527 0.397778 0.369071 0.457687
threshold=14.500000000000002 8.5000000000000018 198.00000000000003 12.500000000000002 116.50000000000001 90.500000000000014 7.5000000000000009 11.500000000000002 9.5000000000000018 6.0000000000000009 1.5000000000000002 11.500000000000002 2.5000000000000004 1.5000000000000002 1.0000000180025095e-35 10.500000000000002 6.0000000000000009 41.500000000000007 inf 13.500000000000002 4.5000000000000009 3.5000000000000004 10.500000000000002 2.5000000000000004 5.5000000000000009 39.500000000000007 3.5000000000000004 3.5000000000000004 4.5000000000000009 11.500000000000002
decision_type=2 2 10 2 10 10 2 2 8 2 2 2 2 2 2 2 2 10 8 2 2 2 2 2 2 10 2 2 2 2
left_child=1 6 3 4 5 8 -1 16 -3 10 -10 12 -11 14 -13 24 -8 23 -5 -20 21 -17 26 -18 -15 -7 -14 -24 -29 -30
right_child=-2 2 -4 18 -6 25 7 -9 9 11 -12 13 22 15 -16 20 17 -19 19 -21 -22 -23 27 -25 -26 -27 -28 28 29 -31
leaf_value=-0.0027018004785731497 -0.0027018004785731497 0.016530953103273478 0.012502932545435747 -0.00050385177526378756 0.01596783490805893 -0.0016894259006376756 -0.0026367965901570771 -0.0027018004785731497 0.0086968253987332791 0.0091015369632343 -0.0012322649178556607 0.0053965341273522795 0.018597506894895078 -0.00090985287881827743 0.010921963232909442 0.0089131847833538794 0.00044354749637584985 -0.0027018004785731497 0.0043218709097122016 0 0.011885663977905261 -0.001164865494242737 0.0018490381935700629 0.00045882648647283219 0.01120341931338764 0.006254349144730529 0.012559624405705426 0.016271107602409261 0.015361898094410104 0.011987753885717876
leaf_weight=1899 2334 23 22 111 22 115 31 122 21 134 89 70 26 107 63 60 35 22 200 197 52 24 24 51 24 43 79 24 25 24
leaf_count=1899 2334 23 22 111 22 115 31 122 21 134 89 70 26 107 63 60 35 22 200 197 52 24 24 51 24 43 79 24 25 24
internal_value=-0.00240655 -0.000894625 0.00386637 0.00354207 0.00543851 0.0050779 -0.004375 -0.000593871 0.00621979 0.0059338 0.00136364 0.00661685 0.00854167 0.005 0.00966165 0.0026779 0.00255396 0.00472222 -0.000374017 0.000667505 0.00602941 0.00333333 0.0118317 0.0072093 -0.000801528 -0.00120253 0.0145238 0.00891752 0.0107534 0.0082653
internal_weight=6073 3739 1579 1557 1049 1027 2160 261 869 846 110 736 336 400 133 267 139 108 508 397 136 84 202 86 131 158 105 97 73 49
internal_count=6073 3739 1579 1557 1049 1027 2160 261 869 846 110 736 336 400 133 267 139 108 508 397 136 84 202 86 131 158 105 97 73 49
is_linear=0
shrinkage=0.05


Tree=13
num_leaves=31
num_cat=0
split_feature=5 0 8 7 7 8 5 0 2 2 7 0 2 2 8 0 7 0 0 8 3 0 3 0 3 0 2 8 0 8
split_gain=28.012 8.13296 4.20622 3.17401 1.22084 0.976848 0.822321 1.01535 1.17863 0.910671 1.04457 0.749167 0.849927 1.2921 1.61724 1.0146 1.02587 0.672939 0.348106 0.311743 0.299358 0.278426 0.243364 0.520833 0.239369 0.187354 0.176815 0.13165 0.264453 0.130899
threshold=-0.60355339059327384 13.500000000000002 160.50000000000003 93.500000000000014 5.5000000000000009 145.50000000000003 -0.37940952255126015 15.500000000000002 11.500000000000002 6.0000000000000009 41.500000000000007 12.500000000000002 6.0000000000000009 11.500000000000002 1.0000000180025095e-35 9.5000000000000018 71.500000000000014 10.500000000000002 10.500000000000002 1.5000000000000002 1.0000000180025095e-35 10.500000000000002 1.0000000180025095e-35 11.500000000000002 1.0000000180025095e-35 14.500000000000002 6.0000000000000009 28.500000000000004 11.500000000000002 75.500000000000014
decision_type=2 2 10 10 8 10 2 2 2 2 10 2 2 2 10 2 8 2 2 10 2 2 2 2 2 2 2 10 2 10
left_child=1 2 3 4 -1 25 7 8 9 -2 -11 12 -6 14 17 -15 -17 24 -18 -5 -20 -21 -19 -24 -14 26 -3 -23 -29 -27
right_child=6 5 -4 19 11 -7 -8 -9 -10 10 -12 -13 13 15 -16 16 18 22 20 21 -22 27 23 -25 -26 29 -28 28 -30 -31
leaf_value=0.016823999749386611 -0.0025049567606492233 0.00097887410733116936 0.012310458976205634 -0.004057336448751568 0.0038293484025429289 0.0016420800213811039 -0.002566710454644492 -0.002566710454644492 -0.002566710454644492 0.00042137012155705756 -0.002566710454644492 0.0041053113870462635 0.011344610939272096 -0.00034329587937746275 0.017795492671199939 -0.0022609506269808117 0.0037058899321805784 0.0077367048499247379 0.0086024024015910541 0.0013378854411312062 0.011692800396678749 -0.0027525179284558885 0.015093803130084911 0.011388366191431982 0.011880192289712661 -0.0027089104798325527 0 0.0056911316730980039 -0.0004322778455228901 -0.0027089104798325527
leaf_weight=26 31 31 30 47 111 32 3706 262 122 86 22 207 112 98 20 20 97 113 140 35 49 22 24 24 50 234 208 22 71 21
leaf_count=26 31 31 30 47 111 32 3706 262 122 86 22 207 112 98 20 20 97 113 140 35 49 22 24 24 50 234 208 22 71 21
internal_value=-0.00241479 0.00272776 0.00482549 0.00439441 0.00544913 -0.00252852 -0.00465713 -0.00280115 -0.000593871 0.00255396 0.00472222 0.00518779 0.00583916 0.00644578 0.00870262 0.0045297 0.00594771 0.0078483 0.00671329 -0.0014467 0.00796296 -0.000333335 0.00555901 0.00854167 0.0101235 -0.00307692 -0.00207113 -0.00152174 -0.000698926 -0.00401961
internal_weight=6073 1844 1318 1288 1091 526 4229 523 261 139 108 1065 858 747 343 404 306 323 286 197 189 150 161 48 162 494 239 115 93 255
internal_count=6073 1844 1318 1288 1091 526 4229 523 261 139 108 1065 858 747 343 404 306 323 286 197 189 150 161 48 162 494 239 115 93 255
is_linear=0
shrinkage=0.05


Tree=14
num_leaves=31
num_cat=0
split_feature=5 8 0 5 0 8 2 7 2 7 1 1 7 0 1 1 2 1 1 1 0 1 0 2 1 1 0 2 0 1
split_gain=25.8224 4.78821 4.49825 3.26609 3.02429 2.49843 2.18918 1.58974 1.79688 1.36812 1.04218 0.794808 0.788366 0.699168 0.49 0.436457 0.407816 0.704115 0.480745 0.305567 0.45 0.625 0.300158 0.643063 0.618751 0.306457 0.296955 0.418517 0.426705 0.273373
threshold=-0.78656609248549325 198.00000000000003 12.500000000000002 -0.37940952255126015 14.500000000000002 116.50000000000001 11.500000000000002 53.500000000000007 6.0000000000000009 80.500000000000014 1.5000000000000002 5.5000000000000009 inf 13.500000000000002 1.0000000180025095e-35 4.5000000000000009 6.0000000000000009 2.5000000000000004 4.5000000000000009 1.5000000000000002 8.5000000000000018 1.0000000180025095e-35 10.500000000000002 11.500000000000002 1.5000000000000002 2.5000000000000004 11.500000000000002 11.500000000000002 10.500000000000002 1.5000000000000002
decision_type=2 10 2 2 2 10 2 10 2 10 2 2 8 2 2 2 2 2 2 2 2 2 2 2 2 2 2 2 2 2
left_child=1 2 5 4 6 9 7 8 -2 16 14 15 -4 29 -10 -12 17 -1 22 20 -8 -22 23 25 -25 -18 27 -20 -29 -14
right_child=3 -3 12 -5 -6 -7 19 -9 10 -11 11 -13 13 -15 -16 -17 18 -19 26 -21 21 -23 -24 24 -26 -27 -28 28 -30 -31
leaf_value=0.0076617667149289255 -0.0020747092008953807 0.011262262969353681 -0.00068392475585291046 -0.0024383749319122679 -0.0024383749319122679 0.014553920213845701 -0.0024383749319122679 -0.0024383749319122679 0.0060623827851439792 0.00013148399721461625 0.0098259201974952338 0.00057959410711518695 0.0049123055254956267 0 -0.0045996984590266016 0.007759053704798919 0.011277993025374241 -0.00062713681434423737 0.015759497338903007 -0.0024383749319122679 -0.0013073265593037606 0.0055329130188628041 0.008660777041824835 0.01130732757212153 -0.0010031723781983072 0.016741852715106233 0.011108155591608253 0.0037313802277374681 0.0060940068702921464 0.0039002788055434697
leaf_weight=28 54 22 111 3706 527 22 40 51 20 122 77 26 56 197 25 26 34 55 54 163 20 20 268 35 39 27 51 26 27 144
leaf_count=28 54 22 111 3706 527 22 40 51 20 122 77 26 56 197 25 26 34 55 54 163 20 20 268 35 39 27 51 26 27 144
internal_value=-0.00250535 0.0036874 0.00329475 -0.00422187 -0.00175882 0.0056599 0.000938696 0.00396057 0.00574561 0.00518277 0.00821839 0.0105039 -0.000374017 0.000667505 0.00166667 0.0124757 0.00610248 0.00283132 0.00658645 -0.00253087 -1.19209e-09 0.00375 0.00566997 0.00759259 0.00445946 0.0113934 0.00892405 0.0104206 0.00726415 0.00275
internal_weight=6073 1318 1296 4755 1049 788 522 279 228 766 174 129 508 397 45 103 644 83 561 243 80 40 403 135 74 61 158 107 53 200
internal_count=6073 1318 1296 4755 1049 788 522 279 228 766 174 129 508 397 45 103 644 83 561 243 80 40 403 135 74 61 158 107 53 200
is_linear=0
shrinkage=0.05


Tree=15
num_leaves=31
num_cat=0
split_feature=5 4 8 7 8 7 1 1 1 4 6 8 4 6 1 4 8 4 6 5 4 4 4 6 6 4 1 4 4 1
split_gain=25.4472 6.69272 4.52233 2.46702 0.976848 0.966832 0.588987 0.819405 1.90475 0.424426 0.296091 0.34029 0.426905 0.420044 0.389607 0.227917 0.188431 0.187354 0.17484 0.172734 0.232244 0.165999 0.157917 0.153745 0.140259 0.133635 0.162364 0.124886 0.106159 0.215414
threshold=-0.60355339059327384 -0.25881904510252113 160.50000000000003 60.500000000000007 145.50000000000003 5.5000000000000009 4.5000000000000009 1.5000000000000002 1.0000000180025095e-35 1.0000000180025095e-35 1.3500000000000003 1.0000000180025095e-35 0.37940952255126054 4.6500000000000012 3.5000000000000004 0.25881904510252091 80.500000000000014 -0.5 -0.34999999999999992 -0.37940952255126015 0.78656609248549325 0.60355339059327384 0.60355339059327384 -5.3999999999999995 4.2500000000000009 0.25881904510252091 5.5000000000000009 0.37940952255126054 1.0000000180025095e-35 3.5000000000000004
decision_type=2 2 10 10 10 8 2 2 2 2 10 10 2 10 2 2 10 2 10 2 2 2 2 10 8 2 2 2 2 2
left_child=1 4 3 5 17 -3 7 8 22 -8 -5 -12 13 -13 -14 -10 -15 24 -19 20 -2 25 -7 -22 -1 -11 -27 -28 29 -9
right_child=19 2 -4 10 -6 6 9 28 15 21 11 12 14 16 -16 -17 -18 18 -20 -21 23 -23 -24 -25 -26 26 27 -29 -30 -31
leaf_value=-0.0012894462778014464 -0.0023164561853166541 0.015170266039843519 0.011115364706500083 -0.003326589010469826 0.00099686287184436455 0.0045288229096039695 0.0043180614140508862 -0.00081097649789552313 0.0075831367692434266 0.010848506957915621 -0.0037348287049812317 0.0041878975807835717 0.0031657466329617829 -0.00037198399859213123 -0.0020764120152960085 0.0081583375787762803 0.00069230447969323341 0 -0.00044465811334357347 -0.0023164561853166541 -0.00048550885399490236 0.0051243724035622195 -0.0012419602313385723 -0.0023164561853166541 -0.0024515462092453118 0.0017893129640788041 0.015352068211018137 0.012529373721493754 0.002088968668510278 0.0060713292391598702
leaf_weight=20 262 26 30 39 32 119 59 60 57 58 31 26 25 60 21 92 25 197 42 3706 196 55 29 65 235 57 27 29 367 26
leaf_count=20 262 26 30 39 32 119 59 60 57 58 31 26 25 60 21 92 25 197 42 3706 196 55 29 65 235 57 27 29 367 26
internal_value=-0.00266178 0.0022397 0.00414264 0.00369565 -0.00252852 0.00470782 0.0044686 0.00373333 0.00577441 0.00640351 -0.00103524 -0.000212767 0.000732483 -0.000945947 0.00478261 0.0097651 -0.00264706 -0.00307692 -0.00207113 -0.00479901 -0.00394838 0.00738938 0.00175676 -0.00289272 -0.00401961 0.00815789 0.00915929 0.0110714 0.00239514 0.000813952
internal_weight=6073 1844 1318 1288 526 1061 1035 750 297 285 227 188 157 111 46 149 85 494 239 4229 523 226 148 261 255 171 113 56 453 86
internal_count=6073 1844 1318 1288 526 1061 1035 750 297 285 227 188 157 111 46 149 85 494 239 4229 523 226 148 261 255 171 113 56 453 86
is_linear=0
shrinkage=0.05


Tree=16
num_leaves=31
num_cat=0
split_feature=5 0 7 7 7 7 2 1 1 2 2 0 0 1 1 1 0 1 1 0 6 6 2 6 5 0 5 0 2 2
split_gain=23.6308 6.02519 3.24709 1.93358 0.83637 0.47718 1.40468 0.377543 1.3846 1.08449 0.69376 1.42027 0.845243 0.844595 0.537686 1.18093 0.470611 0.43429 0.401869 0.489879 0.287267 0.315987 0.288026 0.329106 0.25247 0.250115 0.208435 0.27639 0.200487 0.206501
threshold=-0.60355339059327384 13.500000000000002 5.5000000000000009 93.500000000000014 9.5000000000000018 40.500000000000007 11.500000000000002 1.5000000000000002 1.0000000180025095e-35 6.0000000000000009 11.500000000000002 10.500000000000002 10.500000000000002 2.5000000000000004 4.5000000000000009 3.5000000000000004 11.500000000000002 5.5000000000000009 3.5000000000000004 11.500000000000002 2.8500000000000001 4.1500000000000012 11.500000000000002 8.8500000000000032 -0.98296291314453399 14.500000000000002 -0.37940952255126015 15.500000000000002 11.500000000000002 6.0000000000000009
decision_type=2 2 8 10 8 10 2 2 2 2 2 2 2 2 2 2 2 2 2 2 10 10 2 10 2 2 2 2 2 2
left_child=1 2 -1 5 -3 7 -7 8 -4 18 11 -11 17 -13 15 24 -16 -12 -9 -20 -5 -22 23 -23 -14 -6 27 28 29 -2
right_child=26 4 3 20 25 6 -8 9 -10 10 12 13 14 -15 16 -17 -18 -19 19 -21 21 22 -24 -25 -26 -27 -28 -29 -30 -31
leaf_value=0.014086763207793987 -0.0022469680816291394 0.0010073636307749085 0.0043023817641237713 -0.0033482339991857228 0 0.014889227174072506 -0.00030099400242123792 -0.0038421350787590535 0.0073912729421381608 0.010504839864381513 -0.00073492058084056013 -0.0019144324924970577 0.011926997687620742 0.0099358883505348602 0.0086998414150153587 -0.002283745738768926 0.0044809604835618373 0.0096735600140062002 -0.0014352106847983258 0.010689348073709146 0.0018790982809423536 -2.5368590132802266e-05 -0.00084031470230122661 0.0082040447698889605 0.0031229809240018039 -0.0023289688987830461 -0.0022006333760508216 -0.0022006333760508216 -0.0022006333760508216 -6.6718951695812076e-05
leaf_weight=36 31 20 148 38 250 28 22 43 147 123 102 37 27 148 24 36 49 24 38 26 25 40 79 22 56 256 3706 262 122 108
leaf_count=36 31 20 148 38 250 28 22 43 147 123 102 37 27 148 24 36 49 24 38 26 25 40 79 22 56 256 3706 262 122 108
internal_value=-0.00272765 0.00199566 0.00380121 0.00338533 -0.00252852 0.00423005 0.009 0.00399805 0.00550847 0.00339018 0.0041853 0.00587662 0.00254717 0.00310811 0.00463542 0.00256302 0.0080137 -0.000634922 -0.00126168 0.00125 -0.00107843 -0.000180724 -0.00109929 0.00145161 0.00584337 -0.0029249 -0.00478718 -0.00385277 -0.00270115 -0.00140288
internal_weight=6073 1844 1318 1282 526 1078 50 1028 295 733 626 308 318 185 192 119 73 126 107 64 204 166 141 62 83 506 4229 523 261 139
internal_count=6073 1844 1318 1282 526 1078 50 1028 295 733 626 308 318 185 192 119 73 126 107 64 204 166 141 62 83 506 4229 523 261 139
is_linear=0
shrinkage=0.05


Tree=17
num_leaves=31
num_cat=0
split_feature=5 7 0 5 0 6 6 7 2 0 6 6 2 7 1 1 2 2 0 1 0 1 1 1 6 1 2 5 0 1
split_gain=22.0721 2.50171 2.09953 2.0431 1.03052 0.957786 1.06966 0.623218 0.537793 0.536213 0.518588 0.468994 0.893142 0.41764 0.279593 0.831091 0.787897 0.349528 1.2374 0.679236 0.29526 0.262583 1.06078 0.261069 0.256484 0.242424 0.210784 0.208435 0.27639 0.207185
threshold=-0.78656609248549325 1.0000000180025095e-35 12.500000000000002 -0.60355339059327384 14.500000000000002 1.3500000000000003 3.3500000000000001 40.500000000000007 11.500000000000002 13.500000000000002 8.8500000000000032 7.6500000000000012 11.500000000000002 53.500000000000007 1.5000000000000002 1.0000000180025095e-35 6.0000000000000009 11.500000000000002 10.500000000000002 2.5000000000000004 11.500000000000002 3.5000000000000004 4.5000000000000009 3.5000000000000004 3.7500000000000004 1.5000000000000002 6.0000000000000009 -0.37940952255126015 15.500000000000002 1.5000000000000002
decision_type=2 8 2 2 2 8 8 10 2 2 8 10 2 10 2 2 2 2 2 2 2 2 2 2 8 2 2 2 2 2
left_child=1 -1 5 4 8 -3 -7 9 13 -4 11 12 -8 26 15 -12 23 18 -18 -20 -17 -19 -23 -16 -6 -9 -2 28 -5 -10
right_child=3 2 7 27 24 6 10 25 29 -11 14 -13 -14 -15 16 20 17 21 19 -21 -22 22 -24 -25 -26 -27 -28 -29 -30 -31
leaf_value=0.013382425047404287 0.00087029636130717819 -0.0020695458301021805 0.0037051812921088377 -0.0020906017072482804 0.00014490077979565421 0.0086665959136486316 0.008028676056473184 0.00013331757241951214 0.0044787868418739414 0 0.0040872626759175827 -0.00057831504551440608 -0.00026424741904861173 -0.0023865049679791116 -0.0036875282458449436 0.011677839578971035 0.014981060692004618 0.0023310228526739691 -0.0018187108678722045 0.014296239173081732 0.0082044593604130491 -0.0020498351214311978 0.0093848576934271524 0.0028221250928214276 -0.0022125204538438934 -0.0017051457396501575 0.0082409624385636464 -0.0020906017072482804 -0.0020906017072482804 -0.00086882223894510849
leaf_weight=29 28 37 207 261 24 22 21 27 40 206 82 25 55 25 25 59 64 85 28 99 28 37 72 38 241 72 87 3706 262 81
leaf_count=29 28 37 207 261 24 22 21 27 40 206 82 25 55 25 25 59 64 85 28 99 28 37 72 38 241 72 87 3706 262 81
internal_value=-0.00283468 0.00289074 0.002564 -0.00442166 -0.00148289 0.00420206 0.00459459 7.81238e-05 0.000747125 0.000932202 0.00426184 0.000940593 0.00289474 0.00285714 0.00480551 0.00653846 0.00415178 0.005 0.00651832 0.00366142 0.00994253 0.00350515 0.00188073 -0.00103175 -0.00367925 -0.00348485 0.00413043 -0.00478718 -0.00385277 -0.00169422
internal_weight=6073 1318 1289 4755 526 777 740 512 261 413 718 101 76 140 617 169 448 385 191 127 87 194 109 63 265 99 115 4229 523 121
internal_count=6073 1318 1289 4755 526 777 740 512 261 413 718 101 76 140 617 169 448 385 191 127 87 194 109 63 265 99 115 4229 523 121
is_linear=0
shrinkage=0.05


Tree=18
num_leaves=31
num_cat=0
split_feature=8 4 4 8 7 2 6 1 2 1 2 4 4 4 4 4 4 4 1 4 6 6 1 2 4 2 2 2 4 8
split_gain=8.18076 4.25675 4.61092 2.12542 1.69734 3.3237 0.89418 0.49988 1.25133 0.382009 0.629125 0.368484 0.451984 0.292823 0.31563 0.954572 0.725992 1.12195 0.395849 0.387876 0.76728 0.552405 0.353333 0.413737 0.259264 0.243976 0.212408 0.213885 0.21201 0.209248
threshold=198.00000000000003 -0.25881904510252113 0.78656609248549325 1.0000000180025095e-35 93.500000000000014 11.500000000000002 2.9500000000000006 1.5000000000000002 6.0000000000000009 1.0000000180025095e-35 11.500000000000002 -0.5 -0.37940952255126059 0.60355339059327384 0.25881904510252091 0.12940952255126045 1.0000000180025095e-35 -1.0000000180025095e-35 4.5000000000000009 0.37940952255126054 10.15 4.3500000000000005 3.5000000000000004 11.500000000000002 0.37940952255126054 11.500000000000002 11.500000000000002 6.0000000000000009 0.91597561503675362 75.500000000000014
decision_type=10 2 2 8 8 2 10 2 2 2 2 2 2 2 2 2 2 2 2 2 8 10 2 2 2 2 2 2 2 10
left_child=1 11 3 -3 5 6 -5 8 -6 -10 -11 29 -13 14 15 16 17 22 25 20 -16 -21 -9 -24 -12 -18 27 -15 -4 -1
right_child=-2 2 28 4 7 -7 -8 13 9 10 24 12 -14 26 19 -17 18 -19 -20 21 -22 -23 23 -25 -26 -27 -28 -29 -30 -31
leaf_value=-0.0019860716218858664 0.0086462294924034393 -0.0019860716218858664 -0.0019860716218858664 0.010199050595738073 0.0059545548067817004 -0.0016145837110508807 0.015441296456336021 -0.0015953618783484877 -0.0014118497670267142 -0.0019860716218858664 0.0066491572190689047 0 -0.0019860716218858664 -0.0019860716218858664 -0.001010671545787027 -0.0019860716218858664 -0.00090084667585998046 -0.0019860716218858664 0.0093170363405191674 -0.00047398248782422884 0.0072272179497560908 0.0045171596068627005 0.0074523229443490468 -0.0013071491924700281 0.0033805962583117882 0.00043426512462350501 -0.0019860716218858664 -0.00043522107607251001 -0.0019860716218858664 -0.00030207639260043076
leaf_weight=2035 24 295 491 27 32 47 21 73 229 114 84 252 257 27 29 128 59 136 67 282 146 20 55 45 62 49 123 122 702 40
leaf_count=2035 24 295 491 27 32 47 21 73 229 114 84 252 257 27 29 128 59 136 67 282 146 20 55 45 62 49 123 122 702 40
internal_value=-0.00288408 -0.00299967 -0.00185426 -0.000532572 5.81678e-05 0.00657895 0.0158333 -0.00027099 0.00104606 0.000419222 0.00173077 -0.0045356 -0.00333006 -0.000775167 -0.000408633 -0.00116013 -0.000144629 -0.00160194 0.00242857 0.000555554 0.00242857 -0.000529803 0.00106936 0.003 0.00390411 0.000555554 -0.00224265 -0.000973156 -0.00437133 -0.00483133
internal_weight=6073 6049 3465 2272 1977 95 48 1882 521 489 260 2584 509 1361 1089 612 484 309 175 477 175 302 173 100 146 108 272 149 1193 2075
internal_count=6073 6049 3465 2272 1977 95 48 1882 521 489 260 2584 509 1361 1089 612 484 309 175 477 175 302 173 100 146 108 272 149 1193 2075
is_linear=0
shrinkage=0.05


Tree=19
num_leaves=31
num_cat=0
split_feature=0 0 7 7 0 1 1 6 2 0 1 0 1 2 2 7 2 0 0 1 1 1 1 1 2 0 0 6 6 2
split_gain=5.21216 15.6528 2.76212 1.52332 1.20598 1.14295 1.43182 0.883164 0.615349 0.609383 0.374805 0.444538 0.335527 0.3178 0.297362 0.401606 0.295776 0.885821 0.422783 0.57156 0.393234 0.388485 0.505575 0.460882 0.218254 0.632591 0.216973 0.212145 0.349105 0.229854
threshold=14.500000000000002 8.5000000000000018 5.5000000000000009 93.500000000000014 13.500000000000002 1.5000000000000002 1.0000000180025095e-35 1.9500000000000002 6.0000000000000009 7.5000000000000009 3.5000000000000004 11.500000000000002 5.5000000000000009 11.500000000000002 6.0000000000000009 3.5000000000000004 11.500000000000002 10.500000000000002 10.500000000000002 3.5000000000000004 4.5000000000000009 2.5000000000000004 4.5000000000000009 3.5000000000000004 11.500000000000002 11.500000000000002 9.5000000000000018 2.8500000000000001 3.9500000000000006 11.500000000000002
decision_type=2 2 8 10 2 2 2 10 2 2 2 2 2 2 2 10 2 2 2 2 2 2 2 2 2 2 2 10 10 2
left_child=1 9 7 4 5 6 24 -3 10 -1 -7 -12 16 14 -11 -16 18 -18 -10 -20 -21 -19 23 -23 25 -4 -14 -5 -29 -30
right_child=-2 2 3 27 -6 8 -8 -9 12 13 11 -13 26 -15 15 -17 17 21 19 20 -22 22 -24 -25 -26 -27 -28 28 29 -31
leaf_value=-0.0018867680407915731 -0.0018867680407915731 0.0080526166036863581 0.00025187049257381633 -0.0024945384223047716 0 -0.003670976819363546 0.0069507864397114066 0.012280992320413901 0.0097711148737183104 -0.0019307860110909755 -0.0014808572808082691 0.0086549990843193935 0.00061725097990119855 -0.0018867680407915731 0.00031220448401541386 -0.0019934637620093237 -0.00066919531503438078 0.0084844044351194119 -0.0015458626366851233 0.010929563607043913 0.00023499754598864148 7.8466014574577633e-05 0.0037582067144880577 -0.0024284275932467238 0.0004529536255394859 0.007377555436266627 0.0088511845234932086 0.0019522146878446348 -1.7472748848119403e-05 -0.0010539486559454296
leaf_weight=1899 2334 21 38 47 209 45 154 23 103 31 40 28 26 122 83 25 108 51 74 38 41 38 41 36 90 26 101 20 79 102
leaf_count=1899 2334 21 38 47 209 45 154 23 103 31 40 28 26 122 83 25 108 51 74 38 41 38 41 36 90 26 101 20 79 102
internal_value=-0.00297464 -0.00181733 0.00196643 0.00161238 0.00230381 0.00297774 0.00555195 0.0143182 0.00194805 -0.00458333 -0.00146018 0.000882352 0.00253425 -0.00231801 -0.000683454 0.000555554 0.00198113 0.000839415 0.00320312 0.00153595 0.00449367 0.00313253 0.00152174 -0.000945947 0.00214286 0.004375 0.00484252 -0.00197581 -0.00126866 -0.00196133
internal_weight=6073 3739 1579 1535 1287 1078 308 44 770 2160 113 68 657 261 139 108 530 274 256 153 79 166 115 74 154 64 127 248 201 181
internal_count=6073 3739 1579 1535 1287 1078 308 44 770 2160 113 68 657 261 139 108 530 274 256 153 79 166 115 74 154 64 127 248 201 181
is_linear=0
shrinkage=0.05


Tree=20
num_leaves=31
num_cat=0
split_feature=5 8 5 4 8 8 4 2 1 1 2 6 1 1 1 6 6 2 1 5 4 2 2 1 1 4 8 1 2 1
split_gain=18.2349 2.82094 2.01397 1.36796 1.6671 1.24758 1.03052 0.537793 0.510653 0.698442 0.533271 0.408544 0.442411 0.468542 0.407711 0.386726 0.300929 0.290628 0.467968 0.28989 0.376197 0.3178 0.297362 0.270868 0.257353 0.252401 0.223471 0.216667 0.213223 0.207185
threshold=-0.78656609248549325 198.00000000000003 -0.60355339059327384 1.0000000180025095e-35 118.50000000000001 38.500000000000007 0.60355339059327384 11.500000000000002 1.5000000000000002 1.0000000180025095e-35 6.0000000000000009 5.9500000000000011 1.5000000000000002 1.0000000180025095e-35 3.5000000000000004 4.8500000000000005 6.3500000000000005 11.500000000000002 4.5000000000000009 -0.37940952255126015 0.78656609248549325 11.500000000000002 6.0000000000000009 5.5000000000000009 3.5000000000000004 0.25881904510252091 2.5000000000000004 4.5000000000000009 6.0000000000000009 1.5000000000000002
decision_type=2 10 2 2 10 8 2 2 2 2 2 10 2 2 2 8 10 2 2 2 2 2 2 2 2 2 10 2 2 2
left_child=1 3 6 11 5 26 15 28 9 -7 24 12 13 -1 -14 -2 23 18 -16 20 -4 22 -22 -12 -10 -11 -5 -19 -8 -9
right_child=2 -3 19 4 -6 8 7 29 10 25 16 -13 14 -15 17 -17 -18 27 -20 -21 21 -23 -24 -25 -26 -27 -28 -29 -30 -31
leaf_value=0 0.0001158150506338549 0.0077235610821602095 -0.0017924296387519943 7.4114681538195687e-05 0.01143654629168071 0.0039308443491960655 -0.0010597047616158991 0.0037382783648790829 -0.003342800983096042 0.0071142392094533831 0.0035185522052863607 -0.0016510397437456946 0 0.0034576704030099626 0.0050000000745058061 -0.0019082524480178267 0.016840616260971941 -0.0050000000745058061 0.0017442188267638504 -0.0017924296387519943 -0.0018342467105364269 -0.0017924296387519943 0.00012484043814491586 0.010934481449914544 0.0016108523011970834 0.0096991531794970529 -0.00067643603488084375 0.0023209504518936232 0.0052422137150275779 -0.00069261778015184067
leaf_weight=62 30 22 262 21 20 91 34 40 28 34 314 56 143 64 31 235 21 26 72 3706 31 122 108 79 40 64 76 54 106 81
leaf_count=62 30 22 262 21 20 91 34 40 28 34 314 56 143 64 31 235 21 26 72 3706 31 122 108 79 40 64 76 54 106 81
internal_value=-0.00295818 0.00224583 -0.00440063 0.00194444 0.00324873 0.0028776 -0.00148289 0.000747125 0.00364381 0.00584656 0.00278008 -7.87413e-05 0.000420353 0.00293651 -0.000552148 -0.00367925 0.00345411 0.00101093 0.00276699 -0.00476354 -0.00366157 -0.00231801 -0.000683454 0.00314249 -0.00132353 0.00877551 -0.00242268 -0.00125 0.00285714 -0.00169422
internal_weight=6073 1318 4755 1296 788 768 526 261 671 189 482 508 452 126 326 265 414 183 103 4229 523 261 139 393 68 98 97 80 140 121
internal_count=6073 1318 4755 1296 788 768 526 261 671 189 482 508 452 126 326 265 414 183 103 4229 523 261 139 393 68 98 97 80 140 121
is_linear=0
shrinkage=0.05


Tree=21
num_leaves=31
num_cat=0
split_feature=5 0 7 7 1 2 7 2 0 2 0 1 1 1 1 0 5 0 2 2 7 1 0 0 1 0 1 1 1 1
split_gain=17.0172 3.26581 2.70275 1.36902 0.87282 0.988389 0.447846 0.406743 0.403316 0.324116 0.482067 0.515572 0.456832 0.747566 0.405103 0.37594 0.28989 0.376197 0.3178 0.297362 0.401606 0.246585 0.444538 0.217967 0.204836 0.187469 0.293253 0.329884 0.23127 0.178355
threshold=-0.60355339059327384 13.500000000000002 5.5000000000000009 93.500000000000014 1.5000000000000002 6.0000000000000009 9.5000000000000018 6.0000000000000009 14.500000000000002 11.500000000000002 10.500000000000002 5.5000000000000009 2.5000000000000004 4.5000000000000009 2.5000000000000004 11.500000000000002 -0.37940952255126015 15.500000000000002 11.500000000000002 6.0000000000000009 3.5000000000000004 3.5000000000000004 11.500000000000002 9.5000000000000018 3.5000000000000004 10.500000000000002 3.5000000000000004 4.5000000000000009 5.5000000000000009 3.5000000000000004
decision_type=2 2 8 10 2 2 8 2 2 2 2 2 2 2 2 2 2 2 2 2 10 2 2 2 2 2 2 2 2 2
left_child=1 2 -1 4 5 -4 -3 21 -8 14 11 29 -12 24 15 -9 17 18 19 -2 -21 -6 -23 -7 -14 -16 -27 -28 -29 -11
right_child=16 6 3 -5 7 23 8 9 -10 10 12 -13 13 -15 25 -17 -18 -19 -20 20 -22 22 -24 -25 -26 26 27 28 -30 -31
leaf_value=0.011280764650285194 -0.0017425343750096054 8.7860407518205923e-05 0.0052806353806781371 -0.00036563112398168228 -0.0034031248787177223 0.0035513644466351291 0 0.0088386443736005876 -0.0018128398256169354 -0.00046837784255490678 0.008060184003641389 0.0077550549543553534 -0.0001013848964184695 0.0038618283512982174 0.010862249527198383 -0.0017813674691156565 -0.0017028081568143947 -0.0017028081568143947 -0.0017028081568143947 0.00029035223790739795 -0.0019000325958161033 -0.0014873570318277103 0.0081370386823561291 0.0067085340703785749 -0.0024086151129793314 -0.00043293476493932727 0.010207157816427401 -0.00034857926833544789 0.0074915235600015164 -0.0018747485074987404
leaf_weight=36 31 20 26 204 45 56 250 38 256 61 51 24 38 77 106 25 3706 262 122 83 25 40 28 226 36 36 38 41 39 47
leaf_count=36 31 20 26 204 45 56 250 38 256 61 51 24 38 77 106 25 3706 262 122 83 25 40 28 226 36 36 38 41 39 47
internal_value=-0.00301581 0.000992407 0.0023217 0.00194228 0.00265306 0.0049026 -0.0023384 0.00175325 -0.00262846 0.00222983 0.00113772 -0.00121212 0.00267327 0.00129139 0.00335913 -0.000238096 -0.00476354 -0.00366157 -0.00231801 -0.000683454 0.000555554 -0.0010177 0.000882352 0.00404255 -0.0022973 0.00423077 0.00311688 0.00432203 0.0025 -0.00268519
internal_weight=6073 1844 1318 1282 1078 308 526 770 506 657 334 132 202 151 323 63 4229 523 261 139 108 113 68 282 74 260 154 118 80 108
internal_count=6073 1844 1318 1282 1078 308 526 770 506 657 334 132 202 151 323 63 4229 523 261 139 108 113 68 282 74 260 154 118 80 108
is_linear=0
shrinkage=0.05


Tree=22
num_leaves=31
num_cat=0
split_feature=5 7 6 5 5 1 1 6 6 6 6 1 5 5 2 2 7 6 2 1 5 5 1 2 5 1 6 1 5 1
split_gain=16.001 2.92988 1.82552 1.75669 0.874585 0.790995 1.1525 0.662745 0.554117 0.618598 0.415696 0.411335 0.335644 0.431859 0.386545 0.348987 0.400301 0.320758 0.293365 0.263441 0.211511 0.187355 0.17849 0.150504 0.459957 0.139647 0.131552 0.115295 0.105263 0.103119
threshold=-0.60355339059327384 5.5000000000000009 1.9500000000000002 -0.78656609248549325 -0.70710678118654757 1.5000000000000002 1.0000000180025095e-35 8.4500000000000011 9.1500000000000004 11.850000000000003 5.6500000000000012 5.5000000000000009 -0.37940952255126015 -0.5 11.500000000000002 6.0000000000000009 41.500000000000007 5.5500000000000007 11.500000000000002 1.5000000000000002 -0.9159756150367534 -0.98296291314453399 4.5000000000000009 11.500000000000002 -0.9159756150367534 4.5000000000000009 4.2500000000000009 2.5000000000000004 -0.98296291314453399 5.5000000000000009
decision_type=2 8 10 2 2 2 2 8 8 8 10 2 2 2 2 2 10 10 2 2 2 2 2 2 2 2 8 2 2 2
left_child=1 2 -1 5 26 6 17 -6 11 -10 23 -7 13 -2 15 -15 22 21 -9 -20 25 -3 27 -8 -25 -11 -5 -17 29 -27
right_child=12 3 -4 4 7 8 10 18 9 20 -12 -13 -14 14 -16 16 -18 -19 19 -21 -22 -23 -24 24 -26 28 -28 -29 -30 -31
leaf_value=0.0050262016603547155 -0.0016176677489736749 0.0034377782500882984 0.010673677241369875 -0.0011456578165851522 -0.0029841871843472316 -0.00085317513156758687 0.0045317987368473011 0.0028014080375846242 0.016195894512258811 0.0006387258532469691 -0.00033689880418446406 0.0018457265911862978 -0.0016176677489736749 -0.0016554076562591254 -0.0016176677489736749 0.00010408080434230055 -0.0018050309660252982 -0.0028969271046932477 0.0033737962243033728 -0.00044495895042716147 0.00011949353541484721 8.068315371739458e-05 -0.00018709033062222908 0.0064231005454617853 0.0042704196720456415 0.0094466940108257694 -0.0017221978343360889 0.0072095636625336751 0.005421037876090916 0.0076688098072579093
leaf_weight=25 262 30 26 21 51 146 71 111 20 264 21 38 3706 31 122 35 22 22 31 62 288 125 25 51 33 30 237 26 114 27
leaf_count=25 262 30 26 21 51 146 71 111 20 264 21 38 3706 31 122 35 22 22 31 62 288 125 25 51 33 30 237 26 114 27
internal_value=-0.00305697 0.000829717 0.0126471 0.000493585 -0.00197856 0.00148437 0.00349858 9.8038e-05 0.000717367 0.00132571 0.00636364 -0.00173913 -0.00475172 -0.00356597 -0.00212644 -0.000323742 0.00101852 0.000649716 0.00137255 -0.000698926 0.00108575 0.00145161 0.00255814 0.00725806 0.00869047 0.00178161 -0.00403101 0.00401639 0.00289474 0.00464912
internal_weight=6073 1844 51 1793 513 1280 353 255 927 743 176 184 4229 523 261 139 108 177 204 93 723 155 86 155 84 435 258 61 171 57
internal_count=6073 1844 51 1793 513 1280 353 255 927 743 176 184 4229 523 261 139 108 177 204 93 723 155 86 155 84 435 258 61 171 57
is_linear=0
shrinkage=0.05


Tree=23
num_leaves=31
num_cat=0
split_feature=5 0 7 8 1 1 2 1 2 1 1 0 5 8 0 0 2 0 0 1 0 5 0 2 7 2 1 7 1 1
split_gain=15.5184 3.29337 2.81003 1.62041 0.903984 1.44986 0.356331 0.488185 0.468266 0.849355 0.611565 0.407665 0.310148 0.305919 0.300889 0.295576 0.276618 0.962034 0.266168 0.263734 0.364087 0.247487 0.324374 0.255781 0.281877 0.341446 0.231013 0.258511 0.212246 0.667797
threshold=-0.60355339059327384 13.500000000000002 5.5000000000000009 38.500000000000007 1.5000000000000002 1.0000000180025095e-35 6.0000000000000009 5.5000000000000009 11.500000000000002 2.5000000000000004 2.5000000000000004 10.500000000000002 -0.98296291314453399 75.500000000000014 14.500000000000002 11.500000000000002 11.500000000000002 11.500000000000002 10.500000000000002 3.5000000000000004 11.500000000000002 -0.37940952255126015 15.500000000000002 11.500000000000002 inf 6.0000000000000009 3.5000000000000004 99.500000000000014 4.5000000000000009 3.5000000000000004
decision_type=2 2 8 8 2 2 2 2 2 2 2 2 2 10 2 2 2 2 2 2 2 2 2 2 8 2 2 10 2 2
left_child=1 2 -1 -4 5 -5 19 8 10 18 15 -12 -11 14 -3 -8 17 -7 -10 -6 -21 22 23 24 -2 -26 27 -15 29 -13
right_child=21 13 3 4 6 16 7 -9 9 12 11 28 -14 26 -16 -17 -18 -19 -20 20 -22 -23 -24 -25 25 -27 -28 -29 -30 -31
leaf_value=0.01018304255570244 -0.0015726372734461689 -5.9746767707424819e-06 -0.0015891256664251733 0.0032097981252418376 -0.0030568067558415257 0.0061104754355914524 0.0082566417530413275 0.0072564780917574769 -0.00025970010780783945 1.0877270997142198e-05 0.01269872263547408 -0.00044322431935470976 -0.00061232005149514524 -0.0012111397774741161 -0.0016360879426192843 -0.001724235388322222 0.0061019455181886952 -0.00049759845490307737 0.0070868953056730036 -0.0014189638570070676 0.0065202080741411901 -0.0015367843615249912 -0.0015367843615249912 -0.0015367843615249912 -0.0014986172016676785 0.00028705327582385134 0.00073095848090216008 4.063443219080817e-05 -0.00020351233241584652 0.0086203929694601885
leaf_weight=36 34 217 157 155 48 45 38 136 29 45 75 44 154 27 234 31 84 34 54 38 30 3706 262 122 24 81 28 20 44 41
leaf_count=36 34 217 157 155 48 45 38 136 29 45 75 44 154 27 234 31 84 34 54 38 30 3706 262 122 24 81 28 20 44 41
internal_value=-0.00310637 0.000721257 0.00205614 0.00166927 0.00233333 0.00459119 0.00144362 0.00187409 0.00121622 -0.000212767 0.00269231 0.00406863 -0.00198493 -0.00262358 -0.0031153 -0.00137681 0.00788343 0.00575949 0.00403614 -0.00112069 0.000882352 -0.00477536 -0.00375717 -0.00250958 -0.00104317 0.000238094 0.000333332 -0.00180851 0.00236434 0.00382353
internal_weight=6073 1844 1318 1282 1125 318 807 691 555 282 273 204 199 526 451 69 163 79 83 116 68 4229 523 261 139 105 75 47 129 85
internal_count=6073 1844 1318 1282 1125 318 807 691 555 282 273 204 199 526 451 69 163 79 83 116 68 4229 523 261 139 105 75 47 129 85
is_linear=0
shrinkage=0.05


Tree=24
num_leaves=31
num_cat=0
split_feature=0 0 7 8 0 6 1 2 0 6 2 2 8 1 1 8 1 0 8 0 0 2 1 2 6 2 0 6 6 2
split_gain=4.30208 13.1482 2.05307 1.11932 1.08235 0.909138 0.887529 1.16565 0.522139 0.45838 0.4377 0.555425 0.568529 0.424606 0.581737 0.409431 0.401256 0.356595 0.351371 0.333604 0.329687 0.285487 0.823407 0.255781 0.281877 0.341446 0.248291 0.235992 0.175824 0.178571
threshold=14.500000000000002 8.5000000000000018 5.5000000000000009 38.500000000000007 12.500000000000002 1.9500000000000002 1.5000000000000002 6.0000000000000009 7.5000000000000009 5.7500000000000009 6.0000000000000009 11.500000000000002 136.50000000000003 5.5000000000000009 2.5000000000000004 118.50000000000001 3.5000000000000004 11.500000000000002 76.500000000000014 13.500000000000002 10.500000000000002 11.500000000000002 1.0000000180025095e-35 11.500000000000002 -2.9499999999999997 6.0000000000000009 10.500000000000002 4.4500000000000011 6.2500000000000009 11.500000000000002
decision_type=2 2 8 8 2 10 2 2 2 10 2 2 8 2 2 10 2 2 10 2 2 2 2 2 10 2 2 10 10 2
left_child=1 8 5 27 6 -3 7 -5 -1 18 -8 12 -12 14 26 -2 20 -16 19 -6 -14 -9 -23 24 25 -10 -13 -4 -29 -30
right_child=15 2 3 4 9 -7 10 21 23 -11 11 13 16 -15 17 -17 -18 -19 -20 -21 -22 22 -24 -25 -26 -27 -28 28 29 -31
leaf_value=-0.0014599451434487416 -0.0014599451434487416 0.0060633746444335411 -0.0018823327493348446 0.0045746850133230547 0.0015201830758930232 0.00965667073272399 -0.0016768338367309271 0.0060458687775981242 -0.0014236863415842947 -0.00069684095856199064 0.015229234303697541 -0.00024671510241744768 0.007843809665389263 0.0069225454123071385 -0.00053798656035257625 3.3869897637306665e-05 0.0092893913452540885 1.0333407447285503e-05 0.0019524640945244164 -5.6759429322053585e-06 -0.0014327853808739554 0.0029567884661743345 0.0070587413912366406 -0.0014599451434487416 -0.0014940054097738603 0.00027270061203265911 0.0098029453142264751 8.852806706202537e-05 5.1439991674390913e-05 -0.0031419925669750135
leaf_weight=1899 2313 21 71 21 210 23 89 93 24 47 21 29 46 52 109 21 149 45 35 208 52 67 65 122 34 81 35 28 28 35
leaf_count=1899 2313 21 71 21 210 23 89 93 24 47 21 29 46 52 109 21 149 45 35 208 52 67 65 122 34 81 35 28 28 35
internal_value=-0.00312284 -0.00207141 0.00139645 0.0010912 0.00155499 0.0120455 0.00261741 0.0051626 -0.00460648 -0.000300001 0.00161882 0.00215613 0.00376866 0.000555554 -0.000412845 -0.0048072 0.00309716 -0.00207792 0.000187637 -0.000215312 0.000612244 0.00411111 0.00560606 -0.00250958 -0.00104317 0.000238094 0.00359375 -0.00283951 -0.00115385 -0.00261905
internal_weight=6073 3739 1579 1535 1373 44 873 246 2160 500 627 538 268 270 218 2334 247 154 453 418 98 225 132 261 139 105 64 162 91 63
internal_count=6073 3739 1579 1535 1373 44 873 246 2160 500 627 538 268 270 218 2334 247 154 453 418 98 225 132 261 139 105 64 162 91 63
is_linear=0
shrinkage=0.05


Tree=25
num_leaves=31
num_cat=0
split_feature=5 0 7 8 6 6 8 5 0 2 2 7 6 8 7 0 6 8 0 2 3 0 2 0 3 6 6 2 3 2
split_gain=14.8466 3.08325 2.87227 1.31337 0.3 0.486111 0.433207 0.28989 0.376197 0.3178 0.297362 0.401606 0.257666 0.233471 0.250216 0.238821 0.200285 0.195858 0.244385 0.163727 0.149198 0.129684 0.194533 0.16196 0.100695 0.0953695 0.08 0.0703398 0.0573144 0.0479025
threshold=-0.60355339059327384 13.500000000000002 5.5000000000000009 38.500000000000007 3.8500000000000001 2.3500000000000001 112.00000000000001 -0.37940952255126015 15.500000000000002 11.500000000000002 6.0000000000000009 3.5000000000000004 4.4500000000000011 131.50000000000003 20.500000000000004 14.500000000000002 8.8500000000000032 1.0000000180025095e-35 10.500000000000002 6.0000000000000009 1.0000000180025095e-35 9.5000000000000018 11.500000000000002 12.500000000000002 1.0000000180025095e-35 3.1500000000000008 6.5500000000000007 6.0000000000000009 1.0000000180025095e-35 11.500000000000002
decision_type=2 2 8 8 8 10 10 2 2 2 2 10 10 10 10 2 8 10 2 2 2 2 2 2 2 10 10 2 2 2
left_child=1 2 -1 12 5 -5 16 8 9 10 -2 20 -4 15 -15 19 26 -14 -19 -3 -12 22 24 -23 -18 -21 -6 -17 29 -25
right_child=7 13 3 4 6 -7 -8 -9 -10 -11 11 -13 17 14 -16 27 21 18 -20 25 -22 23 -24 28 -26 -27 -28 -29 -30 -31
leaf_value=0.0091910568912811196 -0.0014193051392851674 0.00079103851661972355 -0.0017882161118681031 0.0016539619690280429 0.00054148325003986896 0.0064002936049268912 -0.0013839056556260105 -0.0013869478862763044 -0.0013869478862763044 -0.0013869478862763044 0.00025906594034992293 -0.0015614472835630317 -0.0029848929386262629 -0.00054405412990669963 0.00080047379135978522 -0.00096878651555859757 0.0032770755972638555 0.0018337235031924354 -0.00021384241335503144 -5.3921457855952981e-06 -0.00020572350848394318 0.00560837264600186 -0.00025573650882299926 0.00097365436213002151 0.0014193697153276259 -0.0032682095732603405 -0.00032836917133665061 -0.0014812862883158832 0.0029447143932798737 -0.00024141134649349196
leaf_weight=36 31 30 71 24 25 21 22 3706 262 122 58 25 22 22 20 31 76 37 27 175 25 605 91 75 30 28 25 220 59 72
leaf_count=36 31 30 71 24 25 21 22 3706 262 122 58 25 22 22 20 31 76 37 27 175 25 605 91 75 30 28 25 220 59 72
internal_value=-0.00313107 0.000612797 0.0019044 0.00151326 0.00211111 0.00611111 0.00194444 -0.00476354 -0.00366157 -0.00231801 -0.000683454 0.000555554 -0.0027707 -0.00262358 0.00095238 -0.00293389 0.00208885 -0.000930234 0.000468749 -0.00178112 0.00222891 0.00224206 0.00109137 0.00252158 0.00254717 -0.00229064 -0.001 -0.00400399 0.00131068 0.000782312
internal_weight=6073 1844 1318 1282 1125 45 1080 4229 523 261 139 108 157 526 42 484 1058 86 64 233 83 1008 197 811 106 203 50 251 206 147
internal_count=6073 1844 1318 1282 1125 45 1080 4229 523 261 139 108 157 526 42 484 1058 86 64 233 83 1008 197 811 106 203 50 251 206 147
is_linear=0
shrinkage=0.05


Tree=26
num_leaves=31
num_cat=0
split_feature=5 4 7 7 1 2 7 1 4 8 6 8 6 5 4 2 6 2 4 6 4 5 1 2 2 1 1 8 2 2
split_gain=14.0251 2.78105 2.41331 1.05234 0.8056 1.14668 0.334242 0.334055 0.273647 0.46688 0.247762 0.279423 0.347876 0.247487 0.324374 0.255781 0.281877 0.341446 0.238072 0.256484 0.218227 0.196012 0.18763 0.443936 0.206383 0.17661 0.143254 0.14204 0.140025 0.28996
threshold=-0.60355339059327384 -0.25881904510252113 5.5000000000000009 60.500000000000007 1.5000000000000002 6.0000000000000009 15.500000000000002 4.5000000000000009 1.0000000180025095e-35 80.500000000000014 2.9500000000000006 1.0000000180025095e-35 6.5500000000000007 -0.37940952255126015 0.78656609248549325 11.500000000000002 -2.9499999999999997 6.0000000000000009 -0.5 3.7500000000000004 0.37940952255126054 -0.98296291314453399 1.0000000180025095e-35 11.500000000000002 11.500000000000002 1.5000000000000002 3.5000000000000004 207.50000000000003 6.0000000000000009 11.500000000000002
decision_type=2 2 8 10 2 2 10 2 2 10 10 10 10 2 2 2 10 2 2 8 2 2 2 2 2 2 2 8 2 2
left_child=1 18 -3 4 5 -4 7 28 -5 10 -10 -12 26 14 -2 16 17 -16 19 -1 -14 -7 24 -24 -23 -20 -13 -27 -6 -30
right_child=13 2 3 8 6 21 -8 -9 9 -11 11 12 20 -15 15 -17 -18 -19 25 -21 -22 22 23 -25 -26 27 -28 -29 29 -31
leaf_value=0.00021004632225669987 -0.0013176004919624893 0.0087315040467170653 0.0039780324909650033 -0.00065114790580864503 -0.001544592604620261 0.0051634925404173363 0.011253149098760518 0.0049679383172216516 -0.0025526900188763721 0.0055047315950391505 -0.0028356482916949495 0.0040390139038953094 -0.0021269901446228931 -0.0013176004919624893 -0.0012815367675408215 -0.0013176004919624893 -0.0013483398823209091 0.00024611228441352972 5.14989912123798e-06 -0.001407221973900089 2.55365239737762e-05 0.0065047489077278108 0.0006460138636179627 0.0047706589228079582 -0.0015949176559439432 -0.0016625496482718348 -1.1187272864535539e-05 -5.1225384963153601e-06 0.0051852229091962276 -0.00027060189522517126
leaf_weight=24 262 36 26 49 67 55 20 281 43 23 28 21 29 3706 24 122 34 81 72 241 23 39 47 64 68 40 24 149 181 194
leaf_count=24 262 36 26 49 67 55 20 281 43 23 28 21 29 3706 24 122 34 81 72 241 23 39 47 64 68 40 24 149 181 194
internal_value=-0.00318871 0.000450107 0.00167678 0.00131825 0.00200576 0.00419732 0.00112382 0.00094744 -0.00166667 -0.00081152 -0.00172619 -0.000600001 0.000670102 -0.00477536 -0.00375717 -0.00250958 -0.00104317 0.000238094 -0.00262358 -0.00367925 -0.00211539 0.00324176 0.00256881 0.00400901 0.00107477 -0.00155173 0.00388889 -0.0023545 9.04965e-05 0.000466665
internal_weight=6073 1844 1318 1282 1042 299 743 723 240 191 168 125 97 4229 523 261 139 105 526 265 52 273 218 111 107 261 45 189 442 375
internal_count=6073 1844 1318 1282 1042 299 743 723 240 191 168 125 97 4229 523 261 139 105 526 265 52 273 218 111 107 261 45 189 442 375
is_linear=0
shrinkage=0.05


Tree=27
num_leaves=31
num_cat=0
split_feature=5 4 7 8 7 4 7 6 5 4 2 2 7 8 6 7 4 7 2 3 2 6 8 2 4 4 2 3 4 5
split_gain=13.8169 2.56437 1.94246 0.797505 0.42307 0.406023 0.329642 0.315416 0.28989 0.376197 0.3178 0.297362 0.401606 0.286566 0.343636 0.265152 0.253198 0.249702 0.180413 0.149198 0.134554 0.287415 0.217778 0.0965389 0.174332 0.162493 0.107583 0.15744 0.120859 0.0747359
threshold=-0.60355339059327384 -0.25881904510252113 5.5000000000000009 1.5000000000000002 93.500000000000014 1.0000000180025095e-35 53.500000000000007 2.8500000000000001 -0.37940952255126015 0.78656609248549325 11.500000000000002 6.0000000000000009 3.5000000000000004 75.500000000000014 6.0500000000000007 45.500000000000007 -0.5 18.500000000000004 6.0000000000000009 1.0000000180025095e-35 11.500000000000002 5.5500000000000007 34.500000000000007 11.500000000000002 0.60355339059327384 0.37940952255126054 6.0000000000000009 1.0000000180025095e-35 0.60355339059327384 -0.98296291314453399
decision_type=2 2 8 8 10 2 10 10 2 2 2 2 10 10 10 8 2 10 2 2 2 10 10 2 2 2 2 2 2 2
left_child=1 13 -3 -4 6 -6 17 -7 9 -2 11 -11 19 16 15 -15 -1 23 -18 -13 22 -22 -9 25 29 -5 -27 28 -28 -25
right_child=8 2 3 4 5 7 -8 20 -10 10 -12 12 -14 14 -16 -17 18 -19 -20 -21 21 -23 -24 24 -26 26 27 -29 -30 -31
leaf_value=-0.0013368608752050844 -0.0012517204673643647 0.0082949288443812108 -0.0024443595978046457 0.0038837049232054431 -0.00057503581135457586 -0.0025516131342222075 0.0048616041523818843 -0.00012884642050283332 -0.0012517204673643647 -0.0012809228882048637 -0.0012517204673643647 0.00023380702911175028 -0.0014159579252688347 -0.00041570714859129847 -0.0014303683311916917 0.0007380947897478716 0.0010112292004388374 -0.0022611624894365288 -4.8664115714996963e-06 -0.00020774294728042252 0.0032961685577059287 -0.001785314962123864 0.0061974433527657666 0.0049053179133964706 -0.00022941958862059071 0.0017462663908823794 0.0097256013103702993 0.0060064728402306686 0.0031381572437879273 0.0022204876910110138
leaf_weight=234 262 36 63 324 43 20 34 20 3706 31 122 58 25 22 33 20 29 26 188 25 21 28 25 93 91 54 57 48 55 280
leaf_count=234 262 36 63 324 43 20 34 20 3706 31 122 58 25 22 33 20 29 26 188 25 21 28 25 93 91 54 57 48 55 280
internal_value=-0.00318871 0.000422992 0.00160091 0.00127925 0.00156276 -0.000859874 0.0019209 0.000701753 -0.00476354 -0.00366157 -0.00231801 -0.000683454 0.000555554 -0.00252852 0.000333332 0.00333333 -0.00300444 0.0017607 -0.00177419 0.00222891 0.00191489 0.00010204 0.00388889 0.00188623 0.00135776 0.00234201 0.00341121 0.0040625 0.00303571 0.00183646
internal_weight=6073 1844 1318 1282 1219 157 1062 114 4229 523 261 139 108 526 75 42 451 1028 217 83 94 49 45 1002 464 538 214 160 112 373
internal_count=6073 1844 1318 1282 1219 157 1062 114 4229 523 261 139 108 526 75 42 451 1028 217 83 94 49 45 1002 464 538 214 160 112 373
is_linear=0
shrinkage=0.05


Tree=28
num_leaves=31
num_cat=0
split_feature=5 0 7 7 1 1 7 5 0 1 0 8 7 0 7 0 8 6 5 0 6 6 5 1 8 1 1 1 1 1
split_gain=12.9027 2.44819 1.61624 1.23893 0.724284 0.667966 0.340174 0.335644 0.431859 0.327866 0.278341 0.233471 0.250216 0.238821 0.219662 0.209511 0.358617 0.208976 0.145617 0.12464 0.121473 0.141966 0.110953 0.12074 0.11089 0.0897459 0.0929729 0.0736145 0.0867105 0.0826654
threshold=-0.60355339059327384 13.500000000000002 1.0000000180025095e-35 60.500000000000007 1.5000000000000002 1.0000000180025095e-35 15.500000000000002 -0.37940952255126015 15.500000000000002 4.5000000000000009 11.500000000000002 131.50000000000003 20.500000000000004 14.500000000000002 25.000000000000004 12.500000000000002 94.000000000000014 4.4500000000000011 -0.98296291314453399 9.5000000000000018 6.5500000000000007 8.2500000000000018 -0.98296291314453399 2.5000000000000004 83.500000000000014 4.5000000000000009 2.5000000000000004 1.5000000000000002 3.5000000000000004 5.5000000000000009
decision_type=2 2 8 10 2 2 10 2 2 2 2 10 10 2 10 2 10 10 2 2 10 10 2 2 8 2 2 2 2 2
left_child=1 2 -1 4 5 18 9 8 14 19 -7 13 -13 24 25 16 17 -5 -4 -6 -19 -22 23 -21 -3 26 -2 -26 -29 -30
right_child=7 11 3 15 6 10 -8 -9 -10 -11 -12 12 -14 -15 -16 -17 -18 20 -20 22 21 -23 -24 -25 27 -27 -28 28 29 -31
leaf_value=0.0078801824021621503 -0.0011934094322517967 -0.0032520075213893287 0.0018400491690377442 -0.0016205832683883433 -0.00023958442739417177 0.0053284225630636306 0.010483025108083499 -0.0011891344439961466 -0.0011891344439961466 0.0040775353079588583 0.0044211015921170075 -0.00049487189782034793 0.00071406752366638931 -0.0012700178314448303 -0.0011891344439961466 -0.00072850609552342366 0.0055605702462097565 0.00070214331527522912 0.0029013823548374573 0.0088006364627495458 -0.0010201278715670093 -0.00024930189926574163 0.001277657338104538 -0.00090900429912897478 9.4479243194310259e-06 -0.00049489064637013721 3.5056496708237561e-05 -4.6230909929244342e-06 0.00085352045638445104 -9.1834032331116627e-05
leaf_weight=27 93 24 31 67 89 92 20 3706 262 284 58 22 20 251 53 49 20 38 120 31 41 25 268 58 59 54 61 63 59 28
leaf_count=27 93 24 31 67 89 92 20 3706 262 284 58 22 20 251 53 49 20 38 120 31 41 25 268 58 59 54 61 63 59 28
internal_value=-0.00322987 0.000260302 0.00141123 0.00115802 0.00189819 0.0039701 0.00106667 -0.00475172 -0.00356597 0.00089041 0.00633333 -0.00262358 0.00095238 -0.00293389 -0.00212644 -0.00208333 -0.00133508 -0.00207602 0.00162252 4.48419e-05 -0.000673078 -0.0019697 0.000462184 -0.00106742 -0.00178112 -0.00139423 -0.000779222 -0.00141148 -0.002 -0.000977013
internal_weight=6073 1844 1318 1291 1051 301 750 4229 523 730 150 526 42 484 261 240 191 171 151 446 104 66 357 89 233 208 154 209 150 87
internal_count=6073 1844 1318 1291 1051 301 750 4229 523 730 150 526 42 484 261 240 191 171 151 446 104 66 357 89 233 208 154 209 150 87
is_linear=0
shrinkage=0.05


Tree=29
num_leaves=31
num_cat=0
split_feature=5 0 7 7 5 0 8 6 7 6 0 0 8 6 7 7 6 6 6 3 3 0 0 8 3 3 6 0 6 0
split_gain=12.625 2.20128 1.64677 1.00327 0.335644 0.431859 0.286566 0.343636 0.265152 0.258233 0.253198 0.24051 0.504184 0.221667 0.219662 0.149674 0.123695 0.135641 0.0916981 0.0897459 0.0659966 0.05434 0.113295 0.0350746 0.0274323 0.0259728 0.0241269 0.0207299 0.0160797 0.0134874
threshold=-0.60355339059327384 13.500000000000002 1.0000000180025095e-35 60.500000000000007 -0.37940952255126015 15.500000000000002 75.500000000000014 6.0500000000000007 45.500000000000007 2.2500000000000004 14.500000000000002 12.500000000000002 80.500000000000014 4.4500000000000011 25.000000000000004 54.500000000000007 6.5500000000000007 8.2500000000000018 1.0000000180025095e-35 1.0000000180025095e-35 1.0000000180025095e-35 11.500000000000002 9.5000000000000018 21.500000000000004 1.0000000180025095e-35 1.0000000180025095e-35 -1.9499999999999997 10.500000000000002 -0.24999999999999997 10.500000000000002
decision_type=2 2 8 10 2 2 10 10 8 10 2 2 10 10 10 8 10 10 10 2 2 2 2 10 2 2 8 2 10 2
left_child=1 2 -1 9 5 14 10 8 -8 15 18 12 13 23 19 -4 -15 -18 25 -2 21 22 -17 -5 28 -3 -6 -24 -12 -22
right_child=4 6 3 11 26 -7 7 -9 -10 -11 24 -13 -14 16 -16 20 17 -19 -20 -21 29 -23 27 -25 -26 -27 -28 -29 -30 -31
leaf_value=0.0074861732820540429 -0.00071760162030572595 -4.3919364432779001e-06 -0.0022225910045214226 -0.0017969488159243975 -0.0011296777217963392 -0.0011296777217963392 -0.00037017819627071613 -0.0013660245468107919 0.00067540705591364746 0.010396578155534662 -0.0012065169398725888 -0.00069208079074725237 0.0046549527623760299 0.00084269303473165965 -0.0011296777217963392 0.0011879002056924661 -0.0018526363209028002 -0.00023683680430245445 -0.0038665838309646068 -0.0004701461140516304 0.0013448267944310068 0.0017480467105858571 0.0028653948612455404 -0.0011171113003686883 -0.0012065169398725888 -8.7242330714560476e-05 -0.0011296777217963392 0.0030840326648062786 -0.0012065169398725888 0.004972657192772751
leaf_weight=27 154 141 21 47 37 262 22 33 20 37 143 49 23 37 53 143 39 25 20 54 110 282 142 20 67 56 3669 145 24 171
leaf_count=27 154 141 21 47 37 262 22 33 20 37 143 49 23 37 53 143 39 25 20 54 110 282 142 20 67 56 3669 145 24 171
internal_value=-0.00324634 0.000206073 0.00129742 0.00104183 -0.00475172 -0.00356597 -0.00252852 0.000333332 0.00333333 0.0017079 -0.00300444 -0.001875 -0.0010733 -0.00202381 -0.00212644 0.00155818 -0.000544556 -0.001875 -0.00177419 -0.00139423 0.00164652 0.00139045 0.00174418 -0.00425373 -0.0041453 -0.0014467 -0.00491905 0.00231707 -0.0038024 0.00229537
internal_weight=6073 1844 1318 1291 4229 523 526 75 42 1051 451 240 191 168 261 1014 101 64 217 208 993 712 430 67 234 197 3706 287 167 281
internal_count=6073 1844 1318 1291 4229 523 526 75 42 1051 451 240 191 168 261 1014 101 64 217 208 993 712 430 67 234 197 3706 287 167 281
is_linear=0
shrinkage=0.05


Tree=30
num_leaves=31
num_cat=0
split_feature=0 0 0 7 8 6 1 1 0 2 2 0 1 1 1 0 6 6 2 0 2 8 6 7 2 0 0 1 0 2
split_gain=3.72129 9.42858 1.7431 1.94355 1.1521 1.13751 0.768311 0.713955 0.931575 0.704461 1.23401 0.574497 0.552894 0.499204 0.453618 0.432454 0.375488 0.324756 0.38179 0.321142 0.29021 0.286566 0.343636 0.265152 0.258083 0.262301 0.253198 0.238686 0.334994 0.180413
threshold=15.500000000000002 7.5000000000000009 13.500000000000002 5.5000000000000009 1.0000000180025095e-35 1.9500000000000002 1.5000000000000002 1.0000000180025095e-35 8.5000000000000018 11.500000000000002 6.0000000000000009 11.500000000000002 2.5000000000000004 5.5000000000000009 2.5000000000000004 10.500000000000002 7.5500000000000007 3.4500000000000006 6.0000000000000009 11.500000000000002 11.500000000000002 75.500000000000014 6.0500000000000007 45.500000000000007 11.500000000000002 9.5000000000000018 14.500000000000002 3.5000000000000004 11.500000000000002 6.0000000000000009
decision_type=2 2 2 8 8 10 2 2 2 2 2 2 2 2 2 2 10 10 2 2 2 10 10 8 2 2 2 2 2 2
left_child=1 -1 3 5 -5 -3 7 17 -9 10 27 -10 19 14 15 -11 -14 18 -6 -12 -13 26 23 -23 -20 -26 29 -8 -29 -4
right_child=-2 2 21 4 6 -7 9 8 11 13 12 20 16 -15 -16 -17 -18 -19 24 -21 -22 22 -24 -25 25 -27 -28 28 -30 -31
leaf_value=-0.0010731938357065221 -0.0010731938357065221 0.0029604818201743968 0.00096041494102308772 -0.0010731938357065221 -0.0012491149792519664 0.0071118646179513419 -0.0016941133755601378 -0.0010978634356010155 0.004983206852529256 -0.00040701813167601589 0.00012949035966647662 -0.00068591393675531233 0.0047240235924316679 0.001970230783422225 -0.0014285640215491642 0.0049038514295712005 0.012664985584349461 -0.0017718363996546299 0.0048600925954497172 -0.0028276835324493599 0.0042082241421329235 -0.00035166928645718006 -0.0012977233194702527 0.0006416367031179649 -0.0011926304631152387 0.0016606443750565637 -0.0011461910928789593 -0.0016799887937189242 0.0050785277847784846 -4.1723396211140745e-06
leaf_weight=1899 2069 23 29 106 21 20 62 30 103 48 55 34 321 84 259 59 24 23 62 31 37 22 33 20 30 61 234 56 30 188
leaf_count=1899 2069 23 29 106 21 20 62 30 103 48 55 34 321 84 259 59 24 23 62 31 37 22 33 20 30 61 234 56 30 188
internal_value=-0.00322987 -0.00234016 -3.56306e-05 0.000794806 0.000501301 0.0112791 0.000874125 0.00273067 0.00480392 0.00015063 0.00130397 0.0062069 0.00265661 -0.00133333 -0.00213115 0.000607475 0.00355072 0.000583755 0.00132184 -0.000930234 0.00274648 -0.00252852 0.000333332 0.00333333 0.00218954 0.000494504 -0.00300444 -0.00263514 -0.000930234 -0.00177419
internal_weight=6073 4004 2105 1579 1536 43 1430 401 204 1029 579 174 431 450 366 107 345 197 174 86 71 526 75 42 153 91 451 148 86 217
internal_count=6073 4004 2105 1579 1536 43 1430 401 204 1029 579 174 431 450 366 107 345 197 174 86 71 526 75 42 153 91 451 148 86 217
is_linear=0
shrinkage=0.05


Tree=31
num_leaves=31
num_cat=0
split_feature=5 0 7 8 1 2 2 2 0 1 1 1 1 0 1 5 0 2 2 7 1 8 7 0 0 2 8 1 1 0
split_gain=11.7348 2.05139 1.70869 1.3022 0.753476 1.3126 0.432483 0.796047 0.803134 0.496978 0.472286 0.469662 0.499298 0.428503 0.298174 0.28989 0.376197 0.3178 0.297362 0.341085 0.236669 0.233471 0.250216 0.238821 0.218008 0.163727 0.154396 0.124926 0.124849 0.21645
threshold=-0.60355339059327384 13.500000000000002 1.0000000180025095e-35 38.500000000000007 1.5000000000000002 6.0000000000000009 11.500000000000002 6.0000000000000009 11.500000000000002 3.5000000000000004 4.5000000000000009 5.5000000000000009 2.5000000000000004 10.500000000000002 3.5000000000000004 -0.37940952255126015 15.500000000000002 11.500000000000002 6.0000000000000009 41.500000000000007 2.5000000000000004 131.50000000000003 20.500000000000004 14.500000000000002 11.500000000000002 6.0000000000000009 100.00000000000001 4.5000000000000009 4.5000000000000009 10.500000000000002
decision_type=2 2 8 8 2 2 2 2 2 2 2 2 2 2 2 2 2 2 2 10 2 10 10 2 2 2 8 2 2 2
left_child=1 2 -1 -4 5 -5 7 14 20 -10 -11 12 13 -8 -6 16 17 18 -2 27 -9 23 -23 25 -16 -3 -7 -20 -14 -30
right_child=15 21 3 4 6 26 11 8 9 10 -12 -13 28 -15 24 -17 -18 -19 19 -21 -22 22 -24 -25 -26 -27 -28 -29 29 -31
leaf_value=0.0067562713870537756 -0.0010472764437196699 0.00065239408936577166 -0.00078134632124246908 0.0029151625162365221 -0.0033429775849052631 0.0038240550571753146 -0.00033874347440326333 0.0068177060877091609 -0.0024033328932494304 0.0043442901355200403 -1.2183257243952861e-05 0.0052513155336530925 -0.0010066684128426241 0.0059426109301251159 -0.001677829464214925 -0.001019534143921196 -0.001019534143921196 -0.001019534143921196 0.00012301584143807368 -0.0011755597289304425 0.010369507501134134 -0.00042432637826173101 0.00061251195953148903 -0.0010888815382350113 0.0048246013955395607 -3.9637226400580927e-06 0.003902232969875219 -0.00038530514151689652 -0.0061066807940845028 0.0018380487450630409
leaf_weight=27 31 30 159 26 48 27 29 39 62 27 60 69 133 54 38 3706 262 122 61 22 158 22 20 251 30 203 266 25 24 42
leaf_count=27 31 30 159 26 48 27 29 39 62 27 60 69 133 54 38 3706 262 122 61 22 158 22 20 251 30 203 266 25 24 42
internal_value=-0.0033122 1.62678e-05 0.0010698 0.000809449 0.00140459 0.00346395 0.000596555 0.00160173 0.00280347 3.35559e-05 0.00247126 -0.000726497 -0.00163121 0.0016265 -0.00198276 -0.00476354 -0.00366157 -0.00231801 -0.000683454 0.000555554 0.00489848 -0.00262358 0.00095238 -0.00293389 0.000147058 -0.00178112 0.00250853 0.00197674 -0.00298995 -0.00121212
internal_weight=6073 1844 1318 1291 1132 319 813 462 346 149 87 351 282 83 116 4229 523 261 139 108 197 526 42 484 68 233 293 86 199 66
internal_count=6073 1844 1318 1291 1132 319 813 462 346 149 87 351 282 83 116 4229 523 261 139 108 197 526 42 484 68 233 293 86 199 66
is_linear=0
shrinkage=0.05


Tree=32
num_leaves=31
num_cat=0
split_feature=0 0 0 7 6 0 2 6 1 2 1 2 1 0 0 6 6 0 2 6 6 0 2 1 0 0 2 1 1 0
split_gain=3.23973 8.1822 1.4268 1.3516 2.19318 0.815674 0.433709 0.381839 0.410267 0.74793 0.302195 0.426452 0.301096 0.284739 0.297963 0.234722 0.245794 0.199707 0.198613 0.188599 0.498188 0.211824 0.263998 0.186459 0.235294 0.156081 0.104456 0.572941 0.507908 0.241301
threshold=15.500000000000002 7.5000000000000009 13.500000000000002 60.500000000000007 7.2500000000000009 9.5000000000000018 11.500000000000002 3.3500000000000001 1.5000000000000002 6.0000000000000009 1.5000000000000002 6.0000000000000009 5.5000000000000009 9.5000000000000018 12.500000000000002 1.3500000000000003 4.5500000000000007 10.500000000000002 11.500000000000002 3.7500000000000004 1.4500000000000002 14.500000000000002 6.0000000000000009 1.5000000000000002 8.5000000000000018 11.500000000000002 11.500000000000002 3.5000000000000004 2.5000000000000004 11.500000000000002
decision_type=2 2 2 10 10 2 2 8 2 2 2 2 2 2 2 10 10 2 2 8 10 2 2 2 2 2 2 2 2 2
left_child=1 -1 3 4 5 6 10 -7 9 -9 -3 -12 26 -5 15 -15 -17 -18 -19 20 -4 22 -21 24 -8 -14 27 -10 29 -28
right_child=-2 2 19 13 -6 7 23 8 12 -11 11 -13 25 14 -16 16 17 18 -20 21 -22 -23 -24 -25 -26 -27 28 -29 -30 -31
leaf_value=-0.00096855743672513619 -0.00096855743672513619 0.0016462733643495182 -0.0012906501761175545 -0.00096855743672513619 0.010135503755901826 0.0066092785568425926 -0.0010198624761447847 0.0024166782636516129 -0.0023021558442133812 0.0039042729755548013 -0.0011525494097559413 0.0001970074910980427 0.0089367256012968573 -0.0024420512912271112 -0.00083660180138194764 0.0025770607816172873 0.0018464577137691327 0.00034895772995157271 -0.00066572384658477625 0.0019197749079282922 0.00089763229983413949 -0.0010344374613232607 -3.7655365080553617e-06 -0.00096130156777168895 0.0015627087967906906 0.0027324025473628123 0.00026769291683217538 0.0054860152021812669 -0.0014490382577248579 0.0077308853980709719
leaf_weight=1899 2069 58 22 93 20 39 34 20 129 210 41 128 55 24 49 33 26 26 35 25 24 241 214 128 34 56 30 135 145 31
leaf_count=1899 2069 58 22 93 20 39 34 20 129 210 41 128 55 24 49 33 26 26 35 25 24 241 214 128 34 56 30 135 145 31
internal_value=-0.00334514 -0.00251499 -0.000368172 0.000383153 0.00107115 0.000813039 -0.000981089 0.00170588 0.00147349 0.00326087 0.000506607 -0.000562131 0.00076592 -0.00272727 -0.00163213 -0.000486112 0.000416665 -0.000977013 -0.00254098 -0.00262358 0.000434781 -0.00291667 -0.00186193 -0.00270408 -0.000588236 0.00310811 0.000212765 0.000871211 -0.000631069 0.00319672
internal_weight=6073 4004 2105 1579 1293 1273 423 850 811 230 227 169 581 286 193 144 120 87 61 526 46 480 239 196 68 111 470 264 206 61
internal_count=6073 4004 2105 1579 1293 1273 423 850 811 230 227 169 581 286 193 144 120 87 61 526 46 480 239 196 68 111 470 264 206 61
is_linear=0
shrinkage=0.05


Tree=33
num_leaves=31
num_cat=0
split_feature=5 0 7 7 1 2 7 0 1 8 7 0 8 5 0 2 7 2 2 0 1 2 1 1 0 1 0 1 1 0
split_gain=10.9892 1.767 1.78236 1.243 0.810699 1.31769 0.414329 0.422901 0.291292 0.233471 0.250216 0.238821 0.204286 0.172734 0.232244 0.163727 0.153745 0.198038 0.228571 0.132704 0.114286 0.103675 0.611817 0.498661 0.241301 0.168018 0.1875 0.1 0.094609 0.228571
threshold=-0.60355339059327384 13.500000000000002 1.0000000180025095e-35 60.500000000000007 1.5000000000000002 6.0000000000000009 15.500000000000002 9.5000000000000018 5.5000000000000009 131.50000000000003 20.500000000000004 14.500000000000002 98.500000000000014 -0.37940952255126015 15.500000000000002 6.0000000000000009 inf 11.500000000000002 6.0000000000000009 11.500000000000002 1.5000000000000002 11.500000000000002 2.5000000000000004 2.5000000000000004 11.500000000000002 4.5000000000000009 11.500000000000002 4.5000000000000009 3.5000000000000004 11.500000000000002
decision_type=2 2 8 10 2 2 10 2 2 10 10 2 10 2 2 2 8 2 2 2 2 2 2 2 2 2 2 2 2 2
left_child=1 2 -1 4 5 -4 7 -6 21 11 -11 15 -5 14 16 -3 -2 18 -18 -10 -20 22 -9 24 -23 -25 -27 -22 29 -24
right_child=13 9 3 12 6 -7 -8 8 19 10 -12 -13 -14 -15 -16 -17 17 -19 20 -21 27 23 28 25 -26 26 -28 -29 -30 -31
leaf_value=0.0059822070245938918 -0.00092012956488887938 0.00052378563950106899 0.0026485704772421154 -0.00072102799258877566 -0.00023596436266405397 0.0037322806659226063 0.0087189080462951665 -0.0025892722660127475 0.0083867977771306911 -0.00033985862053075472 0.00054151171532846915 -0.00098271558825709765 0.0008127247848986268 -0.00092012956488887938 -0.00092012956488887938 -3.5772596826529058e-06 -0.00089691633091181519 -0.0010310291089561778 -1.3803847711085476e-05 0.0029469876073328939 0.0020865421283132899 0.00025430827099056643 0.0058890872296735314 -0.0021164363044577751 0.0073443411281674227 -0.0013765863448386151 0.0020375254248782173 -0.00037589025899595341 0.0051953557823162912 -0.0011261677215847366
leaf_weight=27 65 30 26 206 144 275 20 63 56 22 20 251 34 3706 262 203 24 91 21 55 36 30 35 95 31 24 24 24 138 35
leaf_count=27 65 30 26 206 144 275 20 63 56 22 20 251 34 3706 262 203 24 91 21 55 36 30 35 95 31 24 24 24 138 35
internal_value=-0.00339453 -0.000173537 0.000804248 0.000538341 0.00127973 0.00347176 0.000399999 0.000205478 0.000802047 -0.00262358 0.00095238 -0.00293389 -0.00270833 -0.00479901 -0.00394838 -0.00178112 -0.00289272 -0.00219388 -0.000714287 0.00310811 0.000555554 0.000263157 0.000904058 -0.000588236 0.00319672 -0.0022028 0.000208332 0.00166667 0.00221154 0.000714285
internal_weight=6073 1844 1318 1291 1051 301 750 730 586 526 42 484 240 4229 523 233 261 196 105 111 81 475 271 204 61 143 48 60 208 70
internal_count=6073 1844 1318 1291 1051 301 750 730 586 526 42 484 240 4229 523 233 261 196 105 111 81 475 271 204 61 143 48 60 208 70
is_linear=0
shrinkage=0.05


Tree=34
num_leaves=31
num_cat=0
split_feature=5 4 7 1 1 8 7 4 1 6 4 7 8 7 4 4 4 5 4 4 6 6 1 6 6 1 5 1 1 1
split_gain=10.6776 1.68964 1.8037 0.962116 0.762127 0.635802 0.550482 0.430503 0.420389 0.277778 0.241468 0.234125 0.233471 0.250216 0.238821 0.211809 0.212189 0.208435 0.27639 0.19024 0.18297 0.137276 0.1194 0.102532 0.108624 0.0856506 0.0818678 0.0796582 0.095805 0.094347
threshold=-0.60355339059327384 -0.25881904510252113 1.0000000180025095e-35 1.5000000000000002 1.0000000180025095e-35 109.50000000000001 23.500000000000004 0.25881904510252091 5.5000000000000009 8.8500000000000032 0.37940952255126054 99.500000000000014 131.50000000000003 20.500000000000004 -0.5 0.60355339059327384 1.0000000180025095e-35 -0.37940952255126015 0.78656609248549325 0.60355339059327384 -5.3999999999999995 3.1500000000000008 2.5000000000000004 4.8500000000000005 6.5500000000000007 3.5000000000000004 -0.98296291314453399 1.5000000000000002 3.5000000000000004 1.0000000180025095e-35
decision_type=2 2 8 2 2 8 10 2 2 10 2 8 10 10 2 2 2 2 2 2 10 10 2 10 10 2 2 2 2 2
left_child=1 12 -3 4 6 9 26 -6 11 23 -9 -7 14 -14 -1 16 -10 18 -2 25 -20 27 -21 -5 -25 -13 -4 29 -29 -16
right_child=17 2 3 5 7 8 -8 10 15 -11 -12 19 13 -15 21 -17 -18 -19 20 22 -22 -23 -24 24 -26 -27 -28 28 -30 -31
leaf_value=-0.0009335798088442428 -0.00087412308664443531 0.0056830966733641998 0.0022299485735246833 -0.0019483756626891273 0.0032773371104178497 0.0081926487763216514 -0.001843451691879939 0.0060639438664857491 -0.00064674270116163554 0.010257293627236517 0.0028600148402149199 -0.00019142863344008486 -0.00032286568950421721 0.00051443612956204551 -2.6750502601431693e-06 -0.0024089357155585999 0.0063940806675384931 -0.00087412308664443531 -0.00088202492985483714 0.0016901301755104835 -0.00087412308664443531 -0.0031067131951389676 -0.00022416614453085184 -1.7784501970725648e-05 -0.00073713239907073527 0.002343165845030022 0.0027535999968040415 -3.3983966985201566e-06 -8.2106271256238855e-05 0.0012775966713445012
leaf_weight=251 262 27 27 81 72 20 38 36 30 20 73 245 22 20 30 27 86 3706 196 27 65 29 86 31 48 231 113 63 84 27
leaf_count=251 262 27 27 81 72 20 38 36 30 20 73 245 22 20 30 27 86 3706 196 27 65 29 86 31 48 231 113 63 84 27
