tree
version=v4
num_class=1
num_tree_per_iteration=1
label_index=0
max_feature_idx=10
objective=quantile
feature_names=hour day_of_week month is_weekend hour_sin hour_cos temp_c cloud_cover_pct shortwave_radiation_w_m2 vacation_mode_flag alarm_armed_flag
feature_infos=[0:23] [0:6] [1:12] [0:1] [-1:1] [-1:1] [-6.4000000000000004:13.4] [0:100] [0:282] none none
tree_sizes=2702 2599 2653 2721 2713 2792 2833 2829 2814 2835 2865 2854 2857 2895 2888 2853 2862 2902 2906 2884 2846 2855 2827 2844 2872 2887 2860 2886 2908 2877 2874 2892 2858 2840 2890 2909 2909 2898 2912 2883 2892 2906 2920 2915 2904 2901 2891 2883 2881 2892 2874 2904 2910 2890 2901 2910 2894 2848 2897 2909 2875 2820 2861 2868 2882 2926 2882 2901 2897 2877 2869 2882 2877 2870 2876 2854 2888 2895 2836 2868 2860 2892 2917 2876 2872 2890 2884 2878 2898 2888 2888 2917 2873 2900 2892 2889 2916 2886 2884 2899 2889 2880 2877 2884 2895 2890 2893 2800 2880 2893 2919 2900 2896 2910 2937 2892 2911 2923 2922 2897 2866 2875 2919 2895 2868 2922 2871 2876 2861 2869 2867 2918 2862 2904 2906 2878 2880 2887 2900 2849 2886 2851 2903 2913 2874 2879 2880 2880 2936 2903 2921 2846 2904 2890 2848 2914 2858 2866 2896 2915 2846 2888 2904 2919 2895 2857 2891 2903 2882 2917 2881 2911 2874 2868 2908 2881 2916 2900 2921 2856 2898 2894 2876 2896 2882 2895 2888 2897 2853 2856 2911 2904 2835 2894 2864 2893 2889 2917 2910 2875

Tree=0
num_leaves=31
num_cat=0
split_feature=6 2 5 6 1 2 6 8 0 5 2 1 6 6 6 1 0 5 0 0 6 6 2 6 1 1 6 2 1 1
split_gain=56.7008 35.9395 7.51359 7.16777 4.33677 4.95324 13.3739 3.10182 2.45443 1.8152 1.5148 3.05443 1.80375 1.2673 1.2078 1.13302 1.0583 1.05311 1.19765 0.935502 1.3246 1.97138 1.67121 1.5579 1.22042 0.957041 0.90486 3.90792 0.875447 0.852723
threshold=3.4500000000000006 6.0000000000000009 1.0000000180025095e-35 1.4500000000000002 4.5000000000000009 11.500000000000002 3.3500000000000001 26.500000000000004 2.5000000000000004 0.78656609248549303 11.500000000000002 1.5000000000000002 5.5500000000000007 8.0500000000000025 2.6500000000000008 1.0000000180025095e-35 7.5000000000000009 -0.70710678118654757 8.5000000000000018 18.500000000000004 0.8500000000000002 -0.74999999999999989 11.500000000000002 -3.7499999999999996 3.5000000000000004 4.5000000000000009 -1.8499999999999999 11.500000000000002 1.5000000000000002 1.5000000000000002
decision_type=10 2 2 10 2 2 8 8 2 2 2 2 10 10 10 2 2 2 2 2 10 10 2 10 2 2 10 2 2 2
left_child=1 3 4 9 5 7 -7 -3 -4 29 11 12 -2 28 19 -9 -8 -6 -19 26 21 22 -21 24 -24 -26 -10 -28 -12 -1
right_child=10 2 8 -5 17 6 16 15 14 -11 13 -13 -14 -15 -16 -17 -18 18 -20 20 -22 -23 23 -25 25 -27 27 -29 -30 -31
leaf_value=0.30363751202821732 0.30500001162290574 0.30500001162290574 0.30000001192092896 0.30000001192092896 0.30000001192092896 0.2950000114738941 0.30000001192092896 0.30000001192092896 0.30000001192092896 0.30500001162290574 0.2950000114738941 0.30000001192092896 0.30000001192092896 0.2950000114738941 0.30500001162290574 0.30000001192092896 0.30500001162290574 0.30000001192092896 0.30500001162290574 0.30000001192092896 0.2950000114738941 0.30500001162290574 0.30000001192092896 0.2950000114738941 0.30000001192092896 0.30000001192092896 0.30500001162290574 0.2950000114738941 0.2950000114738941 0.31000001132488253
leaf_weight=47 22 42 576 33 307 67 69 117 674 60 140 303 77 101 28 588 753 106 211 419 29 20 284 20 60 111 37 20 322 233
leaf_count=47 22 42 576 33 307 67 69 117 674 60 140 303 77 101 28 588 753 106 211 419 29 20 284 20 60 111 37 20 322 233
internal_value=0.295303 0.29748 0.296254 0.312399 0.298296 0.296944 0.299466 0.293942 0.294227 0.314559 0.284223 0.286567 0.294192 0.282549 0.293273 0.293156 0.301217 0.301843 0.303864 0.2931 0.294141 0.294475 0.294128 0.296158 0.296758 0.293421 0.291758 0.297807 0.283658 0.31625
internal_weight=5876 4911 4538 373 2260 1636 889 747 2278 340 965 402 99 563 1702 705 822 624 317 1674 943 914 894 475 455 171 731 57 462 280
internal_count=5876 4911 4538 373 2260 1636 889 747 2278 340 965 402 99 563 1702 705 822 624 317 1674 943 914 894 475 455 171 731 57 462 280
is_linear=0
shrinkage=1


Tree=1
num_leaves=31
num_cat=0
split_feature=2 6 6 0 2 6 7 0 0 6 0 1 0 2 6 8 0 6 2 0 6 1 1 1 7 1 1 0 1 1
split_gain=35.1619 18.0792 10.8768 4.31988 4.67772 10.8831 9.45208 3.44739 3.23167 3.0922 2.78893 2.65597 2.00227 1.95876 1.97449 1.94664 2.84512 1.81702 4.40196 1.52135 1.36048 1.29006 1.20463 1.55656 1.11504 1.11468 1.07395 0.899215 0.825656 0.933184
threshold=6.0000000000000009 5.4500000000000011 0.25000000000000006 7.5000000000000009 11.500000000000002 4.0500000000000007 83.500000000000014 18.500000000000004 2.5000000000000004 5.1500000000000012 10.500000000000002 5.5000000000000009 13.500000000000002 11.500000000000002 8.2500000000000018 29.500000000000004 13.500000000000002 3.4500000000000006 11.500000000000002 7.5000000000000009 -0.24999999999999997 1.5000000000000002 3.5000000000000004 4.5000000000000009 93.500000000000014 4.5000000000000009 1.5000000000000002 20.500000000000004 1.5000000000000002 3.5000000000000004
decision_type=2 10 10 2 2 8 8 2 2 8 2 2 2 2 10 10 2 8 2 2 10 2 2 2 10 2 2 2 2 2
left_child=2 3 -1 8 5 15 20 9 -2 28 -4 24 -13 21 19 -5 -17 18 25 -15 -6 -3 -9 -24 -7 -10 -11 -14 -8 -30
right_child=1 13 10 4 6 11 7 22 17 26 -12 12 27 14 -16 16 -18 -19 -20 -21 -22 -23 23 -25 -26 -27 -28 -29 29 -31
leaf_value=0.0083562488853931426 0 0 0 0.0047499997168779368 -0.0047500004246830933 0 -0.0047500004246830933 0 0.0047499997168779368 0.0024999998696148399 0.00045624960213899588 0.0049999997019767768 0 -0.0047500004246830933 -0.0047500004246830933 0.0049999997019767768 0 0 -0.0047500004246830933 -0.0047500004246830933 -0.0047500004246830933 0 0 0 -0.0026250002160668378 0.0098749994114041336 0.0047499997168779368 0 0.00025000002235174291 -0.0047500004246830933
leaf_weight=328 609 77 23 112 30 1108 31 322 36 330 32 73 86 79 89 33 27 899 37 161 71 256 65 121 22 20 699 39 22 39
leaf_count=328 609 77 23 112 30 1108 31 322 36 330 32 73 86 79 89 33 27 899 37 161 71 256 65 121 22 20 699 39 22 39
internal_value=-0.00361641 -0.00463772 0.0110313 -0.00357586 -0.00252322 -0.00456667 -0.000751445 0.000168815 -0.00569956 0.00171722 -0.00954545 -0.0060994 -0.000757576 -0.0123867 -0.00965046 0.00726744 0 -0.00745968 -0.000806452 -0.00729167 -0.0155941 -0.0150901 -0.00324803 -0.00645161 -0.0070354 0.00803571 0.00250243 -0.0046 -0.00706522 -0.00368852
internal_weight=5876 5493 383 4831 3230 1500 1730 1629 1601 1121 55 1328 198 662 329 172 60 992 93 240 101 333 508 186 1130 56 1029 125 92 61
internal_count=5876 5493 383 4831 3230 1500 1730 1629 1601 1121 55 1328 198 662 329 172 60 992 93 240 101 333 508 186 1130 56 1029 125 92 61
is_linear=0
shrinkage=0.05


Tree=2
num_leaves=31
num_cat=0
split_feature=6 5 4 6 0 7 1 6 1 6 5 6 6 1 6 6 7 1 6 4 7 5 1 0 6 0 6 0 4 7
split_gain=23.0431 10.8004 3.27233 2.40135 2.71706 2.52789 2.00792 2.00673 2.74707 2.35401 1.8569 1.91235 1.89565 1.57559 1.18117 1.06035 1.05332 1.0477 1.72219 1.36888 1.05541 1.01636 0.98834 2.03306 0.963331 1.03537 0.901038 0.849191 0.98931 0.785714
threshold=5.4500000000000011 1.0000000180025095e-35 0.78656609248549325 1.0500000000000003 17.500000000000004 90.500000000000014 2.5000000000000004 2.0500000000000003 4.5000000000000009 -0.14999999999999999 -0.5 6.7500000000000009 8.8500000000000032 3.5000000000000004 0.55000000000000016 3.4500000000000006 80.500000000000014 1.5000000000000002 4.0500000000000007 -0.78656609248549292 76.500000000000014 -0.78656609248549325 3.5000000000000004 6.5000000000000009 -0.44999999999999996 7.5000000000000009 3.1500000000000008 21.500000000000004 0.60355339059327384 76.500000000000014
decision_type=10 2 2 10 2 10 2 8 2 10 2 10 10 2 10 8 8 2 8 2 10 2 2 2 10 2 10 2 2 10
left_child=1 3 7 5 21 6 24 8 9 -3 12 22 29 17 -11 -4 -15 18 -9 -19 27 -5 23 -12 25 -1 -18 28 -20 -2
right_child=10 2 15 4 -6 -7 -8 13 -10 14 11 -13 -14 16 -16 -17 26 19 20 -21 -22 -23 -24 -25 -26 -27 -28 -29 -30 -31
leaf_value=0 -0.0045125004034489383 -0.00023749998584389755 -0.00024374998547136846 -2.2812480106948475e-05 0.0054874997455626739 0.0045124997310340394 0.0045124997310340394 0.00036875003296882037 0.019512498836964369 0.0054874997455626739 -0.0045125004034489383 -0.0045125004034489383 -0.0022562502017244692 -0.0050000004470348363 0 0 0 0 0 0 -0.0047500004246830933 -0.0045125004034489383 -0.0045125004034489383 0.00048750004358589784 -0.0045125004034489383 0 0.00025000002235174291 0 0 0
leaf_weight=80 36 55 60 110 25 51 1303 22 22 29 30 280 78 27 35 554 661 129 325 420 22 136 80 26 20 925 35 115 53 132
leaf_count=80 36 55 60 110 25 51 1303 22 22 29 30 280 78 27 35 554 661 129 325 420 22 136 80 26 20 925 35 115 53 132
internal_value=-0.00359939 -0.0024837 -0.00479719 -0.000245283 -0.0047048 0.000262715 2.14777e-05 -0.00379487 0.00195035 -0.00105042 -0.0123867 -0.0144231 -0.00894309 -0.00424268 0.00546875 -0.00798046 -0.00605118 -0.00303867 -0.00460894 -0.00150273 -0.00519417 -0.00630081 -0.00955882 -0.00446429 -0.00163415 -0.00141791 -0.00567529 -0.00471602 -0.00357143 -0.00595238
internal_weight=5876 5214 2564 2650 271 2379 2328 1950 141 119 662 416 246 1809 64 614 723 1086 537 549 515 246 136 56 1025 1005 696 493 378 168
internal_count=5876 5214 2564 2650 271 2379 2328 1950 141 119 662 416 246 1809 64 614 723 1086 537 549 515 246 136 56 1025 1005 696 493 378 168
is_linear=0
shrinkage=0.05


Tree=3
num_leaves=31
num_cat=0
split_feature=2 5 6 2 4 6 1 6 5 0 6 7 1 7 7 6 2 7 6 0 2 7 6 1 6 6 5 1 1 1
split_gain=33.0185 7.94995 4.66246 6.40123 3.65574 3.50905 3.13135 1.72492 1.55225 1.51256 1.51247 2.96105 1.45689 1.72833 1.77778 1.42274 1.79264 2.08019 1.7431 1.704 1.26663 10.416 10.1219 1.52898 1.35241 1.18762 1.38114 1.02906 0.954351 0.911148
threshold=6.0000000000000009 1.0000000180025095e-35 3.2500000000000004 11.500000000000002 0.60355339059327384 2.0500000000000003 4.5000000000000009 1.2500000000000002 0.91597561503675351 7.5000000000000009 3.7500000000000004 62.500000000000007 3.5000000000000004 75.500000000000014 27.500000000000004 9.9500000000000011 11.500000000000002 99.500000000000014 6.9500000000000011 1.5000000000000002 11.500000000000002 1.5000000000000002 -0.34999999999999992 3.5000000000000004 3.5500000000000003 8.1500000000000004 -0.9159756150367534 1.5000000000000002 1.0000000180025095e-35 4.5000000000000009
decision_type=2 2 8 2 2 10 2 10 2 2 10 10 2 8 10 8 2 10 10 2 2 10 10 2 10 10 2 2 2 2
left_child=5 6 3 27 12 8 9 -5 -1 -2 11 -8 13 14 -4 18 17 19 -15 -17 21 28 -22 -23 -24 26 -26 -3 -11 -6
right_child=1 2 4 7 29 -7 10 -9 -10 20 -12 -13 -14 15 -16 16 -18 -19 -20 -21 22 23 24 -25 25 -27 -28 -29 -30 -31
leaf_value=0.0065065624559298152 -0.00022562498655170072 1.250003650784537e-05 -0.0043996878933627156 -0.0045003129041753685 -0.004286875383276492 0 0.004286874744482339 -0.0050003129116259516 0.0043321872726082792 0 -0.00012442968054674625 0.014536875623650851 0 -0.004286875383276492 0.00022562502017244579 0 0 0.00022562502017244579 -0.004286875383276492 -0.0050000004470348363 0.004286874744482339 0.00022562502017244579 -0.0043991175813600418 0 -0.0045113597794435916 -0.0043996878933627139 -0.004286875383276492 0.0045246872303076084 -0.00022562498655170072 0
leaf_weight=315 161 36 20 64 586 28 607 23 40 99 136 25 703 70 25 90 454 20 33 284 774 156 44 36 37 50 97 95 535 233
leaf_count=315 161 36 20 64 586 28 607 23 40 99 136 25 703 70 25 90 454 20 33 284 774 156 44 36 37 50 97 95 535 233
internal_value=-0.00251021 -0.00349991 -0.00540936 0.0016055 -0.00601668 0.0116841 -0.00160501 -0.00890805 0.0130282 -0.00265209 0.00110677 0.00213608 -0.00469394 -0.00346386 0.00611111 -0.00391693 -0.00324292 -0.00571066 -0.00946602 -0.0065508 -0.00224289 -0.00369249 -0.0010479 0.00651042 -0.010307 -0.00842391 -0.00597015 0.00858779 -0.00678233 -0.00876068
internal_weight=5876 5493 2736 218 2518 383 2757 87 355 1989 768 632 1699 996 45 951 848 394 103 374 1828 826 1002 192 228 184 134 131 634 819
internal_count=5876 5493 2736 218 2518 383 2757 87 355 1989 768 632 1699 996 45 951 848 394 103 374 1828 826 1002 192 228 184 134 131 634 819
is_linear=0
shrinkage=0.05


Tree=4
num_leaves=31
num_cat=0
split_feature=2 6 6 2 0 1 4 6 2 8 8 0 1 0 1 0 4 6 1 4 8 1 0 0 4 1 1 1 0 0
split_gain=18.4513 7.03121 3.2281 10.5828 3.51247 2.6054 2.39787 3.11769 2.38179 9.53398 8.93683 3.25823 2.21408 2.39426 2.10984 2.10758 2.02815 1.73933 1.67619 1.55862 1.46677 1.37116 5.70627 2.42295 0.946142 1.34829 0.935564 1.51197 0.943933 1.00475
threshold=6.0000000000000009 0.25000000000000006 3.4500000000000006 11.500000000000002 18.500000000000004 3.5000000000000004 0.91597561503675362 8.2500000000000018 11.500000000000002 67.500000000000014 167.00000000000003 1.5000000000000002 2.5000000000000004 21.500000000000004 3.5000000000000004 2.5000000000000004 0.78656609248549325 2.0500000000000003 4.5000000000000009 -0.5 7.5000000000000009 4.5000000000000009 8.5000000000000018 7.5000000000000009 -0.70710678118654735 3.5000000000000004 5.5000000000000009 2.5000000000000004 6.5000000000000009 3.5000000000000004
decision_type=2 10 10 2 2 2 2 10 2 8 8 2 2 2 2 2 2 10 2 2 10 2 2 2 2 2 2 2 2 2
left_child=1 -1 4 12 8 -6 7 19 9 14 15 18 16 -14 17 -10 -4 -2 -12 24 -3 23 -23 -13 25 -5 27 28 29 -11
right_child=2 20 3 6 5 -7 -8 -9 10 26 11 21 13 -15 -16 -17 -18 -19 -20 -21 -22 22 -24 -25 -26 -27 -28 -29 -30 -31
leaf_value=0.0075318583585601284 0.00021434376916382449 -0.00020642186307348321 0.00021434376916382449 0.00030246881429571719 0 0 -0.0045130941551830622 -0.0040725316141126677 0.00023157814393285627 0 0 0.00021434376916382449 6.2214840273383535e-06 -0.00477437542686239 0.0096487728791986582 -0.0042756097589479762 -0.0045600316576985657 0.0047737653404613944 0 -0.0041675159976049319 0.0046529997230786825 0 0.00432253099235706 0.0040725310072582208 0.0006212188143888478 -0.004280653899249154 0.0020300155040016395 -0.00021434373722411528 0 -0.004785656677871012
leaf_weight=328 77 34 123 52 578 380 67 85 22 130 137 404 221 20 66 107 28 21 48 264 21 167 240 753 38 57 232 694 397 85
leaf_count=328 77 34 123 52 578 380 67 85 22 130 137 404 221 20 66 107 28 21 48 264 21 167 240 753 38 57 232 694 397 85
internal_value=-0.000884956 0.00972585 -0.0016248 -0.00426702 -0.00106875 -0.00375783 -0.00865897 -0.00745968 -0.000349162 -0.00170388 0.000878594 0.00181532 0.00204082 -0.00093361 0.0097561 -0.0118217 0.00678808 0.00510204 -0.00445946 -0.00565693 -0.00681818 0.00255754 6.14251e-05 0.00343561 -0.00153061 -0.00389908 -0.00292588 -0.00344564 -0.00163399 -0.00430233
internal_weight=5876 383 5493 955 4538 958 563 496 3580 1702 1878 1749 392 241 164 129 151 98 185 411 55 1564 407 1157 147 109 1538 1306 612 215
internal_count=5876 383 5493 955 4538 958 563 496 3580 1702 1878 1749 392 241 164 129 151 98 185 411 55 1564 407 1157 147 109 1538 1306 612 215
is_linear=0
shrinkage=0.05


Tree=5
num_leaves=31
num_cat=0
split_feature=2 8 8 2 2 5 7 7 7 4 4 1 1 5 5 5 1 4 1 4 1 1 1 5 7 1 5 4 4 5
split_gain=16.6148 2.35027 2.10153 21.0317 3.30239 3.92942 3.80446 3.50276 2.84632 2.42622 2.25554 2.21963 1.64479 1.61873 1.18903 2.4487 1.15967 2.47065 2.0477 1.12011 1.07671 1.00379 1.00331 0.988538 1.40604 0.892101 4.05347 2.63809 1.20698 1.09908
threshold=6.0000000000000009 5.5000000000000009 91.500000000000014 11.500000000000002 11.500000000000002 0.78656609248549303 57.500000000000007 45.500000000000007 85.000000000000014 0.91597561503675362 -0.70710678118654735 4.5000000000000009 1.5000000000000002 0.98296291314453421 -0.9159756150367534 -0.70710678118654757 2.5000000000000004 0.12940952255126045 4.5000000000000009 -0.98296291314453399 4.5000000000000009 2.5000000000000004 1.0000000180025095e-35 0.37940952255126048 78.500000000000014 3.5000000000000004 1.0000000180025095e-35 0.60355339059327384 -0.70710678118654735 -0.37940952255126015
decision_type=2 8 8 2 2 2 10 8 10 2 2 2 2 2 2 2 2 2 2 2 2 2 2 2 10 2 2 2 2 2
left_child=1 -1 3 8 6 7 13 -6 12 14 -10 22 -2 16 -5 21 -4 -18 -19 -17 -14 -16 -7 24 -21 27 28 -9 -27 -29
right_child=2 -3 4 9 5 11 -8 25 10 -11 -12 -13 20 -15 15 19 17 18 -20 23 -22 -23 -24 -25 -26 26 -28 29 -30 -31
leaf_value=-5.1483489712789159e-07 0.0050118747366592305 0.0065921409622100163 0 -0.0040774159905911629 -0.0040722780993689067 0 0.00011976061475544725 0.0038689044568953087 0.0002196733204667678 -0.0042874390567989307 -3.4367705836771401e-06 0 0.00020362658070563201 0.0024546080568189511 -0.0039201163661106838 0.00016234536240505859 -0.00042925153691461272 -0.00020362655036290924 1.0717186861206041e-05 -0.004087655054827455 0.004536265391870401 0.00044561140169785407 0 -0.0040728426883140352 -0.003868905033407033 0.0038689044568953087 0 0.0038689044568953087 0.0038689044568953087 0.00020362658070563201
leaf_weight=56 47 327 751 65 25 74 46 705 106 90 284 114 66 80 28 31 598 266 264 46 50 39 270 273 107 108 238 112 325 285
leaf_count=56 47 327 751 65 25 74 46 705 106 90 284 114 66 80 28 31 598 266 264 46 50 39 270 273 107 108 238 112 325 285
internal_value=-0.000604152 0.00946475 -0.00130621 -0.003125 -0.000780333 0.000531915 -0.00225686 0.00158509 0.00411392 -0.00902062 0.00179487 -0.00360262 0.00966258 -0.00259061 -0.00785229 -0.00706107 -0.00288717 -0.00390071 -0.00141509 -0.0083698 0.00646552 0.00186567 -0.00159884 -0.00903756 -0.0122549 0.00184715 0.000409836 0.00272232 0.00329099 0.00598237
internal_weight=5876 383 5493 1232 4261 2256 2005 1798 553 679 390 458 163 1959 589 524 1879 1128 530 457 116 67 344 426 153 1773 671 1102 433 397
internal_count=5876 383 5493 1232 4261 2256 2005 1798 553 679 390 458 163 1959 589 524 1879 1128 530 457 116 67 344 426 153 1773 671 1102 433 397
is_linear=0
shrinkage=0.05


Tree=6
num_leaves=31
num_cat=0
split_feature=2 6 2 6 4 6 5 7 7 4 5 4 6 6 8 2 7 6 2 6 6 4 6 7 7 7 0 2 2 7
split_gain=15.1591 5.07706 8.96069 3.85806 2.44608 3.19021 2.2294 1.51004 1.54176 1.41994 1.19948 1.07652 1.02399 0.995687 0.922424 1.61725 0.980122 1.87967 1.83171 1.22608 0.919746 0.87259 0.792384 1.35004 1.05698 0.784897 0.682926 1.24992 1.23208 7.11144
threshold=6.0000000000000009 3.4500000000000006 11.500000000000002 0.25000000000000006 0.91597561503675362 8.2500000000000018 0.25881904510252057 76.500000000000014 97.500000000000014 -0.5 0.78656609248549303 -0.70710678118654735 4.5500000000000007 4.3500000000000005 69.500000000000014 11.500000000000002 97.500000000000014 0.65000000000000002 11.500000000000002 1.9500000000000002 2.4500000000000006 0.78656609248549325 8.6500000000000004 97.500000000000014 54.500000000000007 80.500000000000014 21.500000000000004 11.500000000000002 11.500000000000002 35.500000000000007
decision_type=2 10 2 10 2 10 2 10 10 2 2 2 10 10 10 2 10 10 2 10 10 2 10 10 10 10 2 2 2 8
left_child=3 14 6 10 5 7 13 -4 -9 11 -1 12 -10 -3 16 -16 25 -18 19 -19 -5 -8 23 -15 -24 26 28 -28 29 -2
right_child=1 2 4 20 -6 -7 21 8 9 -11 -12 -13 -14 22 15 -17 17 18 -20 -21 -22 -23 24 -25 -26 -27 27 -29 -30 -31
leaf_value=0.007675033610115828 0.013673142819224349 0.004855070594474882 -0.0038622384515453246 -0.00031384066389261722 -0.0040730674945839594 -0.00377220611845939 -4.6967156127328269e-05 0.00079904031874791922 0.00040422811663654858 -0.0038746858150669528 0.0034093779429393597 0.00066600503698134583 -0.0038731759526163452 0.00022548578450026226 9.9107555711389081e-05 -0.0038740095074597473 0.0041329774298809463 -0.00021356248647835254 -0.0043287994682590092 0.0044936090660893909 1.0346834898528058e-05 -0.004331858236284453 -0.002308745608531271 -2.6062459347761525e-06 9.0985909148594282e-05 -0.003891723199920559 2.1462576845729388e-05 0 0.00019344525167035165 -0.00018216397351717984
leaf_weight=272 42 20 85 31 67 85 126 26 25 197 56 27 51 23 32 21 78 41 20 25 24 29 22 110 62 28 177 189 2103 1782
leaf_count=272 42 20 85 31 67 85 126 26 25 197 56 27 51 23 32 21 78 41 20 25 24 29 22 110 62 28 177 189 2103 1782
internal_value=-0.000544588 -0.00121518 -0.0045288 0.00907311 -0.00857016 -0.00735887 0.00127551 -0.00553528 -0.00398773 -0.005 0.011128 -0.000242718 -0.00328947 0.00432489 -0.000517849 -0.00707547 -0.000440357 0.00335366 -0.00174419 0.00227273 -0.00318182 -0.0033871 0.00334101 0.00093985 0.00714286 -0.000584355 -0.000529932 -0.00259563 -0.000337408 -0.00128838
internal_weight=5876 5493 955 383 563 496 392 411 326 300 328 103 76 237 4538 53 4485 164 86 66 55 155 217 133 84 4321 4293 366 3927 1824
internal_count=5876 5493 955 383 563 496 392 411 326 300 328 103 76 237 4538 53 4485 164 86 66 55 155 217 133 84 4321 4293 366 3927 1824
is_linear=0
shrinkage=0.05


Tree=7
num_leaves=31
num_cat=0
split_feature=2 7 2 4 7 1 4 7 1 0 1 7 5 5 1 4 1 7 0 7 7 2 5 1 0 1 1 5 5 5
split_gain=13.7533 3.72246 21.417 2.35962 1.88618 1.85201 1.7068 1.49442 1.82546 1.31376 1.18958 1.74177 1.63494 1.1226 0.925897 1.90909 1.59164 1.57031 0.982704 0.928845 0.886435 0.873348 3.78464 2.21963 1.86282 1.33389 2.83409 2.11944 1.78954 1.72447
threshold=6.0000000000000009 inf 11.500000000000002 0.91597561503675362 inf 3.5000000000000004 -0.98296291314453399 37.500000000000007 4.5000000000000009 22.500000000000004 4.5000000000000009 54.500000000000007 -0.70710678118654757 0.78656609248549303 4.5000000000000009 1.0000000180025095e-35 2.5000000000000004 38.500000000000007 5.5000000000000009 98.500000000000014 2.5000000000000004 11.500000000000002 0.78656609248549303 4.5000000000000009 18.500000000000004 4.5000000000000009 2.5000000000000004 1.0000000180025095e-35 -0.70710678118654757 1.0000000180025095e-35
decision_type=2 8 2 2 8 2 2 10 2 2 2 10 2 2 2 2 2 10 2 10 10 2 2 2 2 2 2 2 2 2
left_child=4 2 6 7 5 -1 -2 8 20 10 11 -9 -12 -6 16 -16 17 -8 -19 -17 -4 25 24 -24 -23 26 29 -28 -27 -3
right_child=1 21 3 -5 13 -7 14 9 -10 -11 12 -13 -14 -15 15 19 -18 18 -20 -21 -22 22 23 -25 -26 28 27 -29 -30 -31
leaf_value=0.0014537825793006637 0.00034185114668994768 9.1081986758584372e-06 -0.0035571886992102398 -0.0038694141198547614 0.0074412822335937247 -0.00028710175542976394 0.0047229626280751898 0.00041928160913650152 -0.0043646086707306219 -0.0037167794114151111 0.0007842012532438547 -0.0035927410770780336 -0.0036811231582271954 0.0032389090457923906 8.4903418392512373e-07 0.0052278338442834056 -0.00019840060063033572 -4.4618798320961162e-05 8.6436613691165401e-05 6.2125606518942391e-06 -0.0034730250204568353 0.00018377298908683339 0 -9.6722625835182766e-06 -9.6722625835182766e-06 -0.00039868076139302491 -0.0001843370241689041 -0.0047194296491615056 2.038944800344389e-05 -0.0045372656453016025
leaf_weight=69 27 384 34 90 239 25 36 25 31 23 38 334 91 50 88 41 182 53 159 54 66 1470 344 114 275 144 287 285 429 389
leaf_count=69 27 384 34 90 239 25 36 25 31 23 38 334 91 50 88 41 182 53 159 54 66 1470 344 114 275 144 287 285 429 389
internal_value=-0.000348877 -0.000987621 -0.00324344 -0.0090847 0.00881201 0.00265957 0.0034375 -0.00802181 -0.0127863 -0.00680039 -0.00625 -0.00772981 -0.00213178 0.0108131 0.0028956 0.00587432 0.00162791 0.00423387 0.00259434 0.0107895 -0.0095 -0.000236593 0.000442578 -0.00360262 0.0015043 -0.00101668 -0.00187732 -0.00454545 0.00100349 9.70246e-05
internal_weight=5876 5493 1372 732 383 94 640 642 131 511 488 359 129 289 613 183 430 248 212 95 100 4121 2203 458 1745 1918 1345 572 573 773
internal_count=5876 5493 1372 732 383 94 640 642 131 511 488 359 129 289 613 183 430 248 212 95 100 4121 2203 458 1745 1918 1345 572 573 773
is_linear=0
shrinkage=0.05


Tree=8
num_leaves=31
num_cat=0
split_feature=2 6 2 6 4 6 0 1 0 4 8 1 8 0 4 1 1 0 8 6 6 2 4 1 0 6 8 0 6 6
split_gain=9.95994 6.67912 8.50237 5.27132 2.44608 3.19021 2.3498 1.88268 1.48412 1.46807 1.46677 1.4273 1.06385 2.39127 0.946142 1.34829 0.944516 0.867699 0.75938 0.906182 0.754034 4.61008 1.89244 1.53712 0.778371 0.727197 0.557273 1.33804 0.768182 0.554979
threshold=6.0000000000000009 3.4500000000000006 11.500000000000002 0.25000000000000006 0.91597561503675362 8.2500000000000018 7.5000000000000009 2.5000000000000004 21.500000000000004 -0.5 7.5000000000000009 2.5000000000000004 69.500000000000014 13.500000000000002 -0.70710678118654735 3.5000000000000004 1.5000000000000002 1.5000000000000002 145.50000000000003 8.5500000000000025 0.65000000000000002 11.500000000000002 0.60355339059327384 4.5000000000000009 15.500000000000002 4.1500000000000012 61.500000000000007 11.500000000000002 6.8500000000000005 5.3500000000000005
decision_type=2 10 2 10 2 10 2 2 2 2 10 2 10 2 2 2 2 2 10 10 8 2 2 2 2 10 10 2 10 10
left_child=3 12 6 11 5 9 17 -8 18 14 -5 -1 20 -14 15 -4 -11 -3 19 -9 21 23 24 -2 -23 -18 27 28 -27 -17
right_child=1 2 4 10 -6 -7 7 8 -10 16 -12 -13 13 -15 -16 29 25 -19 -20 -21 -22 22 -24 -25 -26 26 -28 -29 -30 -31
leaf_value=0.0014629682759547931 0.0040904278613249833 0.00019802454939276683 0.00042878344842996603 -0.0001792093917883278 -0.0036759434138620237 -0.0034039587586825182 0.00016629443962480896 5.9019326192982785e-06 -0.0045331789108929155 -0.0032973392179548203 0.0041207898097803675 0.0070692181219140365 0.00024060297982887447 -0.003379481050636653 0.00069416691321015362 -0.0034644720963397033 -0.003505785956358537 -0.0042233461680395963 -0.00073797272187094013 0.00021639616629903492 0 0.00039831752867967586 -0.0040141198267991344 0.017387901243267407 -0.0036996163932693296 -0.0032871423352094698 0.00049399608677757202 -0.0035309404408443547 -0.0033993268442072625 -0.0034959047024136162
leaf_weight=118 61 29 52 34 67 85 105 103 20 79 21 210 29 24 38 20 23 88 26 21 4308 23 30 27 36 90 28 24 20 37
leaf_count=118 61 29 52 34 67 85 105 103 20 79 21 210 29 24 38 20 23 88 26 21 4308 23 30 27 36 90 28 24 20 37
internal_value=-0.000289312 -0.000832878 -0.00463351 0.00750653 -0.00857016 -0.00735887 0.00102041 0.00354545 0.000294118 -0.00553528 -0.00681818 0.00990854 -3.30542e-05 -0.00707547 -0.00153061 -0.00389908 -0.00776515 -0.00491453 0.002 0.00362903 5.01672e-05 0.00324859 -0.00477528 0.0113636 0.000423729 -0.00581081 -0.00462963 -0.00597015 -0.00363636 -0.00921053
internal_weight=5876 5493 955 383 563 496 392 275 170 411 55 328 4538 53 147 109 264 117 150 124 4485 177 89 88 59 185 162 134 110 57
internal_count=5876 5493 955 383 563 496 392 275 170 411 55 328 4538 53 147 109 264 117 150 124 4485 177 89 88 59 185 162 134 110 57
is_linear=0
shrinkage=0.05


Tree=9
num_leaves=31
num_cat=0
split_feature=2 8 2 8 4 0 4 1 7 0 7 4 2 8 5 5 5 7 1 7 2 5 0 5 1 1 5 1 5 5
split_gain=9.19919 4.02848 18.8807 3.59743 2.52059 1.84502 1.68149 1.55341 1.4852 1.43434 1.3207 2.9301 1.24797 1.20149 1.18656 2.05488 1.05129 1.065 1.00379 0.802888 0.80578 2.16774 1.98332 1.66376 1.44038 3.1895 2.53989 2.00379 1.5156 1.28308
threshold=6.0000000000000009 91.500000000000014 11.500000000000002 5.5000000000000009 0.91597561503675362 17.500000000000004 -0.98296291314453399 1.5000000000000002 41.500000000000007 22.500000000000004 38.500000000000007 0.12940952255126045 11.500000000000002 149.50000000000003 -0.9159756150367534 -0.70710678118654757 -0.12940952255126037 78.500000000000014 2.5000000000000004 97.500000000000014 11.500000000000002 0.91597561503675351 18.500000000000004 0.91597561503675351 4.5000000000000009 2.5000000000000004 1.0000000180025095e-35 1.0000000180025095e-35 -0.70710678118654757 -0.5
decision_type=2 8 2 8 2 2 2 2 8 2 10 2 2 10 2 2 2 10 2 8 2 2 2 2 2 2 2 2 2 2
left_child=3 2 6 5 9 -1 -2 -5 12 14 11 -8 -3 19 -4 18 17 -17 -16 -10 23 22 -22 24 25 26 27 -21 -26 -27
right_child=1 8 4 7 -6 -7 10 -9 13 -11 -12 -13 -14 -15 15 16 -18 -19 -20 20 21 -23 -24 -25 28 29 -28 -29 -30 -31
leaf_value=-9.3684057005617721e-05 0.0003139387810404987 -1.9506518066986225e-05 -0.0033313481282493426 0.00072732019594306532 -0.0034946761258190465 0.0024962133789287787 -0.00047339841034267226 0.0067157572158183356 0.00060290011829417932 -0.0036554857772479413 5.600287923140657e-05 0.0065425849007153206 -0.0034149028518272967 0.00014504177810134578 -0.0032416258019724144 -0.0034847772750803974 -0.0033172372382890255 -0.0031885842349009723 0.00055878637680957803 8.6527887420667644e-06 0.00017458433963249144 0 0 0.0001330664651541913 -0.00037874672332337267 -0.0050196371465721645 -0.0043104023630365224 1.9934038069652217e-05 2.9551303121416739e-05 -0.0044834581667034306
leaf_weight=34 27 37 65 53 90 22 32 274 20 30 443 51 24 25 28 38 305 84 39 108 1576 275 365 244 150 194 288 288 358 309
leaf_count=34 27 37 65 53 90 22 32 274 20 30 443 51 24 25 28 38 305 84 39 108 1576 275 365 244 150 194 288 288 358 309
internal_value=-0.000246767 -0.000769161 -0.00328734 0.00724543 -0.00887334 -0.00446429 0.00357143 0.00925076 -4.10702e-05 -0.00768251 0.00294677 0.00873494 -0.00778689 7.14286e-05 -0.00711091 -0.0062753 -0.00755269 -0.0114754 0.00186567 5.98802e-06 -4.21179e-05 0.000609206 0.00119784 -0.000786488 -0.00134218 -0.0022957 -7.30994e-05 0.00252525 0.000885827 -0.00531809
internal_weight=5876 5493 1232 383 679 56 553 327 4261 589 526 83 61 4200 559 494 427 122 67 4175 4155 2216 1941 1939 1695 1187 684 396 508 503
internal_count=5876 5493 1232 383 679 56 553 327 4261 589 526 83 61 4200 559 494 427 122 67 4175 4155 2216 1941 1939 1695 1187 684 396 508 503
is_linear=0
shrinkage=0.05


Tree=10
num_leaves=31
num_cat=0
split_feature=6 4 4 5 6 8 8 1 8 6 6 0 0 8 1 6 6 1 4 6 0 0 0 1 5 4 1 6 6 6
split_gain=11.154 2.90196 2.35929 1.85955 1.77996 1.45658 1.59096 1.77085 1.36567 1.5865 1.05292 0.962436 0.913724 0.880092 0.817263 2.27116 2.13999 1.23677 1.91702 0.921111 0.802922 0.735614 0.71153 0.677847 1.8549 1.16156 1.95742 1.39059 0.787486 0.64792
threshold=1.0500000000000003 0.78656609248549325 -0.98296291314453399 1.0000000180025095e-35 9.8500000000000032 65.500000000000014 1.0000000180025095e-35 2.5000000000000004 91.500000000000014 8.1500000000000004 7.0500000000000007 7.5000000000000009 1.0000000180025095e-35 23.500000000000004 1.5000000000000002 -0.74999999999999989 -1.7 3.5000000000000004 -0.9159756150367534 -5.3999999999999995 21.500000000000004 13.500000000000002 19.500000000000004 4.5000000000000009 -0.60355339059327384 -0.60355339059327362 1.0000000180025095e-35 2.7500000000000004 4.8500000000000005 6.2500000000000009
decision_type=10 2 2 2 10 10 10 2 10 10 10 2 2 10 2 10 10 2 2 10 2 2 2 2 2 2 2 10 10 10
left_child=3 2 -2 5 8 6 11 -8 9 12 -3 -1 -4 -11 16 17 20 18 -16 -20 -5 -10 -17 25 -25 26 -14 -28 -26 -29
right_child=1 10 4 14 -6 -7 7 -9 21 13 -12 -13 23 -15 15 22 -18 -19 19 -21 -22 -23 -24 24 28 -27 27 29 -30 -31
leaf_value=-3.7207397185370922e-05 0.00018759748325433148 -0.0029554137098868616 0.00028782927571653074 0.00010658775484228001 6.0388102853342622e-05 -0.00045517600344954502 -2.3731878525640185e-06 0.0086059611651434584 0.00062974731141937081 -0.0029719446467763259 -0.0039046672201137724 8.7142933695733007e-05 0.0011578407009453424 -0.002960366707080761 -0.00020263387229910724 0.0020607728923013129 -0.0035521971522516935 -9.1886494543419468e-06 0.00025932487225557578 -0.0011482363023167603 0 -0.00012828976263270508 0.0091343156150821923 2.8066920267633133e-06 -0.0011005533863898882 -0.0029630216834044183 -0.0031243650160822077 -0.0034325333762074643 -0.0031668480216409086 0.00022239440443827253
leaf_weight=192 49 158 39 525 91 26 22 31 59 72 74 2108 33 25 62 51 23 879 603 31 115 47 20 60 56 239 20 59 85 22
leaf_count=192 49 158 39 525 91 26 22 31 59 72 74 2108 33 25 62 51 23 879 603 31 115 47 20 60 56 239 20 59 85 22
internal_value=7.65827e-05 -0.00425084 -0.00303347 0.00117321 -0.0036108 0.00215427 0.00228432 0.0108491 -0.00435049 -0.00514085 -0.00926724 0.00208696 -0.00420065 -0.0110825 0.000162408 0.000759417 -0.00131976 0.000365079 0.00193966 0.00276025 -0.00078125 0.000943396 0.00950704 -0.00470383 -0.00236318 -0.00596515 -0.00223881 -0.00569307 -0.00549645 -0.00277778
internal_weight=5876 1188 956 4688 907 2379 2353 53 816 710 232 2300 613 97 2309 1646 663 1575 696 634 640 106 71 574 201 373 134 101 141 81
internal_count=5876 1188 956 4688 907 2379 2353 53 816 710 232 2300 613 97 2309 1646 663 1575 696 634 640 106 71 574 201 373 134 101 141 81
is_linear=0
shrinkage=0.05


Tree=11
num_leaves=31
num_cat=0
split_feature=2 8 2 7 2 1 8 5 7 5 8 0 0 1 0 7 5 1 8 1 7 0 5 8 7 1 2 2 1 7
split_gain=8.97837 5.51936 17.1356 1.46212 3.25092 1.41592 2.03575 1.38433 1.33423 1.64521 1.33415 1.24438 1.10984 1.05696 1.03709 1.28152 1.02809 1.06197 0.949709 0.93213 1.02506 0.793709 1.08517 2.45446 1.76063 0.910992 2.84654 0.788767 0.78652 0.708344
threshold=6.0000000000000009 21.500000000000004 11.500000000000002 50.500000000000007 11.500000000000002 2.5000000000000004 1.5000000000000002 -0.60355339059327384 29.500000000000004 0.37940952255126048 149.50000000000003 22.500000000000004 9.5000000000000018 1.0000000180025095e-35 4.5000000000000009 90.500000000000014 1.0000000180025095e-35 5.5000000000000009 6.5000000000000009 4.5000000000000009 34.500000000000007 7.5000000000000009 -0.70710678118654757 44.500000000000007 99.500000000000014 1.0000000180025095e-35 11.500000000000002 11.500000000000002 1.5000000000000002 7.5000000000000009
decision_type=2 8 2 8 2 2 8 2 10 2 10 2 2 2 2 10 2 2 10 2 10 2 2 8 10 2 2 2 2 10
left_child=5 2 7 4 -3 -1 -7 -2 9 -4 16 12 14 -9 15 -10 17 21 -14 -15 -21 27 23 -23 -24 26 -25 -5 -6 -11
right_child=1 3 8 10 28 6 -8 13 11 29 -12 -13 18 19 -16 -17 -18 -19 -20 20 -22 22 24 25 -26 -27 -28 -29 -30 -31
leaf_value=0.0011490963003635308 0.00035137344636132777 8.2556491938867721e-05 -0.0033321188934207352 2.0797706025438292e-05 -0.0029650909609902523 -5.3371231105184273e-05 0.0063756122083426323 0.0031609601647716425 0.00062175066656589147 -0.0031656144109658392 0.00016472546905871717 -0.003236593064824381 -0.0029034841755028102 5.0014022529198958e-05 -0.0029562266407465593 -0.0030085056205588628 0 0.0038810119441901715 -0.0030377862022017451 0.0043870341315620258 0.00037188334653442127 -0.003020588394973928 5.597683801751019e-05 0.00011101809890196046 0.002063261625526325 2.66635742542376e-06 -0.0010183627647156468 -3.5347027326101958e-05 -0.0037728843927475556 -0.0037025351670800402
leaf_weight=125 43 52 59 64 22 39 219 49 20 23 24 25 172 247 118 105 2053 318 20 21 104 49 752 61 23 845 100 81 21 22
leaf_count=125 43 52 59 64 22 39 219 49 20 23 24 25 172 247 118 105 2053 318 20 21 104 49 752 61 23 845 100 81 21 22
internal_value=0.000365895 -0.000150191 -0.00345331 0.000610302 -0.00552632 0.00776762 0.00988372 0.00366379 -0.00930851 -0.0144231 0.000743707 -0.00815217 -0.00752874 0.00279097 -0.00977366 -0.0066 0.000678785 0.00140645 -0.0046875 0.00188172 0.0054 0.000974684 0.00125683 0.00021327 0.00267742 0.000745527 0.00419255 -0.00258621 -0.0156977 -0.00722222
internal_weight=5876 5493 1028 4465 95 383 258 464 564 104 4370 460 435 421 243 125 4346 2293 192 372 125 1975 1830 1055 775 1006 161 145 43 45
internal_count=5876 5493 1028 4465 95 383 258 464 564 104 4370 460 435 421 243 125 4346 2293 192 372 125 1975 1830 1055 775 1006 161 145 43 45
is_linear=0
shrinkage=0.05


Tree=12
num_leaves=31
num_cat=0
split_feature=2 8 2 4 7 2 7 0 4 8 0 8 1 7 4 4 4 8 0 1 0 0 1 2 2 0 0 0 1 1
split_gain=8.63033 5.9969 16.3231 2.40209 2.02632 2.50449 1.56942 2.05786 1.70582 1.48307 1.40573 1.36714 1.13692 1.0126 0.845188 1.23265 1.08725 0.858507 0.82487 0.816209 0.960575 0.89168 4.05545 3.37779 2.02378 1.65285 1.40213 1.14444 1.02814 0.841899
threshold=6.0000000000000009 43.500000000000007 11.500000000000002 0.91597561503675362 50.500000000000007 11.500000000000002 96.500000000000014 19.500000000000004 -0.70710678118654735 212.50000000000003 22.500000000000004 149.50000000000003 2.5000000000000004 97.500000000000014 -0.98296291314453399 -0.9159756150367534 0.60355339059327384 13.500000000000002 8.5000000000000018 1.5000000000000002 19.500000000000004 7.5000000000000009 4.5000000000000009 11.500000000000002 11.500000000000002 1.0000000180025095e-35 1.5000000000000002 6.5000000000000009 5.5000000000000009 5.5000000000000009
decision_type=2 8 2 2 8 2 10 2 2 8 2 10 2 8 2 2 2 10 2 2 2 2 2 2 2 2 2 2 2 2
left_child=9 2 6 10 5 -3 7 18 -8 -1 14 13 -11 -6 -4 -16 17 -17 -2 20 -15 22 24 -24 25 -21 -26 -28 -23 -25
right_child=1 4 3 -5 11 -7 8 -9 -10 12 -12 -13 -14 19 15 16 -18 -19 -20 21 -22 28 23 29 26 -27 27 -29 -30 -31
leaf_value=0.00010477477272990422 0.0007327600511908062 9.9783411894316387e-08 0.0005938707664122578 -0.0030218304193463 0.00086758978627060059 -0.0030602717359591415 0.00017403446959216585 -0.00036958062982206109 -0.00021973711011992331 0.0012916418906569389 -0.0031480013642529226 0.00015648919560578152 0.0060568315979254994 1.0641607193023762e-06 -0.0032017927094596835 -0.0026671842982519292 -0.0027331597322020149 -0.002871209443367845 0.0045886903357698966 0.0051268722763459732 0 1.4446871610113156e-05 1.2076163008839514e-05 -2.7130696546767699e-05 -9.2128301108024293e-06 -0.0042839308529986258 0.00015288887903809059 -3.357967595979672e-05 0.0034369613618818241 -2.2294565255008558e-05
leaf_weight=93 81 46 31 90 27 43 93 46 230 96 30 24 194 1051 61 219 122 61 47 35 211 1637 189 95 78 232 185 39 394 96
leaf_count=93 81 46 31 90 27 43 93 46 230 96 30 24 194 1051 61 219 122 61 47 35 211 1637 189 95 78 232 185 39 394 96
internal_value=0.000119129 -0.000386856 -0.00366787 -0.00912052 0.000445002 -0.00702247 0.00306841 0.00689655 0.00100619 0.00737598 -0.00782443 0.000599814 0.00913793 0.000532912 -0.00718623 -0.00772138 -0.00671642 -0.005 0.0101563 0.000471476 -0.000594295 0.000922819 -0.000342466 -0.00434211 0.00232865 -0.000842697 0.00513245 0.00714286 0.00151403 -0.00903141
internal_weight=5876 5493 1111 614 4382 89 497 174 323 383 524 4293 290 4269 494 463 402 280 128 4242 1262 2980 949 380 569 267 302 224 2031 191
internal_count=5876 5493 1111 614 4382 89 497 174 323 383 524 4293 290 4269 494 463 402 280 128 4242 1262 2980 949 380 569 267 302 224 2031 191
is_linear=0
shrinkage=0.05


Tree=13
num_leaves=31
num_cat=0
split_feature=2 8 2 4 0 7 2 0 0 3 2 2 0 0 8 0 7 5 8 5 7 4 5 4 4 4 5 8 7 7
split_gain=8.90194 5.59349 14.2866 2.45422 1.87321 2.09312 2.50449 1.43137 1.38412 3.12129 3.37779 2.32853 1.97367 2.76622 1.34546 1.29549 1.26305 1.21636 1.16302 1.24374 0.832673 0.826256 0.92989 1.01441 1.32001 0.809889 0.681601 2.26139 0.665899 0.66454
threshold=6.0000000000000009 43.500000000000007 11.500000000000002 0.91597561503675362 18.500000000000004 50.500000000000007 11.500000000000002 22.500000000000004 7.5000000000000009 1.0000000180025095e-35 11.500000000000002 11.500000000000002 6.5000000000000009 1.5000000000000002 212.50000000000003 1.5000000000000002 23.500000000000004 0.1294095225512602 149.50000000000003 -0.70710678118654757 97.500000000000014 0.60355339059327384 -0.9159756150367534 -0.78656609248549292 -0.98296291314453399 0.78656609248549325 -0.9159756150367534 67.500000000000014 11.500000000000002 99.500000000000014
decision_type=2 8 2 2 2 8 2 2 2 2 2 2 2 2 8 2 10 2 10 2 8 2 2 2 2 2 2 10 10 10
left_child=14 2 16 7 5 6 -3 21 9 11 -11 15 13 -13 28 -7 17 -2 19 20 -10 22 -4 24 -24 -18 -22 -28 -1 -27
right_child=1 4 3 -5 -6 8 -8 -9 18 10 -12 12 -14 -15 -16 -17 25 -19 -20 -21 26 -23 23 -25 -26 29 27 -29 -30 -31
leaf_value=-0.00061853849321331651 0.010057940855178707 9.4794241300988349e-08 -0.0027259985030568396 -0.0028707388983789856 -9.4515605621320331e-06 0.00046055517129272862 -0.0029072581491611849 -0.0029906012960402768 0.00095522368763692196 1.1472354858396705e-05 -2.5774161719430146e-05 -1.5054858361598923e-05 -3.3632883995762806e-05 0.00016047252687278747 0.005615762229278543 -0.0040942752749854013 0.00014946334453494749 0.00058587044105098962 0.00014866473582549197 0.0032651132937877333 6.9221431122740149e-05 -0.0025965017455919144 0.00056417722809164465 -0.0025311995472129313 -0.0027987433521262624 0.00079029860639591443 -1.7411103608866441e-06 -0.0030834195784682386 0.00010624587571304439 -0.0026298642854289847
leaf_weight=21 26 46 32 90 867 113 43 30 23 189 191 137 69 335 290 321 323 34 24 876 578 122 31 196 113 33 541 29 72 81
leaf_count=21 26 46 32 90 867 113 43 30 23 189 191 137 69 335 290 321 323 34 24 876 578 122 31 196 113 33 541 29 72 81
internal_value=-0.000255276 -0.000769161 -0.00393789 -0.00903909 3.42309e-05 0.000547653 -0.00702247 -0.00772901 0.000744308 -0.000498155 -0.00434211 0.001 0.00318854 0.00434322 0.00711488 -0.00172811 0.00236419 0.00916667 0.00155722 0.00142892 0.000362938 -0.00708502 -0.00591398 -0.00514706 -0.00833333 0.00143021 0.000174216 -0.00105263 0.00188172 -0.00219298
internal_weight=5876 5493 1111 614 4382 3515 89 524 3426 1355 380 975 541 472 383 434 497 60 2071 2047 1171 494 372 340 144 437 1148 570 93 114
internal_count=5876 5493 1111 614 4382 3515 89 524 3426 1355 380 975 541 472 383 434 497 60 2071 2047 1171 494 372 340 144 437 1148 570 93 114
is_linear=0
shrinkage=0.05


Tree=14
num_leaves=31
num_cat=0
split_feature=2 8 2 1 1 2 7 7 0 8 1 0 7 1 5 7 1 0 0 0 0 5 1 7 5 0 0 1 0 1
split_gain=8.15039 5.50945 15.4365 2.0014 1.97917 1.95024 3.99798 3.24315 2.50238 1.84155 1.67619 1.31743 1.2474 1.61745 1.22235 1.20174 1.01222 4.52627 3.5203 1.44413 1.32839 1.00275 0.904552 0.869974 0.827547 0.815315 0.794342 1.31587 0.992161 0.75
threshold=6.0000000000000009 91.500000000000014 11.500000000000002 2.5000000000000004 1.0000000180025095e-35 11.500000000000002 92.500000000000014 45.500000000000007 1.5000000000000002 5.5000000000000009 4.5000000000000009 1.5000000000000002 37.500000000000007 1.5000000000000002 0.37940952255126048 99.500000000000014 4.5000000000000009 7.5000000000000009 6.5000000000000009 21.500000000000004 18.500000000000004 -0.12940952255126037 1.0000000180025095e-35 20.500000000000004 -0.60355339059327384 15.500000000000002 18.500000000000004 3.5000000000000004 7.5000000000000009 5.5000000000000009
decision_type=2 8 2 2 2 2 10 8 2 8 2 2 10 2 2 10 2 2 2 2 2 2 2 8 2 2 2 2 2 2
left_child=3 2 4 -1 15 6 11 -7 10 -5 22 -3 14 -14 24 -2 18 -18 -10 26 25 -17 -9 -13 -4 -19 28 -28 -20 -12
right_child=1 5 12 9 -6 7 -8 8 16 -11 29 23 13 -15 -16 21 17 20 19 -21 -22 -23 -24 -25 -26 -27 27 -29 -30 -31
leaf_value=0.00074627127934857873 0.0081417736618346875 0.00042252405544191828 -0.0023681071875245197 -6.1253701972074914e-05 8.9354794626583811e-05 -0.0028281801556934911 0.00021693940218389662 -1.4302115443518006e-05 0.00015244890052914796 0.0054732019065652981 -6.083974068316067e-06 0.00019861017424540052 -0.0025896985779039986 -0.0025765449597591043 -0.0028490236622651407 0.00011550262044582316 -2.4485453633457668e-05 0.0035116522073304346 -3.1951239795974255e-05 4.7257802810729558e-07 -8.9789825340247379e-06 -3.1933764496383524e-05 0.0049785745802041013 -0.00015219666068938542 -0.0029850104571652243 0.0081018573310751209 -0.00019275194423654942 -8.9789825340247379e-06 0.0034767351081755049 -6.3257806329042328e-06
leaf_weight=125 21 160 22 41 485 25 36 29 335 217 24 32 134 416 51 22 143 196 69 138 111 25 108 1777 56 72 170 36 776 24
leaf_count=125 21 160 22 41 485 25 36 29 335 217 24 32 134 416 51 22 143 196 69 138 111 25 108 1777 56 72 170 36 776 24
internal_value=-0.000459496 -0.000951211 -0.0038961 0.00659269 0.00230561 -9.97418e-05 -0.00123441 0.000908688 0.00110937 0.00910853 -0.00445946 -0.00153631 -0.00894698 -0.00790909 -0.0133721 0.0102941 0.0016129 -0.000287356 0.00226378 0.000988225 0.00257256 0.00585106 -0.00164234 -0.00192095 -0.0173077 0.00447761 0.000356803 -0.00242718 0.0010355 -0.0125
internal_weight=5876 5493 1232 383 553 4261 2005 2256 2231 258 185 1969 679 550 129 68 2046 522 1524 1189 379 47 137 1809 78 268 1051 206 845 48
internal_count=5876 5493 1232 383 553 4261 2005 2256 2231 258 185 1969 679 550 129 68 2046 522 1524 1189 379 47 137 1809 78 268 1051 206 845 48
is_linear=0
shrinkage=0.05


Tree=15
num_leaves=31
num_cat=0
split_feature=6 4 8 5 7 8 7 4 7 6 6 6 6 8 5 7 1 6 1 7 7 5 6 4 6 1 4 1 5 1
split_gain=9.885 2.28023 1.6391 1.94093 1.65358 1.43775 1.17092 1.24642 1.21954 1.10048 1.27924 1.22586 1.36156 1.10007 0.990704 1.21753 0.987705 0.876784 2.71189 2.67857 1.98014 0.969809 1.00138 0.863305 1.11382 1.08053 0.853744 0.785613 2.02036 1.60726
threshold=3.4500000000000006 0.91597561503675362 59.500000000000007 -0.9159756150367534 72.500000000000014 21.500000000000004 23.500000000000004 0.12940952255126045 1.0000000180025095e-35 5.8500000000000005 9.8500000000000032 7.8500000000000005 7.6500000000000012 30.500000000000004 -0.5 2.5000000000000004 1.5000000000000002 1.0500000000000003 4.5000000000000009 95.500000000000014 48.500000000000007 -0.9159756150367534 1.2500000000000002 -0.25881904510252113 6.3500000000000005 2.5000000000000004 0.60355339059327384 3.5000000000000004 1.0000000180025095e-35 5.5000000000000009
decision_type=10 2 10 2 10 10 8 2 10 10 10 10 10 10 2 10 2 8 2 10 10 2 10 2 10 2 2 2 2 2
left_child=6 2 3 -2 -4 9 7 8 -1 -5 11 12 16 -7 -9 -16 -11 18 19 20 -8 22 -19 25 -25 -6 -21 -23 -29 -30
right_child=1 -3 4 5 23 13 17 14 -10 10 -12 -13 -14 -15 15 -17 -18 21 -20 26 -22 27 -24 24 -26 -27 -28 28 29 -31
leaf_value=-0.0011599046801623574 -0.0024602136490087982 -0.0025977170245648387 -0.0023770509109000484 -0.0022811126263195844 9.4930255792780038e-05 0.0019675295505202739 0.0010634538695113674 0.0017878427160195999 -0.0026903282973874845 7.2162136997393211e-05 -5.0777650596041394e-05 -0.0022781090175371097 0.00018924037540702656 -6.4431462767508552e-05 -0.0028700098509594736 0.0019830460146572707 -0.0024457351360105254 8.6078887037502327e-05 0.016575347196395297 0.0032957384905306589 -0.0030945652968812618 2.2090552126660669e-05 0.0044095759804056948 -0.00011357310518337327 0.00026640780457251048 -0.0035074742716709492 -0.00031273529576890391 0.0029262750187318224 -5.779775364900264e-06 -8.8533633809700918e-05
leaf_weight=33 49 113 50 229 24 20 22 25 47 36 56 92 21 39 20 22 155 569 22 81 34 2384 21 21 38 22 31 702 611 287
leaf_count=33 49 113 50 229 24 20 22 25 47 36 56 92 21 39 20 22 155 569 22 81 34 2384 21 21 38 22 31 702 611 287
internal_value=-0.000425459 -0.00505181 -0.00416667 -0.00520086 0.000483871 -0.00447531 0.000483608 -0.00391156 -0.008125 -0.00522071 -0.00694444 -0.00822368 -0.00613208 0.0029661 0.0011194 -0.00357143 -0.00746073 0.000619228 0.00394737 0.00178571 -0.00714286 0.000480979 0.00237288 0.00404762 0.00805085 -0.00108696 0.00625 0.000200803 -0.00065625 -0.00222717
internal_weight=5876 965 852 697 155 648 4911 147 80 589 360 304 212 59 67 42 191 4764 190 168 56 4574 590 105 59 46 112 3984 1600 898
internal_count=5876 965 852 697 155 648 4911 147 80 589 360 304 212 59 67 42 191 4764 190 168 56 4574 590 105 59 46 112 3984 1600 898
is_linear=0
shrinkage=0.05


Tree=16
num_leaves=31
num_cat=0
split_feature=6 2 2 1 6 1 6 4 6 6 7 7 6 2 6 7 0 0 1 7 1 4 7 4 4 4 5 1 6 6
split_gain=6.84063 15.9532 6.53421 3.80121 2.9693 2.42023 2.35398 3.08871 2.00356 2.01996 1.74793 1.7096 1.61847 1.60175 3.41494 2.29196 2.25554 1.97751 1.67619 1.59493 1.95489 1.54002 1.53454 1.43976 1.34979 1.70139 1.2851 1.27815 1.52381 1.21812
threshold=1.2500000000000002 11.500000000000002 6.0000000000000009 2.5000000000000004 3.1500000000000008 2.5000000000000004 8.2500000000000018 0.91597561503675362 10.450000000000001 2.0500000000000003 97.500000000000014 48.500000000000007 6.5500000000000007 11.500000000000002 -4.0999999999999988 37.500000000000007 1.5000000000000002 18.500000000000004 4.5000000000000009 76.500000000000014 4.5000000000000009 1.0000000180025095e-35 97.500000000000014 -0.5 -0.70710678118654735 -0.37940952255126059 0.25881904510252057 4.5000000000000009 2.6500000000000008 8.5500000000000025
decision_type=10 2 2 2 10 2 10 2 10 10 10 10 10 2 10 8 2 2 2 10 2 2 10 2 2 2 2 2 10 10
left_child=2 3 5 8 -3 -1 7 19 9 -2 11 13 27 14 -4 -15 18 -18 -17 20 21 -6 -21 -24 -14 -26 -11 28 -5 -27
right_child=1 4 10 12 6 -7 -8 -9 -10 26 -12 -13 24 15 -16 16 17 -19 -20 22 -22 -23 23 -25 25 29 -28 -29 -30 -31
leaf_value=0.00054477553538099805 -7.1997932165825115e-05 -0.0029729006803543056 -0.00014569135526124876 -0.00027313132302145829 0.00069593917465792529 0.0051968375752579291 -0.0022364473314735625 -0.0024678311733365961 -8.3342254933904691e-05 0.0019571361273899887 0.0027045185678042025 -0.0027411989931840439 5.2945181715803594e-05 -0.0027693827067232155 0.0058892023242614888 -1.4691537277675138e-05 0.0001437219278963592 -6.5557847963027e-07 -5.4907865966541408e-06 0.0012552455268225087 -0.0030275902478522523 -0.002179939267664366 -0.0023063679663414107 -0.002333050420449598 -0.0045877072947309444 -0.0040323745391769254 0.00025036416332825662 0.0020901091502937455 0.00016844868295267379 8.8108628033631289e-05
leaf_weight=120 30 46 1919 21 32 218 89 65 56 79 108 44 44 50 36 137 1569 457 48 26 35 25 105 197 24 83 55 67 54 37
leaf_count=120 30 46 1919 21 32 218 89 65 56 79 108 44 44 50 36 137 1569 457 48 26 35 25 105 197 24 83 55 67 54 37
internal_value=-0.000595643 -0.00401709 0.000254994 0.00218182 -0.00951613 0.00695266 -0.00853659 -0.00716495 0.00727273 0.010061 -0.000263278 -0.000422535 -0.00121212 -0.000320209 -0.00136829 0.000586024 0.000825418 0.001308 -0.00445946 -0.00559524 -0.011413 -0.00570175 -0.00396341 -0.00496689 -0.00425532 -0.00659722 0.0126866 0.0028169 -0.00166667 -0.00416667
internal_weight=5876 1170 4706 550 620 338 574 485 220 164 4368 4260 330 4216 1955 2261 2211 2026 185 420 92 57 328 302 188 144 134 142 75 120
internal_count=5876 1170 4706 550 620 338 574 485 220 164 4368 4260 330 4216 1955 2261 2211 2026 185 420 92 57 328 302 188 144 134 142 75 120
is_linear=0
shrinkage=0.05


Tree=17
num_leaves=31
num_cat=0
split_feature=6 2 2 6 6 4 7 4 1 6 6 1 7 2 7 0 0 1 6 4 1 4 7 5 1 1 1 0 0 0
split_gain=7.55545 14.1257 4.74036 2.6195 2.52267 3.28185 1.76722 1.68777 1.62109 1.36155 2.42918 1.67426 1.27198 1.52164 2.29196 2.25554 1.97751 1.67619 1.48847 1.29794 1.88891 1.11105 1.13021 1.16886 1.72582 0.979164 0.959862 5.70627 3.15777 1.05701
threshold=1.0500000000000003 11.500000000000002 6.0000000000000009 3.5500000000000003 8.2500000000000018 0.91597561503675362 97.500000000000014 -0.37940952255126059 2.5000000000000004 5.8500000000000005 1.9500000000000002 1.0000000180025095e-35 48.500000000000007 11.500000000000002 37.500000000000007 1.5000000000000002 18.500000000000004 4.5000000000000009 -4.0999999999999988 -0.78656609248549292 4.5000000000000009 0.78656609248549325 12.500000000000002 0.78656609248549303 3.5000000000000004 1.5000000000000002 4.5000000000000009 8.5000000000000018 6.5000000000000009 7.5000000000000009
decision_type=10 2 2 10 10 2 10 2 2 10 10 2 10 2 8 2 2 2 10 2 2 2 10 2 2 2 2 2 2 2
left_child=2 9 8 -3 5 7 12 -5 -1 10 -2 -12 13 18 -15 17 26 -16 19 20 -4 22 -11 -24 -25 -9 28 -28 -17 -30
right_child=1 3 6 4 -6 -7 -8 25 -10 21 11 -13 -14 14 15 16 -18 -19 -20 -21 -22 -23 23 24 -26 -27 27 -29 29 -31
leaf_value=0.00051753675861194732 -0.00015573061834073254 -0.002879082189046177 -0.0042895757621131351 -0.0021787574619402199 -0.0021246249648998838 -0.0023284419084092069 0.0028478284560299635 -0.0021818202372451633 0.004936995696495034 -0.0042750610072714024 0.0044807274054934404 0.00025968456171380079 -0.0024896276219263632 -0.0026309135713870543 -1.3956960413791242e-05 0.00013653583150154136 -6.2279955564958911e-07 -5.2162472668204618e-06 0.005306691747696525 -0.00011712770770213044 4.3466794451441082e-05 -0.00356721623491193 5.6163783427476413e-05 4.2588405844354305e-05 -0.0039375989415906115 -0.002186941733702681 -2.6262402220705863e-05 0.0031861178767066873 -3.8644301807325149e-05 0.0032946077287655806
leaf_weight=120 57 70 285 162 89 61 97 73 218 23 25 166 41 50 137 338 457 48 32 1514 120 65 169 33 29 166 167 240 69 755
leaf_count=120 57 70 285 162 89 61 97 73 218 23 25 166 41 50 137 338 457 48 32 1514 120 65 169 33 29 166 167 240 69 755
internal_value=-0.000689244 -0.00425084 0.000213311 -0.00946055 -0.00830309 -0.00681818 -0.000229885 -0.00517456 0.00591716 0.00145503 0.00423387 0.00693717 -0.000382083 -0.000296771 0.000586024 0.000825418 0.001308 -0.00445946 -0.00131984 -0.00149818 -0.00401235 -0.000705329 0.000787402 0.00183983 -0.00403226 -0.00784519 0.00215105 6.14251e-05 0.00288296 0.00121359
internal_weight=5876 1188 4688 621 551 462 4350 401 338 567 248 191 4253 4212 2261 2211 2026 185 1951 1919 405 319 254 231 62 239 1569 407 1162 824
internal_count=5876 1188 4688 621 551 462 4350 401 338 567 248 191 4253 4212 2261 2211 2026 185 1951 1919 405 319 254 231 62 239 1569 407 1162 824
is_linear=0
shrinkage=0.05


Tree=18
num_leaves=31
num_cat=0
split_feature=6 2 2 6 6 4 8 7 4 6 6 1 1 1 1 7 4 1 2 6 7 1 4 4 1 4 4 4 4 7
split_gain=8.55544 13.4493 2.96151 2.6195 2.52267 3.28185 1.81386 2.07882 1.68777 1.45956 2.53206 1.45195 0.981547 0.979164 0.962158 0.93887 0.907004 0.760972 0.751118 2.50343 1.86083 1.52677 3.00913 1.77926 1.02098 0.910753 0.833241 0.748686 0.860483 0.736802
threshold=1.0500000000000003 11.500000000000002 6.0000000000000009 3.5500000000000003 8.2500000000000018 0.91597561503675362 61.500000000000007 97.500000000000014 -0.37940952255126059 5.1500000000000012 1.9500000000000002 1.0000000180025095e-35 2.5000000000000004 1.5000000000000002 2.5000000000000004 48.500000000000007 0.78656609248549325 2.5000000000000004 11.500000000000002 -4.0999999999999988 37.500000000000007 4.5000000000000009 -0.37940952255126059 0.60355339059327384 1.5000000000000002 -0.98296291314453399 -0.78656609248549292 -0.70710678118654735 -0.98296291314453399 78.500000000000014
decision_type=10 2 2 10 10 2 10 10 2 10 10 2 2 2 2 10 2 2 2 10 8 2 2 2 2 2 2 2 2 10
left_child=2 9 12 -3 5 8 7 15 29 10 -2 -12 -1 -10 16 18 -11 -9 19 -4 -20 23 25 24 26 -23 -22 28 -26 -5
right_child=1 3 6 4 -6 -7 -8 17 13 14 11 -13 -14 -15 -16 -17 -18 -19 20 -21 21 22 -24 -25 27 -27 -28 -29 -30 -31
leaf_value=0.00049165992068135047 -0.00014794408742369592 -0.002735128079593867 -0.00012569457686247565 -0.0021707186340438099 -0.0020183937166548898 -0.002212019812988747 -0.00098371782953264879 0.00047786153648132768 -0.0020727292253829052 5.3355594256102036e-05 0.004256691035218768 0.00042290357138323464 0.0046901459116702824 -0.0020775946470175471 -0.0033397421771656334 -0.0023075492891916393 -0.0032698511149244465 0.0061915296465394291 -0.0025107679230698399 0.0073188195849397848 0.0034686714567866983 0.0073839587233546222 -2.4949282109670847e-05 0.00012970903992646498 0.0031298773423273033 0.0027463365012000644 -1.3259112393101958e-05 0.0032891380427446161 -8.1771257373131071e-06 0.0007644676689437691
leaf_weight=120 57 70 1919 37 89 61 20 34 73 105 24 146 218 166 211 38 24 60 45 25 150 24 356 471 40 186 359 429 194 125
leaf_count=120 57 70 1919 37 89 61 20 34 73 105 24 146 218 166 211 38 24 60 45 25 150 24 356 471 40 186 359 429 194 125
internal_value=-0.000587134 -0.0043771 0.000373294 -0.00946055 -0.00830309 -0.00681818 2.29885e-05 9.23788e-05 -0.00517456 0.00119048 0.00429515 0.00735294 0.00488166 -0.00784519 -0.000882353 -7.08215e-05 0.00251938 0.00744681 0 -0.000720165 0.000621118 0.000826166 -0.00141343 0.00159769 0.000554608 0.00333333 -0.00112967 0.00184766 -0.00042735 -0.00123457
internal_weight=5876 1188 4688 621 551 462 4350 4330 401 567 227 170 338 239 340 4236 129 94 4198 1944 2254 2209 566 1643 1172 210 509 663 234 162
internal_count=5876 1188 4688 621 551 462 4350 4330 401 567 227 170 338 239 340 4236 129 94 4198 1944 2254 2209 566 1643 1172 210 509 663 234 162
is_linear=0
shrinkage=0.05


Tree=19
num_leaves=31
num_cat=0
split_feature=6 2 2 6 6 4 4 6 6 1 7 7 2 1 2 7 1 0 0 1 1 0 0 0 0 6 1 1 0 7
split_gain=7.6033 15.5283 2.82304 2.6195 2.52267 3.28185 1.68777 1.1751 2.23996 1.58106 1.10402 1.39065 1.27075 1.26825 1.0824 2.40831 1.72111 2.69522 3.64676 2.81529 2.5967 1.58796 1.49475 3.41489 1.4902 1.33567 1.22827 1.07021 1.05549 1.60669
threshold=1.0500000000000003 11.500000000000002 6.0000000000000009 3.5500000000000003 8.2500000000000018 0.91597561503675362 -0.37940952255126059 1.9500000000000002 5.2500000000000009 1.0000000180025095e-35 97.500000000000014 48.500000000000007 11.500000000000002 2.5000000000000004 11.500000000000002 37.500000000000007 3.5000000000000004 18.500000000000004 8.5000000000000018 4.5000000000000009 5.5000000000000009 1.5000000000000002 1.5000000000000002 6.5000000000000009 7.5000000000000009 -4.0999999999999988 1.5000000000000002 4.5000000000000009 7.5000000000000009 35.500000000000007
decision_type=10 2 2 10 10 2 2 10 8 2 10 10 2 2 2 8 2 2 2 2 2 2 2 2 2 10 2 2 2 10
left_child=2 7 -1 -3 5 6 -5 -2 9 -9 11 14 13 -12 25 -16 22 18 19 -18 -21 -22 -17 26 -25 -4 -24 -19 -10 -30
right_child=1 3 10 4 -6 -7 -8 8 28 -11 12 -13 -14 -15 15 16 17 27 -20 20 21 -23 23 24 -26 -27 -28 -29 29 -31
leaf_value=0.0038210915947061485 -0.0001405468830525114 -0.0025983716756141739 -0.00011940984801935284 -0.0019612836571410194 -0.0019174740308221458 -0.0021014188223393098 -0.0019737149146666702 0.0040438564834578304 -0.0032253628674201121 0.00039384328285794052 -0.00044268655814024287 -0.0022497687763704632 -0.00024701451175396379 0.0079074341638334048 -0.0023788381376911522 -1.2596156773447832e-05 0.00013299601763889224 -8.5843112949378364e-05 0.0029781826670007175 -2.759770436183695e-05 2.0000588788759988e-07 -2.3701818004187582e-05 0.00012322358793014077 -4.3197538713282696e-05 0.0031246811406073858 0.0046754161810647083 0.00010799549614353977 -0.00014549395079731521 -0.0039852739350166172 0.0001156962215225571
leaf_weight=338 57 70 1919 162 89 61 239 25 108 148 21 41 28 48 50 113 97 60 358 107 24 84 150 57 912 32 138 111 28 201
leaf_count=338 57 70 1919 162 89 61 239 25 108 148 21 41 28 48 50 113 97 60 358 107 24 84 150 57 912 32 138 111 28 201
internal_value=-0.000425459 -0.00399832 0.000479949 -0.00946055 -0.00830309 -0.00681818 -0.00517456 0.00198413 0.0027451 0.00736994 0.000137931 1.76346e-05 0.00541237 0.00905797 0.000106838 0.000851393 0.00109679 -0.00068371 0.000746269 -0.00320513 -0.00639535 -0.000925926 0.00218978 0.00268496 0.00126419 -0.000756023 0.00746528 -0.00628655 0.00037092 0.00229258
internal_weight=5876 1188 4688 621 551 462 401 567 510 173 4350 4253 97 69 4212 2261 2211 841 670 312 215 108 1370 1257 969 1951 288 171 337 229
internal_count=5876 1188 4688 621 551 462 401 567 510 173 4350 4253 97 69 4212 2261 2211 841 670 312 215 108 1370 1257 969 1951 288 171 337 229
is_linear=0
shrinkage=0.05


Tree=20
num_leaves=31
num_cat=0
split_feature=6 2 6 2 6 4 8 1 6 6 4 1 5 4 6 6 5 5 4 5 4 1 4 6 1 2 2 4 6 4
split_gain=6.53561 16.7057 2.9693 2.69195 2.35398 3.08871 1.79726 1.46371 2.62607 1.39482 1.29379 1.29358 1.19712 1.17787 1.60669 1.28723 1.28365 1.12746 1.95727 1.09621 1.0753 1.04824 1.25384 1.01267 0.948542 2.36487 2.16568 1.68526 1.50457 1.43235
threshold=1.2500000000000002 11.500000000000002 3.1500000000000008 6.0000000000000009 8.2500000000000018 0.91597561503675362 61.500000000000007 1.5000000000000002 9.8500000000000032 1.9500000000000002 -0.5 2.5000000000000004 -0.5 0.78656609248549325 3.1500000000000008 6.7500000000000009 0.37940952255126048 -0.70710678118654757 -0.25881904510252113 0.1294095225512602 -1.0000000180025095e-35 3.5000000000000004 -0.70710678118654735 5.3500000000000005 4.5000000000000009 11.500000000000002 11.500000000000002 0.37940952255126054 -5.3999999999999995 0.60355339059327384
decision_type=10 2 10 2 10 2 10 2 10 10 2 2 2 2 10 10 2 2 2 2 2 2 2 10 2 2 2 2 10 2
left_child=3 7 -3 11 5 10 19 8 -2 -9 21 12 -1 14 -11 -15 17 18 -16 -5 -21 23 -23 -4 26 -26 29 -28 -29 -22
right_child=1 2 4 6 -6 -7 -8 9 -10 13 -12 -13 -14 15 16 -17 -18 -19 -20 20 24 22 -24 -25 25 -27 27 28 -30 -31
leaf_value=-0.00053589937088497079 0.0027880591842506411 -0.0024136265491238778 -0.0024067133574151179 4.6382198912586771e-05 -0.0018216003292810382 -0.0020123455874829044 -0.0011683027471092512 -0.00029448114936294348 -0.0030004212396998868 0.0041516179562278571 -0.0018795409609166968 0.0042645840363514601 0.0021766007244824609 0.000187523120001587 -0.0023589721367750366 -0.0031784297137091994 -0.0034607715606078393 0.00019543952984583807 0.00021072651160836399 -0.00013821925325744889 0.00041068614216957511 -0.0020433164599073061 0.0012927999141037706 0.0022487059502263678 4.9369491412090688e-05 -2.2516727103977233e-05 -1.1966348934774885e-05 0.00011706240853363304 -0.002085595109011617 -0.0038576600314157356
leaf_weight=51 122 46 51 2333 89 65 20 22 28 45 266 218 69 25 34 47 102 64 61 921 182 61 20 22 157 143 147 268 20 177
leaf_count=51 122 46 51 2333 89 65 20 22 28 45 266 218 69 25 34 47 102 64 61 921 182 61 20 22 157 143 147 268 20 177
internal_value=-0.000544588 -0.00388889 -0.00951613 0.000286868 -0.00853659 -0.00716495 -4.57875e-05 0.00245455 0.00666667 0.000875 -0.00559524 0.0045858 0.000416667 0.0015873 0.00294118 -0.00416667 0.00143678 0.00424528 0.000789474 2.29991e-05 -0.000831266 -0.00194805 -0.0058642 0.00239726 0.000228519 -0.00216667 0.0011335 0.00350575 0.00572917 -0.00174095
internal_weight=5876 1170 620 4706 574 485 4368 550 150 400 420 338 120 378 306 72 261 159 95 4348 2015 154 81 73 1094 300 794 435 288 359
internal_count=5876 1170 620 4706 574 485 4368 550 150 400 420 338 120 378 306 72 261 159 95 4348 2015 154 81 73 1094 300 794 435 288 359
is_linear=0
shrinkage=0.05


Tree=21
num_leaves=31
num_cat=0
split_feature=7 2 4 2 2 5 1 0 7 1 1 7 5 4 5 7 4 0 0 5 4 4 0 1 0 0 0 0 5 0
split_gain=5.21925 21.6424 2.3173 2.01671 1.44494 2.97198 1.41361 1.31833 1.25891 1.44974 1.31091 1.81883 1.63494 1.07769 1.06185 1.01645 1.04287 0.987734 0.968815 0.851839 0.832077 0.821267 0.773684 0.692126 4.1462 3.63976 1.01404 0.994625 0.711111 0.678047
threshold=inf 11.500000000000002 0.91597561503675362 6.0000000000000009 11.500000000000002 0.78656609248549303 4.5000000000000009 22.500000000000004 37.500000000000007 4.5000000000000009 4.5000000000000009 54.500000000000007 -0.70710678118654757 1.0000000180025095e-35 0.37940952255126048 1.5000000000000002 0.78656609248549325 8.5000000000000018 1.5000000000000002 -0.9159756150367534 -0.70710678118654735 -0.37940952255126059 5.5000000000000009 4.5000000000000009 8.5000000000000018 6.5000000000000009 7.5000000000000009 18.500000000000004 -0.70710678118654757 5.5000000000000009
decision_type=8 2 2 2 2 2 2 2 10 2 2 10 2 2 2 8 2 2 2 2 2 2 2 2 2 2 2 2 2 2
left_child=1 6 7 -2 18 23 15 8 9 14 11 -10 -12 20 -3 -1 -17 -15 -5 -13 -8 -22 -18 25 -25 -6 -27 28 -26 -20
right_child=3 2 -4 4 5 -7 13 -9 10 -11 12 19 -14 17 -16 16 22 -19 29 -21 21 -23 -24 24 27 26 -28 -29 -30 -31
leaf_value=-0.0011692502697563181 0.0039077453195763999 -0.0018628632397943796 -0.0019123859890160023 0.0004051551923472702 0.00011120928810695042 -1.5419720205028799e-05 0.00065196995755504314 -0.0021257141060068408 0.0008387191780164394 -0.0025532353239415954 0.0014822028440958216 -0.0018621165976548289 -0.0018415348404808185 0.0017242012241699134 -0.0017100304604333247 0.00016954875672132996 -0.0020710200083791735 0.0039381063543997147 -0.0036499578373848764 -0.0017507269605789009 -0.0020499334298508336 0.00073251210191346285 0.00015200162663709662 -2.5091982788547074e-05 0.0028768312036811712 -4.3356771723246372e-05 0.0028338487319882425 -0.00013130829059457562 0.0026446772382860057 -0.00010652839295551275
leaf_weight=46 289 59 90 160 266 458 49 30 25 30 38 50 91 63 35 397 38 33 312 284 26 25 57 143 144 69 958 69 96 1446
leaf_count=46 289 59 90 160 266 458 49 30 25 30 38 50 91 63 35 397 38 33 312 284 26 25 57 143 144 69 958 69 96 1446
internal_value=-0.000485024 -0.00306958 -0.00915301 0.00037415 9.09973e-05 0.000964594 0.00299728 -0.00809969 -0.00759804 -0.0120968 -0.00645492 -0.00800836 -0.00213178 0.00663265 -0.00904255 0.00167286 0.0023374 0.0104167 -0.000912409 -0.00898204 0.003 -0.00147059 -0.00236842 0.00190544 0.000221239 0.0024942 0.00114411 0.00347896 0.005 -0.00125142
internal_weight=5876 1466 732 4410 4121 2203 734 642 612 124 488 359 129 196 94 538 492 96 1918 334 100 51 95 1745 452 1293 1027 309 240 1758
internal_count=5876 1466 732 4410 4121 2203 734 642 612 124 488 359 129 196 94 538 492 96 1918 334 100 51 95 1745 452 1293 1027 309 240 1758
is_linear=0
shrinkage=0.05


Tree=22
num_leaves=31
num_cat=0
split_feature=6 2 6 6 8 7 7 1 5 2 7 5 8 1 5 7 8 7 1 2 2 8 6 7 1 5 6 6 5 2
split_gain=7.91879 13.8984 2.6195 2.52267 1.83949 2.27182 1.82138 3.05388 1.62334 1.46538 1.30895 1.75113 1.39001 1.19725 1.2 1.17483 1.0673 1.06715 0.903029 1.7076 0.930435 0.884394 1.76916 1.12758 1.39845 1.40833 0.864 2.98012 1.4068 0.835449
threshold=1.0500000000000003 11.500000000000002 3.5500000000000003 8.2500000000000018 61.500000000000007 97.500000000000014 96.500000000000014 1.0000000180025095e-35 0.1294095225512602 6.0000000000000009 62.500000000000007 0.37940952255126048 139.50000000000003 2.5000000000000004 -0.5 11.500000000000002 58.500000000000007 45.500000000000007 3.5000000000000004 11.500000000000002 6.0000000000000009 1.5000000000000002 7.1500000000000012 76.500000000000014 4.5000000000000009 -0.9159756150367534 2.6500000000000008 4.1500000000000012 0.60355339059327384 11.500000000000002
decision_type=10 2 10 10 10 10 10 2 2 2 10 2 10 2 2 10 10 10 2 2 2 10 10 10 2 2 10 10 2 2
left_child=4 6 -3 15 5 8 7 -2 9 13 12 -12 17 14 -1 -4 26 -9 -10 20 -20 22 -17 -23 25 -25 28 -28 -8 -11
right_child=1 2 3 -5 -6 -7 16 10 18 29 11 -13 -14 -15 -16 21 -18 -19 19 -21 -22 23 -24 24 -26 -27 27 -29 -30 -31
leaf_value=-0.00063773855654319922 0.0056247549949513106 -0.002267053783519473 -0.0016640067900186616 -0.0016375873826403335 -0.0011183650475898534 0.0026814098623820825 -0.0002037727738420092 0.0003528472767294719 -1.059704547778373e-05 -3.9564502058084264e-05 0.0028769366147390119 -0.0015995156388461731 -0.00096268884644674924 0.0038575672769278397 0.0044786002474096953 -0.0016756655043873956 0.00018099474143311591 -0.00017705341286858024 -0.00023719591511742744 -2.3837383649119583e-05 5.8458697771501815e-05 -0.0018078007121347759 -0.0016092722712718701 -0.0020022977388958045 0.0017618417389707376 0.0010058218644284106 0.0039355596205803978 -0.00068510732176154114 0.0028964349359110798 0.0023312546364605974
leaf_weight=45 26 70 33 89 28 118 27 72 1247 1055 37 22 27 127 27 261 63 20 23 380 405 27 28 27 41 45 31 219 23 1233
leaf_count=45 26 70 33 89 28 118 27 72 1247 1055 37 22 27 127 27 261 63 20 23 380 405 27 28 27 41 45 31 219 23 1233
internal_value=-0.000646698 -0.00429293 -0.00946055 -0.00830309 0.000277304 0.000354077 0.00136684 0.00514706 0.000176134 0.00103538 0.00280899 0.00889831 -0.000210084 0.00515075 0 -0.00681818 -0.000757576 0.00271739 -0.000863747 -0.00216584 0 -0.00611888 -0.00769896 -0.00285714 -0.000663717 -0.00486111 -0.002 -0.0008 -0.008 0.000677448
internal_weight=5876 1188 621 551 4688 4660 567 204 4542 2487 178 59 119 199 72 462 363 92 2055 808 428 429 289 140 113 72 300 250 50 2288
internal_count=5876 1188 621 551 4688 4660 567 204 4542 2487 178 59 119 199 72 462 363 92 2055 808 428 429 289 140 113 72 300 250 50 2288
is_linear=0
shrinkage=0.05


Tree=23
num_leaves=31
num_cat=0
split_feature=8 2 0 7 1 1 7 0 2 1 2 1 7 1 0 7 1 0 1 7 1 1 0 5 5 5 1 8 1 0
split_gain=5.54813 19.4723 2.2669 1.66831 1.28506 1.21609 1.27904 1.09568 1.18683 3.37163 2.07455 1.32266 0.992375 3.37855 2.30317 1.21202 1.08205 1.07866 1.08659 1.05 0.860327 0.817436 0.916597 0.816667 0.941609 0.691803 2.21244 0.895105 0.662078 0.860323
threshold=212.50000000000003 11.500000000000002 18.500000000000004 37.500000000000007 1.5000000000000002 1.5000000000000002 98.500000000000014 10.500000000000002 11.500000000000002 1.0000000180025095e-35 6.0000000000000009 1.5000000000000002 85.000000000000014 1.0000000180025095e-35 10.500000000000002 1.5000000000000002 2.5000000000000004 7.5000000000000009 4.5000000000000009 35.500000000000007 2.5000000000000004 5.5000000000000009 21.500000000000004 0.25881904510252057 -0.5 -0.70710678118654757 4.5000000000000009 39.500000000000007 5.5000000000000009 7.5000000000000009
decision_type=8 2 2 10 2 2 10 2 2 2 2 2 10 2 2 10 2 2 2 10 2 2 2 2 2 2 2 10 2 2
left_child=1 12 7 4 23 6 -5 28 9 -9 20 -10 13 -1 15 -15 -16 18 -14 -17 -11 -4 -23 24 -3 26 27 -7 -2 -30
right_child=2 3 21 5 -6 25 -8 8 11 10 -12 -13 17 14 16 19 -18 -19 -20 -21 -22 22 -24 -25 -26 -27 -28 -29 29 -31
leaf_value=0.0053435172452037452 -1.0067193203894266e-05 -0.0014840975661944173 -0.00014795096004156794 -0.0015328975369770681 -0.0022712797628662014 -0.0015540963264560614 -0.0016800761220893191 8.3264705339947129e-05 0.0028784295485489251 -8.904731726763205e-05 -0.00051384770858927396 0.0027078728052089469 -0.0024873429270934168 -0.0005801004615113986 -0.00045983723668876765 0.002864550297176827 0.00015965956381823465 0.00015741836453640745 0.0017810222936736481 0.00075731636531345132 0.0064614892102336126 -9.6095183088634742e-05 -0.00021737905982695401 -0.001929871614992143 -0.0019351919086381024 -0.0016568761168726744 0.0013200006149424919 -0.0022756982279774018 3.2786971413983902e-06 0.0031250201386046035
leaf_weight=24 1712 29 813 35 62 33 110 73 239 43 589 503 118 23 37 28 73 327 44 42 83 69 42 36 25 325 38 39 190 72
leaf_count=24 1712 29 813 35 62 33 110 73 239 43 589 503 118 23 37 28 73 327 44 42 83 69 42 36 25 325 38 39 190 72
internal_value=-0.00073179 -0.00341851 0.000146793 -0.00915301 -0.0138158 -0.00793103 -0.0118966 0.00072774 0.00173203 0.000380711 -0.000664336 0.00316712 0.00244413 0.00517621 0.00307882 0.00887097 -0.00181818 0.00117587 -0.00216049 0.0121429 0.00515873 -0.00205628 -0.00608108 -0.01 -0.0138889 -0.0066092 -0.00318182 -0.00833333 -5.06586e-05 0.00229008
internal_weight=5876 1448 4428 732 152 580 145 3504 1530 788 715 742 716 227 203 93 110 489 162 70 126 924 111 90 54 435 110 72 1974 262
internal_count=5876 1448 4428 732 152 580 145 3504 1530 788 715 742 716 227 203 93 110 489 162 70 126 924 111 90 54 435 110 72 1974 262
is_linear=0
shrinkage=0.05


Tree=24
num_leaves=31
num_cat=0
split_feature=6 2 6 6 4 0 8 4 4 8 0 7 7 1 0 7 0 6 6 0 6 6 1 1 6 1 0 2 2 0
split_gain=8.21115 13.2276 2.6195 2.52267 3.28185 2.06695 1.98932 1.8045 1.68777 1.38591 1.57563 1.35319 1.32096 3.90095 1.9456 1.28625 1.23464 1.11868 2.44722 1.2826 1.33146 1.92063 1.04065 0.979164 0.917169 0.811831 0.863173 0.791323 1.01625 1.47937
threshold=1.0500000000000003 11.500000000000002 3.5500000000000003 8.2500000000000018 0.91597561503675362 18.500000000000004 61.500000000000007 0.98296291314453421 -0.37940952255126059 1.0000000180025095e-35 14.500000000000002 75.500000000000014 85.000000000000014 1.0000000180025095e-35 9.5000000000000018 57.500000000000007 16.500000000000004 1.9500000000000002 4.5500000000000007 7.5000000000000009 9.0500000000000025 11.15 3.5000000000000004 1.5000000000000002 -2.1499999999999999 5.5000000000000009 1.5000000000000002 11.500000000000002 6.0000000000000009 2.5000000000000004
decision_type=10 2 10 10 2 2 10 2 2 10 2 10 10 2 2 10 2 10 10 2 10 10 2 2 8 2 2 2 2 2
left_child=5 12 -3 4 8 6 7 9 -4 16 -11 -7 13 -2 -15 -16 24 -14 -19 -20 22 -22 -21 -10 -1 27 -27 28 29 -26
right_child=1 2 3 -5 -6 11 -8 -9 23 10 -12 -13 17 14 15 -17 -18 18 19 20 21 -23 -24 -25 25 26 -28 -29 -30 -31
leaf_value=-0.0021384162232015599 0.0063857044877053577 -0.0020554971973500281 -0.0015023498282015588 -0.0014778302974794253 -0.0016195684317461254 -0.00013722796225286438 -0.0010704297734012741 -2.1343225177447579e-05 -0.001506601572208008 0.0072357053780767152 -3.9754029219993273e-05 0.001856980956190707 -0.00018704960215637224 0.00063708130609817226 -0.00046723306556566428 0.0045111284624792473 0.0022832971999021236 0.0026276481001506397 -0.0028658225606137525 -0.00018077863181935051 0.00023173265669995254 -3.3320718580218121e-05 9.4089482365908311e-05 -0.001508139334524157 -0.00014226313647733302 0.0047593694829101115 0.0020584408977073368 9.2215348438418063e-05 -0.00012836849656538003 0.0033416144525697691
leaf_weight=20 25 70 162 89 61 952 28 183 73 30 21 35 37 54 75 21 389 82 86 41 28 36 82 166 31 50 343 1308 1124 174
leaf_count=20 25 70 162 89 61 952 28 183 73 30 21 35 37 54 75 21 389 82 86 41 28 36 82 166 31 50 343 1308 1124 174
internal_value=-0.000706263 -0.00441919 -0.00946055 -0.00830309 -0.00681818 0.000234642 0.000776817 0.000878029 -0.00517456 0.00113181 0.00931373 -0.00179838 0.00110229 0.00471429 0.00166667 -0.00260417 0.00101047 -0.000510204 0.000352113 -0.00192308 0.00040107 0.00625 -0.00264228 -0.00784519 0.000672131 0.000742574 0.0028626 0.000426621 -0.000432656 0.00280488
internal_weight=5876 1188 621 551 462 4688 3701 3673 401 3490 51 987 567 175 150 96 3439 392 355 273 187 64 123 239 3050 3030 393 2637 1329 205
internal_count=5876 1188 621 551 462 4688 3701 3673 401 3490 51 987 567 175 150 96 3439 392 355 273 187 64 123 239 3050 3030 393 2637 1329 205
is_linear=0
shrinkage=0.05


Tree=25
num_leaves=31
num_cat=0
split_feature=6 2 6 6 5 8 0 7 3 0 7 2 3 5 0 3 2 2 0 2 6 7 6 0 6 0 2 6 7 6
split_gain=8.28266 12.2325 2.9693 2.35398 2.0831 1.66276 1.62431 1.97431 1.66668 1.48885 1.46105 1.38846 1.24201 1.21842 1.18745 1.38684 4.78517 2.64476 2.03563 1.23359 1.10001 1.42902 1.04473 1.03304 1.01706 0.992131 1.29878 2.85602 1.28708 0.968127
threshold=1.2500000000000002 11.500000000000002 3.1500000000000008 8.2500000000000018 1.0000000180025095e-35 65.500000000000014 9.5000000000000018 76.500000000000014 1.0000000180025095e-35 1.0000000180025095e-35 97.500000000000014 6.0000000000000009 1.0000000180025095e-35 -0.9159756150367534 5.5000000000000009 1.0000000180025095e-35 11.500000000000002 11.500000000000002 1.5000000000000002 11.500000000000002 5.8500000000000005 98.500000000000014 7.1500000000000012 15.500000000000002 2.1500000000000008 8.5000000000000018 11.500000000000002 1.0500000000000003 1.5000000000000002 4.0500000000000007
decision_type=10 2 10 10 2 10 2 10 2 2 10 2 2 2 2 2 2 2 2 2 10 10 10 2 10 2 2 8 10 10
left_child=4 20 -3 6 5 11 9 8 -8 -4 14 -1 13 -9 15 17 -17 -6 -19 -16 21 -2 -11 -14 -23 -13 27 -27 -28 -26
right_child=1 2 3 -5 10 -7 7 12 -10 22 -12 25 23 -15 19 16 -18 18 -20 -21 -22 24 -24 -25 29 26 28 -29 -30 -31
leaf_value=0.0031729340215685105 0.0025123612237940938 -0.0019126127421674917 0.0022376746676655581 -0.0014039387826054546 -0.002543855601752347 -0.0010169082847312106 -0.001326138195474752 -0.0015918137278599768 -0.002095452939911889 -0.0014912278407523329 0.0017585476482558872 -0.00016185907272183998 0.0016855700108449863 -0.0015984925261642484 -9.2458750929239053e-05 1.5309724940668068e-05 -0.00011284175271498721 -1.4174600965619067e-05 0.00010207126821376866 -0.00013369201392684772 -4.8392672500438549e-05 -0.00014664992037162901 -0.001303686869800063 -0.001598666089674774 0.0035995283163170245 0.0068290188013279823 0.0024367316416963741 -9.8972292703161663e-05 -0.0023182867611339962 -0.00023015168664722725
leaf_weight=206 118 46 20 89 384 26 37 28 32 164 82 365 35 107 568 147 143 143 283 569 319 28 26 36 49 30 931 809 20 36
leaf_count=206 118 46 20 89 384 26 37 28 32 164 82 365 35 107 568 147 143 143 283 569 319 28 26 36 49 30 931 809 20 36
internal_value=-0.000936011 -0.00470085 -0.00951613 -0.00853659 0 0.00103687 -0.00716495 -0.00463636 -0.0119565 -0.0104762 -0.00106727 0.00117535 -0.00218447 -0.005 -0.00130755 -0.000136364 -0.00310345 0.000925926 0.0036385 -0.00244063 0.000727273 0.00335498 -0.0118421 0.00316901 -0.000663717 0.000800464 0.00128492 -0.000148987 0.00254995 0.00205882
internal_weight=5876 1170 620 574 4706 2387 485 275 69 210 2319 2361 206 135 2237 1100 290 810 426 1137 550 231 190 71 113 2155 1790 839 951 85
internal_count=5876 1170 620 574 4706 2387 485 275 69 210 2319 2361 206 135 2237 1100 290 810 426 1137 550 231 190 71 113 2155 1790 839 951 85
is_linear=0
shrinkage=0.05


Tree=26
num_leaves=31
num_cat=0
split_feature=6 2 6 6 4 7 1 7 7 1 4 7 2 4 7 1 2 4 6 1 5 4 1 5 5 4 6 4 2 1
split_gain=9.8516 11.3795 2.9693 2.35398 3.08871 2.30339 1.9256 3.45077 1.59493 1.95489 1.54002 1.53454 1.4584 1.43976 1.41335 1.39036 1.16619 1.06813 1.01391 1.00671 1.46459 1 0.906328 0.888138 0.883571 1.43281 1.39732 1.10142 1.69695 2.42365
threshold=1.2500000000000002 11.500000000000002 3.1500000000000008 8.2500000000000018 0.91597561503675362 97.500000000000014 1.0000000180025095e-35 86.500000000000014 76.500000000000014 4.5000000000000009 1.0000000180025095e-35 97.500000000000014 6.0000000000000009 -0.5 48.500000000000007 2.5000000000000004 6.0000000000000009 -0.70710678118654735 4.5500000000000007 4.5000000000000009 -0.70710678118654757 1.0000000180025095e-35 2.5000000000000004 -0.5 1.0000000180025095e-35 -1.0000000180025095e-35 -4.0999999999999988 0.78656609248549325 11.500000000000002 1.0000000180025095e-35
decision_type=10 2 10 10 2 10 2 10 10 2 2 10 2 2 10 2 2 2 10 2 2 2 2 2 2 2 10 2 2 2
left_child=5 6 -3 4 8 12 7 -2 9 10 -4 -10 15 17 24 23 21 18 -13 -15 -21 -8 -7 -1 27 -26 -27 28 29 -14
right_child=1 2 3 -5 -6 22 16 -9 11 -11 -12 13 14 19 -16 -17 -18 -19 -20 20 -22 -23 -24 -25 25 26 -28 -29 -30 -31
leaf_value=-0.00096050324244774117 0.0059408012021303835 -0.0018169821050591168 0.0011307682608085513 -0.0013337418434751823 -0.0014927821137092013 0.0001855445116499932 0.001185590680928736 -7.4361348812908301e-05 0.0016202092656495569 -0.0020132649022599316 -0.0012546712442849566 0.0018443072350157548 4.7103358906228081e-05 -0.0013528077414897367 -0.0020473465257452514 0.0031942556257044731 3.8428945405857845e-06 0.0018820667393013857 -0.0016784369818512127 0.0015988780874590354 -0.001430161603057041 -0.00021201436120577846 0.0046274328409677745 0.0013232293458623175 -0.00012368196344388072 8.7522397503592144e-07 0.0065096109955904737 -0.00015376611908574924 0.0023143238167050843 -0.00029773624407710699
leaf_weight=48 25 46 32 89 65 51 20 34 26 35 25 27 90 125 44 201 446 27 51 25 47 25 83 63 889 1188 21 353 946 729
leaf_count=48 25 46 32 89 65 51 20 34 26 35 25 27 90 125 44 201 446 27 51 25 47 25 83 63 889 1188 21 353 946 729
internal_value=-0.000765827 -0.00487179 -0.00951613 -0.00853659 -0.00716495 0.000254994 0.000363636 0.00889831 -0.00559524 -0.011413 -0.00570175 -0.00396341 6.56168e-05 -0.00496689 -0.000176056 0.00336538 -0.000661914 -0.000238095 -0.00320513 -0.00748731 -0.00277778 -0.00833333 0.00671642 -0.00112613 -8.30171e-05 -0.000810296 0.000310174 0.000637394 0.00114731 -0.000518926
internal_weight=5876 1170 620 574 485 4706 550 59 420 92 57 328 4572 302 4260 312 491 105 78 197 72 45 134 111 4216 2098 1209 2118 1765 819
internal_count=5876 1170 620 574 485 4706 550 59 420 92 57 328 4572 302 4260 312 491 105 78 197 72 45 134 111 4216 2098 1209 2118 1765 819
is_linear=0
shrinkage=0.05


Tree=27
num_leaves=31
num_cat=0
split_feature=6 2 6 6 4 8 7 5 7 3 4 7 2 6 6 4 8 2 7 4 4 3 2 2 4 4 2 4 6 3
split_gain=9.60902 11.171 2.9693 2.35398 3.08871 1.80262 1.77478 1.79733 1.59493 1.95489 1.54002 1.53454 1.45195 1.56645 1.51693 1.43976 1.2812 1.18747 1.17973 1.13852 1.06813 1.04063 2.85914 2.82991 1.78636 1.02812 1.66057 1.01624 1.01391 1.00671
threshold=1.2500000000000002 11.500000000000002 3.1500000000000008 8.2500000000000018 0.91597561503675362 61.500000000000007 97.500000000000014 1.0000000180025095e-35 76.500000000000014 1.0000000180025095e-35 1.0000000180025095e-35 97.500000000000014 6.0000000000000009 4.0500000000000007 1.9500000000000002 -0.5 89.500000000000014 6.0000000000000009 48.500000000000007 -1.0000000180025095e-35 -0.70710678118654735 1.0000000180025095e-35 11.500000000000002 11.500000000000002 0.37940952255126054 0.78656609248549325 11.500000000000002 0.78656609248549325 4.5500000000000007 1.0000000180025095e-35
decision_type=10 2 10 10 2 10 10 2 10 2 2 10 2 10 10 2 10 2 10 2 2 2 2 2 2 2 2 2 10 2
left_child=5 12 -3 4 8 6 7 17 9 10 -4 -10 -2 14 -14 20 -16 -1 19 -9 28 23 -23 -21 -25 26 -19 -15 -13 -17
right_child=1 2 3 -5 -6 -7 -8 18 11 -11 -12 15 13 27 16 29 -18 25 -20 21 -22 22 -24 24 -26 -27 -28 -29 -30 -31
leaf_value=0.0028529748308320918 -0.00020141364314548994 -0.0017261329998061606 0.001074229847768124 -0.0012670547513014233 -0.0014181430080237409 -0.00095117605829079523 0.0020539159230912349 -0.00011749786527168738 0.0015391988023670798 -0.0019126016571469355 -0.0011919376820707082 0.0017520918732649661 -0.00017055677075700215 1.7362814398698412e-05 0.0037830855022312204 -0.0012851673544152496 0.0011787619279612889 -3.2469943232307788e-05 -0.0018327571912939628 -0.0031470551531866259 0.001787963402336318 1.4500477494883146e-05 -0.00011643207573233395 -1.3509632116087689e-05 9.6923943604329554e-05 -0.00014607781313146219 0.0021991788687763 -0.002497481108573263 -0.0015945151327586519 -0.0013451583685618641
leaf_weight=193 45 46 32 89 65 28 129 949 26 35 25 27 29 304 71 125 30 817 26 437 27 172 168 142 343 357 945 71 51 72
leaf_count=193 45 46 32 89 65 28 129 949 26 35 25 27 29 304 71 125 30 817 26 437 27 172 168 142 343 357 945 71 51 72
internal_value=-0.000859428 -0.00491453 -0.00951613 -0.00853659 -0.00716495 0.000148746 0.000224455 6.04528e-05 -0.00559524 -0.011413 -0.00570175 -0.00396341 0.000272727 0.0010396 0.00576923 -0.00496689 0.00866337 0.00103806 -0.000949933 -0.000825418 -0.000238095 0.000158479 -0.00220588 0.00103037 0.00365979 0.000696083 0.00119183 -0.0006 -0.00320513 -0.00748731
internal_weight=5876 1170 620 574 485 4706 4678 4549 420 92 57 328 550 505 130 302 101 2312 2237 2211 105 1262 340 922 485 2119 1762 375 78 197
internal_count=5876 1170 620 574 485 4706 4678 4549 420 92 57 328 550 505 130 302 101 2312 2237 2211 105 1262 340 922 485 2119 1762 375 78 197
is_linear=0
shrinkage=0.05


Tree=28
num_leaves=31
num_cat=0
split_feature=6 4 0 6 8 4 4 7 6 1 0 6 8 6 4 1 1 7 8 0 6 0 1 7 8 7 5 6 1 6
split_gain=9.72796 2.23078 1.74622 1.99358 1.75601 1.73109 1.57774 1.36655 1.01334 0.796237 0.916597 0.722302 0.692548 1.24069 0.641278 0.735873 0.588537 0.584918 1.55077 1.46054 1.19156 1.16265 1.08006 1.212 1.12161 1.11338 2.33256 0.988967 0.729798 0.656621
threshold=0.65000000000000002 -0.98296291314453399 18.500000000000004 -0.94999999999999984 61.500000000000007 0.98296291314453421 0.91597561503675362 99.500000000000014 6.0500000000000007 5.5000000000000009 21.500000000000004 7.3500000000000005 1.0000000180025095e-35 -0.34999999999999992 1.0000000180025095e-35 1.5000000000000002 4.5000000000000009 41.500000000000007 105.50000000000001 9.5000000000000018 3.2500000000000004 13.500000000000002 4.5000000000000009 78.500000000000014 35.500000000000007 75.500000000000014 0.60355339059327384 10.950000000000001 1.5000000000000002 8.1500000000000004
decision_type=10 2 2 10 10 2 2 10 10 2 2 10 8 8 2 2 2 10 10 2 10 2 2 10 10 10 2 10 2 10
left_child=2 8 4 9 5 7 17 12 -2 16 -11 -8 -1 -14 15 -15 -4 19 22 -3 -21 -20 25 -24 -25 26 -19 29 -22 -27
right_child=1 6 3 -5 -6 -7 11 -9 -10 10 -12 -13 13 14 -16 -17 -18 18 21 20 28 -23 23 24 -26 27 -28 -29 -30 -31
leaf_value=-0.0014823617266718728 0.0068691642595423543 -0.0001361659087148165 -0.00011494842179472775 0.0071999817881108624 -0.00078602235537728613 -1.8481421601201922e-05 -0.0012096687821504229 0.0059517211340958361 -3.0144343830626474e-05 -6.774709683932123e-05 -0.00018090511659084459 -0.0022619454053592657 0.0013026165487801111 -1.2834150510282473e-05 1.5831912750316478e-05 0.0012607899577801451 8.6476637979887591e-05 -0.00079564948615805104 0.0041588936927186154 -0.0015789852436770046 -0.0010827304816853262 -0.00084842711273939867 -0.0018169715742895887 -0.0012770668281997244 0.00046057923756461232 -0.001110032242235312 0.0012781164265441654 2.4341849737440083e-05 -0.0017350194676504312 -0.0011676219186602845
leaf_weight=65 27 62 721 29 27 181 110 58 24 69 42 35 21 370 1997 953 120 23 31 47 33 22 29 161 35 367 24 38 48 107
leaf_count=65 27 62 721 29 27 181 110 58 24 69 42 35 21 370 1997 953 120 23 31 47 33 22 29 161 35 367 24 38 48 107
internal_value=-0.000876447 -0.00484464 0.000166559 -0.00170744 0.000667211 0.000761317 -0.0052901 0.00101039 0.00539216 -0.00210084 -0.00608108 -0.0101724 0.000880799 0.000980245 0.000903614 0.00175737 -0.00157551 -0.00460078 -0.00403226 -0.00710526 -0.0101563 0.00424528 -0.00459184 -0.00166667 -0.000255102 -0.00576923 0.00159574 -0.00644531 -0.00648148 -0.00706751
internal_weight=5876 1223 4653 981 3672 3645 1172 3464 51 952 111 145 3406 3341 3320 1323 841 1027 837 190 128 53 784 225 196 559 47 512 81 474
internal_count=5876 1223 4653 981 3672 3645 1172 3464 51 952 111 145 3406 3341 3320 1323 841 1027 837 190 128 53 784 225 196 559 47 512 81 474
is_linear=0
shrinkage=0.05


Tree=29
num_leaves=31
num_cat=0
split_feature=6 4 0 4 8 4 7 7 0 6 6 6 0 6 3 0 7 3 7 5 6 4 6 7 6 5 0 4 6 4
split_gain=8.01403 1.99032 1.74445 1.50979 1.56839 1.47728 1.2232 1.00674 0.914329 0.838401 0.755465 0.713892 0.679724 0.903771 1.17545 0.789813 0.615989 0.565454 2.46081 1.50722 0.886251 0.941739 0.798296 1.18211 1.10208 1.21658 0.757672 0.713965 0.930838 0.907085
threshold=1.0500000000000003 0.91597561503675362 18.500000000000004 0.98296291314453421 65.500000000000014 -0.98296291314453399 99.500000000000014 75.500000000000014 9.5000000000000018 6.0500000000000007 -2.9499999999999997 7.3500000000000005 8.5000000000000018 -0.54999999999999993 1.0000000180025095e-35 1.0000000180025095e-35 13.500000000000002 1.0000000180025095e-35 78.500000000000014 -0.5 5.4500000000000011 0.12940952255126045 9.8500000000000032 98.500000000000014 8.1500000000000004 0.37940952255126048 1.5000000000000002 0.78656609248549325 6.3500000000000005 -0.5
decision_type=10 2 2 2 10 2 10 10 2 10 10 10 2 8 2 2 8 2 10 2 10 2 10 10 10 2 2 2 10 2
left_child=2 5 3 4 6 9 12 10 -8 -2 -4 -3 13 -1 -15 -16 -14 22 -19 -20 21 -21 23 -7 26 -26 -25 28 -28 -30
right_child=1 11 7 -5 -6 17 8 -9 -10 -11 -12 -13 16 14 15 -17 -18 18 19 20 -22 -23 -24 24 25 -27 27 -29 29 -31
leaf_value=-0.0014558898886803868 0.0061181392051156388 -0.0011491853430429016 -9.8315759220482526e-05 -1.7557350521141268e-05 -0.0008643161376073905 -0.00045579542970094897 0.0025229695504886021 0.00098213799835988338 0.0058559143663538434 -2.8637126639094458e-05 -0.0019081006005578424 -0.0021488481350913024 0.0017363606662062576 7.6819463589325454e-05 -0.00019003799979162018 -1.6124587642291077e-05 0.00010268688825229023 -0.0015998853989666315 0.00034665859514415587 0.002943751801947603 -0.0012302433186390184 -0.0016776453065946773 -6.0909473267542481e-05 0.0019388411592991151 -0.0010429001012129263 -0.0012748030646947781 -0.0012995824216849334 -3.040587037469872e-05 0.00057862728038877715 -0.0010834169459309206
leaf_weight=33 25 104 930 183 26 218 45 35 28 24 22 35 20 1072 48 338 1908 82 85 27 71 23 95 28 47 27 196 34 23 44
leaf_count=33 25 104 930 183 26 218 45 35 28 24 22 35 20 1072 48 338 1908 82 85 27 71 23 95 28 47 27 196 34 23 44
internal_value=-0.000961538 -0.00462963 -3.19966e-05 0.00046609 0.000696418 -0.00388465 0.000787514 -0.0018997 0.00719178 0.00459184 -0.00220588 -0.0102518 0.000650775 -0.000150905 3.42936e-05 -0.00233161 0.00127075 -0.0043 -0.00243056 0.000485437 -0.00309917 0.002 -0.00505618 -0.00571313 -0.00733083 -0.0128378 -0.00607692 -0.00681818 -0.00769962 -0.00261194
internal_weight=5876 1188 4688 3701 3518 1049 3492 987 73 49 952 139 3419 1491 1458 386 1928 1000 288 206 121 50 712 617 399 74 325 297 263 67
internal_count=5876 1188 4688 3701 3518 1049 3492 987 73 49 952 139 3419 1491 1458 386 1928 1000 288 206 121 50 712 617 399 74 325 297 263 67
is_linear=0
shrinkage=0.05


Tree=30
num_leaves=31
num_cat=0
split_feature=6 2 6 6 0 0 8 6 1 7 0 7 1 6 7 1 0 2 7 0 0 0 7 1 0 6 7 8 0 1
split_gain=7.10019 12.1079 2.09661 2.52267 2.02181 1.92946 1.77671 1.71679 1.62153 2.00946 1.58997 1.91628 1.82092 1.46531 1.44031 1.25962 1.24125 1.12851 1.25529 0.973254 0.986842 1.58431 1.36292 0.972029 1.07638 0.96886 1.28629 0.885551 0.882414 0.854585
threshold=2.0500000000000003 11.500000000000002 3.5500000000000003 8.2500000000000018 18.500000000000004 9.5000000000000018 61.500000000000007 0.55000000000000016 1.0000000180025095e-35 86.500000000000014 22.500000000000004 76.500000000000014 1.5000000000000002 -0.6499999999999998 97.500000000000014 1.5000000000000002 4.5000000000000009 6.0000000000000009 48.500000000000007 8.5000000000000018 13.500000000000002 15.500000000000002 99.500000000000014 2.5000000000000004 2.5000000000000004 6.7500000000000009 96.500000000000014 131.50000000000003 2.5000000000000004 4.5000000000000009
decision_type=10 2 10 10 2 2 10 10 2 10 2 10 2 10 10 2 2 2 10 2 2 2 10 2 2 10 10 10 2 2
left_child=4 8 -3 5 6 16 14 13 9 -2 11 12 -7 -6 17 -16 -4 23 -19 25 -21 -22 -23 -1 -25 28 -27 -8 -10 -13
right_child=1 2 3 -5 7 10 27 -9 19 -11 -12 29 -14 -15 15 -17 -18 18 -20 20 21 22 -24 24 -26 26 -28 -29 -30 -31
leaf_value=-0.00058049590735386738 0.0060563459080317829 -0.0015708683895001047 -0.0011517013208577869 -0.0011133816682081493 -9.766192821753506e-05 -0.001005804186116012 -0.0016764896182504957 -0.0017617711755405698 -0.00017882564069965357 5.4777014209461686e-05 -0.0012165104626620288 -0.0011891524583885491 -0.0016461287256267776 0.0068743082214825744 -0.00028963642117944556 0.0023972382068139053 -0.0010530103366048107 1.3790087364734528e-05 -0.0018513806174300402 0.00023333673291980745 -0.00061121000247427735 -7.5513944485021422e-05 0.0003369994314861555 -6.4123126289186705e-05 0.0029311771835019819 0.00045033737460423027 -0.0025666289868829378 -0.00014902424553516898 0.00040198554781935986 0.0014029592152664694
leaf_weight=79 23 59 100 89 956 29 23 22 21 29 20 118 25 24 24 92 103 3325 35 100 45 62 84 22 147 22 73 22 36 67
leaf_count=79 23 59 100 89 956 29 23 22 21 29 20 118 25 24 24 92 103 3325 35 100 45 62 84 22 147 22 73 22 36 67
internal_value=-0.000936011 -0.00454751 -0.0092623 -0.00830309 -9.95598e-05 -0.00681818 0.000431149 -0.00209581 0.00126263 0.00961538 -0.00395753 -0.00282427 -0.0111111 -0.00178571 0.000550483 0.00603448 -0.010468 0.000374169 0.000133929 0.000282167 0.00197595 -0.00013089 0.00239726 0.00362903 0.00576923 -0.00296053 -0.00605263 -0.00944444 0.00219298 -0.000405405
internal_weight=5876 1105 610 551 4771 462 3769 1002 495 52 259 239 54 980 3724 116 203 3608 3360 443 291 191 146 248 169 152 95 45 57 185
internal_count=5876 1105 610 551 4771 462 3769 1002 495 52 259 239 54 980 3724 116 203 3608 3360 443 291 191 146 248 169 152 95 45 57 185
is_linear=0
shrinkage=0.05


Tree=31
num_leaves=31
num_cat=0
split_feature=8 2 4 0 4 0 7 1 1 7 5 2 1 5 2 2 0 1 4 1 0 0 1 1 4 0 1 1 0 0
split_gain=6.76793 17.8408 2.11142 1.84688 1.29806 1.21991 1.25596 1.8578 1.32443 1.93755 1.30507 1.11234 1.8104 1.06185 0.984935 1.39433 2.15134 1.61378 1.92901 1.52272 1.12696 0.997086 0.850175 0.904552 0.835253 0.916498 1.88018 0.817436 0.916597 0.740173
threshold=212.50000000000003 11.500000000000002 0.91597561503675362 18.500000000000004 0.98296291314453421 22.500000000000004 37.500000000000007 4.5000000000000009 4.5000000000000009 54.500000000000007 -0.70710678118654757 6.0000000000000009 3.5000000000000004 0.37940952255126048 6.0000000000000009 11.500000000000002 1.5000000000000002 1.0000000180025095e-35 0.60355339059327384 5.5000000000000009 1.0000000180025095e-35 13.500000000000002 4.5000000000000009 1.0000000180025095e-35 0.91597561503675362 6.5000000000000009 4.5000000000000009 5.5000000000000009 21.500000000000004 17.500000000000004
decision_type=8 2 2 2 2 2 10 2 2 10 2 2 2 2 2 2 2 2 2 2 2 2 2 2 2 2 2 2 2 2
left_child=1 11 5 4 14 6 7 13 9 -8 -10 12 -1 -3 -2 17 22 18 -16 20 -19 -21 23 -17 -18 26 -26 -5 -29 -11
right_child=3 2 -4 27 -6 -7 8 -9 10 29 -12 -13 -14 -15 15 16 24 19 -20 21 -22 -23 -24 -25 25 -27 -28 28 -30 -31
leaf_value=4.6879464954664718e-05 0.0024987928045593108 -0.0011604479192529314 -0.0011835200810009689 -9.9402116333091606e-05 -1.7368987363322596e-05 -0.0016105068378196301 0.0011104939637540084 -0.0016011112135413384 0.0010503529770715101 -0.0011103120121154137 -0.001116080635876826 0.00018311235783140256 -0.00019072413813290003 -0.0010854299672316396 0.003172645154386468 -1.6722920532472043e-05 0.0018569067254311179 0.00032861542107591457 -0.0032016373635277485 0.0038133089998696971 -0.00047349052059859621 -0.0010751523965187749 -0.00022410865226120402 0.0044977088771613605 7.2288986041621492e-05 -0.00014409599566010957 -1.6007862628414359e-05 -5.4560857625454709e-05 -0.00016206097638940127 -0.0010829621410726263
leaf_weight=68 227 59 90 813 172 30 25 30 38 244 91 623 25 35 108 29 1290 59 54 155 1011 61 48 108 66 93 23 69 42 90
leaf_count=68 227 59 90 813 172 30 25 30 38 244 91 623 25 35 108 29 1290 59 54 155 1011 61 48 108 66 93 23 69 42 90
internal_value=-0.00103812 -0.00400552 -0.00949454 -6.77507e-05 0.000456621 -0.0084891 -0.00800654 -0.0125 -0.00686475 -0.00842618 -0.00251938 0.00160615 -0.00349462 -0.00904255 0.00067527 0.000442834 0.00143331 -0.000690608 0.00401235 -0.00128305 -0.00205607 0.0025463 -0.00364865 -0.00164234 0.00207201 -0.0010989 0.00252809 -0.00205628 -0.00608108 -0.00943114
internal_weight=5876 1448 732 4428 3504 642 612 124 488 359 129 716 93 94 3332 3105 1657 1448 162 1286 1070 216 185 137 1472 182 89 924 111 334
internal_count=5876 1448 732 4428 3504 642 612 124 488 359 129 716 93 94 3332 3105 1657 1448 162 1286 1070 216 185 137 1472 182 89 924 111 334
is_linear=0
shrinkage=0.05


Tree=32
num_leaves=31
num_cat=0
split_feature=6 2 6 6 4 1 7 1 7 7 1 7 4 6 4 0 0 2 6 2 1 2 1 2 6 1 2 0 6 7
split_gain=6.35288 12.6208 2.89145 2.24552 2.96441 1.89612 2.08138 1.76501 1.77077 1.46706 1.95489 1.61587 1.54002 1.38258 1.35278 1.0049 1.79873 2.13822 2.11762 1.98016 1.06991 1.1001 1.04052 3.69628 1.4594 1.01638 0.962034 1.07302 0.935285 1.6897
threshold=1.2500000000000002 11.500000000000002 3.1500000000000008 8.2500000000000018 0.91597561503675362 1.5000000000000002 99.500000000000014 1.0000000180025095e-35 86.500000000000014 76.500000000000014 4.5000000000000009 97.500000000000014 1.0000000180025095e-35 -1.7 -0.5 18.500000000000004 8.5000000000000018 11.500000000000002 0.65000000000000002 6.0000000000000009 5.5000000000000009 11.500000000000002 4.5000000000000009 11.500000000000002 -0.6499999999999998 4.5000000000000009 6.0000000000000009 10.500000000000002 4.5500000000000007 64.500000000000014
decision_type=10 2 10 10 2 2 10 2 10 10 2 10 2 10 2 2 2 2 8 2 2 2 2 2 8 2 2 2 10 10
left_child=5 7 -3 4 9 13 15 8 -2 10 12 -11 -4 -1 -13 16 22 19 -19 -18 21 25 24 -24 -7 -17 27 -9 29 -28
right_child=1 2 3 -5 -6 6 -8 26 -10 11 -12 14 -14 -15 -16 20 17 18 -20 -21 -22 -23 23 -25 -26 -27 28 -29 -30 -31
leaf_value=-9.4432010516437581e-05 0.0052443729872880401 -0.0014002574953262516 0.0010804949936198351 -0.0010021969841919707 -0.0011174666304825983 -0.0020434060583973085 0.0031384819526390803 -0.00015840398233141206 4.4979031121535068e-05 0.0012966771217498467 -0.0015324755304418278 -0.0011208338309564706 -0.00096219152732394681 -0.001713800742432184 -0.0010236930839845574 -0.00036592484838577635 0.0026144696634244485 -0.002239008265153514 0.0019546989636598762 -0.00026416685310007569 -5.9862539851859854e-05 -8.3546769031928039e-05 0.0001583118628057989 -0.00012783121396365839 3.8561620992194623e-06 0.00010424915678155234 -0.00014707935237397025 0.00088986669437415573 -4.1499075881855368e-05 0.0035828468510035517
leaf_weight=1278 25 46 32 89 65 21 98 21 34 26 35 105 25 59 197 229 142 20 627 618 113 262 226 218 730 65 44 24 330 72
leaf_count=1278 25 46 32 89 65 21 98 21 34 26 35 105 25 59 197 229 142 20 627 618 113 262 226 218 730 65 44 24 330 72
internal_value=-0.00148911 -0.00478632 -0.00967742 -0.0087108 -0.00737113 -0.000669358 -3.7103e-05 0.000727273 0.00889831 -0.00583333 -0.011413 -0.00426829 -0.00570175 -0.00226253 -0.00529801 -0.000252216 0.00019216 0.0014037 0.00351623 -0.000394737 -0.00198057 -0.00107914 -0.00123431 -0.00315315 -9.98668e-05 0.00102041 -0.000254582 -0.00722222 0.00044843 0.00431034
internal_weight=5876 1170 620 574 485 4706 3369 550 59 420 92 328 57 1337 302 3271 2602 1407 647 760 669 556 1195 444 751 294 491 45 446 116
internal_count=5876 1170 620 574 485 4706 3369 550 59 420 92 328 57 1337 302 3271 2602 1407 647 760 669 556 1195 444 751 294 491 45 446 116
is_linear=0
shrinkage=0.05


Tree=33
num_leaves=31
num_cat=0
split_feature=8 2 5 4 1 0 7 1 4 1 7 5 1 2 2 0 5 2 1 1 5 0 4 1 8 5 7 5 7 5
split_gain=5.06462 16.7504 2.84448 2.2338 1.52354 1.27851 1.16912 1.44974 1.21251 1.42424 1.77026 1.37462 1.156 1.38448 1.63308 1.89325 1.06185 1.05226 1.8104 0.924176 1.19436 0.857341 0.919149 0.856257 0.7394 1.5231 1.61233 1.47815 0.733392 0.7124
threshold=212.50000000000003 11.500000000000002 1.0000000180025095e-35 0.91597561503675362 5.5000000000000009 22.500000000000004 37.500000000000007 4.5000000000000009 -0.98296291314453399 4.5000000000000009 54.500000000000007 -0.70710678118654757 5.5000000000000009 6.0000000000000009 11.500000000000002 8.5000000000000018 0.37940952255126048 6.0000000000000009 3.5000000000000004 2.5000000000000004 -0.5 21.500000000000004 0.60355339059327384 1.5000000000000002 61.500000000000007 -0.5 93.500000000000014 -0.9159756150367534 75.500000000000014 0.1294095225512602
decision_type=8 2 2 2 2 2 10 2 2 2 10 2 2 2 2 2 2 2 2 2 2 2 2 2 10 2 10 2 10 2
left_child=1 17 12 5 -4 6 7 16 -8 10 -10 -11 13 19 -15 -16 -3 18 29 20 -2 22 -6 -17 25 26 -19 -26 -27 -1
right_child=2 3 4 -5 21 -7 8 -9 9 11 -12 -13 -14 14 15 23 -18 24 -20 -21 -22 -23 -24 -25 27 28 -28 -29 -30 -31
leaf_value=0.0015437345508496738 -0.0011841892589766784 -0.0010543159469240879 -2.0749158334892883e-05 -0.0010684707454267904 -5.6869412859267282e-05 -0.001536806096872781 0.00093295182436988204 -0.0014510427780979594 0.00091665656514640099 0.00099101072727380136 -0.0010306951454247565 -0.0010090919498837573 0.0019096175585555071 -0.00011738770525349663 -0.00013376070374969545 0.0021795256177664147 -0.00098304889250386144 0.0092380818046727611 -0.00030465566101352541 0.0025289552009276936 0.0048592011046320162 -0.00015096480057733981 -0.00018548046013727726 0.0018569640154768837 0.00027552885454273229 0.00061967343706209187 0.00010468418625594472 -0.00014331947072453445 7.7057455295542754e-05 -0.00038157986631817274
leaf_weight=42 43 59 1884 90 141 30 26 30 24 38 315 85 290 830 160 299 35 22 25 117 22 42 94 506 54 122 78 43 304 26
leaf_count=42 43 59 1884 90 141 30 26 30 24 38 315 85 290 830 160 299 35 22 25 117 22 42 94 506 54 122 78 43 304 26
internal_value=-0.00140402 -0.00397099 -0.000564589 -0.00928962 -0.00186256 -0.00825545 -0.00776144 -0.0120968 -0.00665984 -0.00725108 -0.0089233 -0.00264228 0.000672695 0.000240263 -0.000181058 0.00121762 -0.00904255 0.00146648 -0.00349462 0.0043956 -0.000384615 -0.00532491 -0.00414894 0.00220497 0.00220706 0.00294677 0.0085 -0.00180412 0.00164319 0.000735294
internal_weight=5876 1448 4428 732 2161 642 612 124 488 462 339 123 2267 1977 1795 965 94 716 93 182 65 277 235 805 623 526 100 97 426 68
internal_count=5876 1448 4428 732 2161 642 612 124 488 462 339 123 2267 1977 1795 965 94 716 93 182 65 277 235 805 623 526 100 97 426 68
is_linear=0
shrinkage=0.05


Tree=34
num_leaves=31
num_cat=0
split_feature=6 5 8 4 1 7 4 6 1 1 6 6 5 6 6 8 7 8 8 1 4 5 1 7 8 6 6 7 6 4
split_gain=7.30652 2.99356 1.98772 1.80809 1.30609 1.53948 1.16508 1.22125 1.11287 0.996019 0.938598 0.926367 0.872881 0.867538 1.191 1.10969 1.24141 1.00973 0.996286 0.837696 1.65 1.01678 0.863636 1.52408 1.59468 1.38533 1.59301 0.974748 1.0471 1.35862
threshold=1.2500000000000002 1.0000000180025095e-35 61.500000000000007 0.78656609248549325 1.5000000000000002 99.500000000000014 -0.98296291314453399 6.0500000000000007 5.5000000000000009 1.0000000180025095e-35 1.0000000180025095e-35 7.0500000000000007 0.37940952255126048 9.8500000000000032 8.1500000000000004 182.50000000000003 1.5000000000000002 23.500000000000004 12.500000000000002 5.5000000000000009 0.25881904510252091 0.98296291314453421 1.5000000000000002 54.500000000000007 4.5000000000000009 3.4500000000000006 5.7500000000000009 98.500000000000014 6.3500000000000005 -0.37940952255126059
decision_type=10 2 10 2 2 10 2 10 2 2 10 10 2 10 10 10 10 10 10 2 2 2 2 10 10 10 10 10 10 2
left_child=1 2 4 6 -1 -6 7 -2 9 12 -11 -5 -3 14 15 16 -8 -16 -15 21 -21 22 27 -24 -25 -26 -27 -18 29 -29
right_child=3 8 -4 11 5 -7 13 -9 -10 10 -12 -13 -14 18 17 -17 19 -19 -20 20 -22 -23 23 24 25 26 -28 28 -30 -31
leaf_value=-0.00011151831999082207 0.0056032314400790264 3.725207644683648e-06 -0.00078518620209608184 -0.00084037351641340634 0.00020186319567054025 0.0052726334811331408 -0.0012786625087616377 -4.7928509489307547e-05 -0.00010913183273610628 -1.9711700418148517e-05 0.0022568693465263023 -0.0019201153672485248 -8.8672952073870501e-05 0.00020347155680463803 -0.00081746459768633625 0.0026365145577516751 0.0010061631437350506 -0.00017690326351442188 -0.00026771848891630757 -0.00082989896260674825 0.0015978135337749999 0.00094513235824582049 -0.0013323077540071686 -0.0011011791088334007 0.0028148654264935572 -0.0013104608988049383 0.00020180538560165135 -0.00016688780022950379 4.8660753208545907e-05 -0.0010598948737508482
leaf_weight=664 23 76 28 153 1663 32 32 24 288 1681 43 74 231 44 72 20 81 39 47 80 30 29 32 178 23 43 54 35 23 34
leaf_count=664 23 76 28 153 1663 32 32 24 288 1681 43 74 231 44 72 20 81 39 47 80 30 29 32 178 23 43 54 35 23 34
